{"learner":{"attributes":{},"feature_names":["Protocol","Flow Duration","Total Fwd Packets","Total Backward Packets","Fwd Packets Length Total","Bwd Packets Length Total","Fwd Packet Length Max","Fwd Packet Length Min","Fwd Packet Length Mean","Fwd Packet Length Std","Bwd Packet Length Max","Bwd Packet Length Min","Bwd Packet Length Mean","Bwd Packet Length Std","Flow Bytes/s","Flow Packets/s","Flow IAT Mean","Flow IAT Std","Flow IAT Max","Flow IAT Min","Fwd IAT Total","Fwd IAT Mean","Fwd IAT Std","Fwd IAT Max","Fwd IAT Min","Bwd IAT Total","Bwd IAT Mean","Bwd IAT Std","Bwd IAT Max","Bwd IAT Min","Fwd PSH Flags","Bwd PSH Flags","Fwd URG Flags","Bwd URG Flags","Fwd Header Length","Bwd Header Length","Fwd Packets/s","Bwd Packets/s","Packet Length Min","Packet Length Max","Packet Length Mean","Packet Length Std","Packet Length Variance","FIN Flag Count","SYN Flag Count","RST Flag Count","PSH Flag Count","ACK Flag Count","URG Flag Count","CWE Flag Count","ECE Flag Count","Down/Up Ratio","Avg Packet Size","Avg Fwd Segment Size","Avg Bwd Segment Size","Fwd Avg Bytes/Bulk","Fwd Avg Packets/Bulk","Fwd Avg Bulk Rate","Bwd Avg Bytes/Bulk","Bwd Avg Packets/Bulk","Bwd Avg Bulk Rate","Subflow Fwd Packets","Subflow Fwd Bytes","Subflow Bwd Packets","Subflow Bwd Bytes","Init Fwd Win Bytes","Init Bwd Win Bytes","Fwd Act Data Packets","Fwd Seg Size Min","Active Mean","Active Std","Active Max","Active Min","Idle Mean","Idle Std","Idle Max","Idle Min"],"feature_types":["int","int","int","int","int","int","int","int","float","float","int","int","float","float","float","float","float","float","int","int","int","float","float","int","int","int","float","float","int","int","int","int","int","int","int","int","float","float","int","int","float","float","float","int","int","int","int","int","int","int","int","int","float","float","float","int","int","int","int","int","int","int","int","int","int","int","int","int","int","float","float","int","int","float","float","int","int"],"gradient_booster":{"model":{"gbtree_model_param":{"num_parallel_tree":"1","num_trees":"1500"},"iteration_indptr":[0,15,30,45,60,75,90,105,120,135,150,165,180,195,210,225,240,255,270,285,300,315,330,345,360,375,390,405,420,435,450,465,480,495,510,525,540,555,570,585,600,615,630,645,660,675,690,705,720,735,750,765,780,795,810,825,840,855,870,885,900,915,930,945,960,975,990,1005,1020,1035,1050,1065,1080,1095,1110,1125,1140,1155,1170,1185,1200,1215,1230,1245,1260,1275,1290,1305,1320,1335,1350,1365,1380,1395,1410,1425,1440,1455,1470,1485,1500],"tree_info":[0,1,2,3,4,5,6,7,8,9,10,11,12,13,14,0,1,2,3,4,5,6,7,8,9,10,11,12,13,14,0,1,2,3,4,5,6,7,8,9,10,11,12,13,14,0,1,2,3,4,5,6,7,8,9,10,11,12,13,14,0,1,2,3,4,5,6,7,8,9,10,11,12,13,14,0,1,2,3,4,5,6,7,8,9,10,11,12,13,14,0,1,2,3,4,5,6,7,8,9,10,11,12,13,14,0,1,2,3,4,5,6,7,8,9,10,11,12,13,14,0,1,2,3,4,5,6,7,8,9,10,11,12,13,14,0,1,2,3,4,5,6,7,8,9,10,11,12,13,14,0,1,2,3,4,5,6,7,8,9,10,11,12,13,14,0,1,2,3,4,5,6,7,8,9,10,11,12,13,14,0,1,2,3,4,5,6,7,8,9,10,11,12,13,14,0,1,2,3,4,5,6,7,8,9,10,11,12,13,14,0,1,2,3,4,5,6,7,8,9,10,11,12,13,14,0,1,2,3,4,5,6,7,8,9,10,11,12,13,14,0,1,2,3,4,5,6,7,8,9,10,11,12,13,14,0,1,2,3,4,5,6,7,8,9,10,11,12,13,14,0,1,2,3,4,5,6,7,8,9,10,11,12,13,14,0,1,2,3,4,5,6,7,8,9,10,11,12,13,14,0,1,2,3,4,5,6,7,8,9,10,11,12,13,14,0,1,2,3,4,5,6,7,8,9,10,11,12,13,14,0,1,2,3,4,5,6,7,8,9,10,11,12,13,14,0,1,2,3,4,5,6,7,8,9,10,11,12,13,14,0,1,2,3,4,5,6,7,8,9,10,11,12,13,14,0,1,2,3,4,5,6,7,8,9,10,11,12,13,14,0,1,2,3,4,5,6,7,8,9,10,11,12,13,14,0,1,2,3,4,5,6,7,8,9,10,11,12,13,14,0,1,2,3,4,5,6,7,8,9,10,11,12,13,14,0,1,2,3,4,5,6,7,8,9,10,11,12,13,14,0,1,2,3,4,5,6,7,8,9,10,11,12,13,14,0,1,2,3,4,5,6,7,8,9,10,11,12,13,14,0,1,2,3,4,5,6,7,8,9,10,11,12,13,14,0,1,2,3,4,5,6,7,8,9,10,11,12,13,14,0,1,2,3,4,5,6,7,8,9,10,11,12,13,14,0,1,2,3,4,5,6,7,8,9,10,11,12,13,14,0,1,2,3,4,5,6,7,8,9,10,11,12,13,14,0,1,2,3,4,5,6,7,8,9,10,11,12,13,14,0,1,2,3,4,5,6,7,8,9,10,11,12,13,14,0,1,2,3,4,5,6,7,8,9,10,11,12,13,14,0,1,2,3,4,5,6,7,8,9,10,11,12,13,14,0,1,2,3,4,5,6,7,8,9,10,11,12,13,14,0,1,2,3,4,5,6,7,8,9,10,11,12,13,14,0,1,2,3,4,5,6,7,8,9,10,11,12,13,14,0,1,2,3,4,5,6,7,8,9,10,11,12,13,14,0,1,2,3,4,5,6,7,8,9,10,11,12,13,14,0,1,2,3,4,5,6,7,8,9,10,11,12,13,14,0,1,2,3,4,5,6,7,8,9,10,11,12,13,14,0,1,2,3,4,5,6,7,8,9,10,11,12,13,14,0,1,2,3,4,5,6,7,8,9,10,11,12,13,14,0,1,2,3,4,5,6,7,8,9,10,11,12,13,14,0,1,2,3,4,5,6,7,8,9,10,11,12,13,14,0,1,2,3,4,5,6,7,8,9,10,11,12,13,14,0,1,2,3,4,5,6,7,8,9,10,11,12,13,14,0,1,2,3,4,5,6,7,8,9,10,11,12,13,14,0,1,2,3,4,5,6,7,8,9,10,11,12,13,14,0,1,2,3,4,5,6,7,8,9,10,11,12,13,14,0,1,2,3,4,5,6,7,8,9,10,11,12,13,14,0,1,2,3,4,5,6,7,8,9,10,11,12,13,14,0,1,2,3,4,5,6,7,8,9,10,11,12,13,14,0,1,2,3,4,5,6,7,8,9,10,11,12,13,14,0,1,2,3,4,5,6,7,8,9,10,11,12,13,14,0,1,2,3,4,5,6,7,8,9,10,11,12,13,14,0,1,2,3,4,5,6,7,8,9,10,11,12,13,14,0,1,2,3,4,5,6,7,8,9,10,11,12,13,14,0,1,2,3,4,5,6,7,8,9,10,11,12,13,14,0,1,2,3,4,5,6,7,8,9,10,11,12,13,14,0,1,2,3,4,5,6,7,8,9,10,11,12,13,14,0,1,2,3,4,5,6,7,8,9,10,11,12,13,14,0,1,2,3,4,5,6,7,8,9,10,11,12,13,14,0,1,2,3,4,5,6,7,8,9,10,11,12,13,14,0,1,2,3,4,5,6,7,8,9,10,11,12,13,14,0,1,2,3,4,5,6,7,8,9,10,11,12,13,14,0,1,2,3,4,5,6,7,8,9,10,11,12,13,14,0,1,2,3,4,5,6,7,8,9,10,11,12,13,14,0,1,2,3,4,5,6,7,8,9,10,11,12,13,14,0,1,2,3,4,5,6,7,8,9,10,11,12,13,14,0,1,2,3,4,5,6,7,8,9,10,11,12,13,14,0,1,2,3,4,5,6,7,8,9,10,11,12,13,14,0,1,2,3,4,5,6,7,8,9,10,11,12,13,14,0,1,2,3,4,5,6,7,8,9,10,11,12,13,14,0,1,2,3,4,5,6,7,8,9,10,11,12,13,14,0,1,2,3,4,5,6,7,8,9,10,11,12,13,14,0,1,2,3,4,5,6,7,8,9,10,11,12,13,14,0,1,2,3,4,5,6,7,8,9,10,11,12,13,14,0,1,2,3,4,5,6,7,8,9,10,11,12,13,14,0,1,2,3,4,5,6,7,8,9,10,11,12,13,14,0,1,2,3,4,5,6,7,8,9,10,11,12,13,14,0,1,2,3,4,5,6,7,8,9,10,11,12,13,14,0,1,2,3,4,5,6,7,8,9,10,11,12,13,14,0,1,2,3,4,5,6,7,8,9,10,11,12,13,14,0,1,2,3,4,5,6,7,8,9,10,11,12,13,14,0,1,2,3,4,5,6,7,8,9,10,11,12,13,14,0,1,2,3,4,5,6,7,8,9,10,11,12,13,14,0,1,2,3,4,5,6,7,8,9,10,11,12,13,14,0,1,2,3,4,5,6,7,8,9,10,11,12,13,14,0,1,2,3,4,5,6,7,8,9,10,11,12,13,14,0,1,2,3,4,5,6,7,8,9,10,11,12,13,14,0,1,2,3,4,5,6,7,8,9,10,11,12,13,14,0,1,2,3,4,5,6,7,8,9,10,11,12,13,14],"trees":[{"base_weights":[6.043293E0,7.0287066E0,-4.420552E-1,4.947817E0,7.3488693E0,2.2365775E0,-4.9675584E-1,7.0303617E0,6.225581E-1,7.392783E0,3.9615643E0,-5.335327E-1,7.3364625E0,7.1158533E0,-4.9562442E-1,7.153576E0,2.6001133E-2,7.071546E0,7.4594064E0,7.403571E0,7.762382E-1,1.2790564E0,-5.3427994E-1,2.211119E0,7.128713E-1,7.206289E0,5.005626E-1,-1.5404499E-1,5.2185543E-2,2.2437937E0,1.1958143E-1,-1.9765313E-1,2.2379062E0,7.290789E0,4.237177E0,7.4803343E0,6.8557024E0,7.4346733E0,2.552581E0,-8.538562E-2,2.2288046E0,-5.3465366E-1,7.9569095E-1,2.2063305E0,1.3079987E0,2.155356E0,-1.2990344E-1,1.5278174E0,-1.5419295E-1,-8.846899E-2,1.8098443E0,2.1924117E0,-9.222447E-2,8.453599E-3,2.0236435E0,2.2448614E0,1.839478E0,-3.937251E-2,2.2415762E0,2.2450516E0,1.7875432E0,1.397474E0,2.3282783E-1,2.2016613E0,-1.593457E-1,4.41637E-2,-1.6057043E-1],"categories":[],"categories_nodes":[],"categories_segments":[],"categories_sizes":[],"default_left":[0,0,0,0,0,0,0,0,0,0,0,0,0,0,0,0,0,0,0,0,0,0,0,0,0,0,0,0,0,0,0,0,0,0,0,0,0,0,0,0,0,0,0,0,0,0,0,0,0,0,0,0,0,0,0,0,0,0,0,0,0,0,0,0,0,0,0],"id":0,"left_children":[1,3,5,7,9,-1,11,13,15,17,19,21,23,25,27,29,31,33,35,37,39,-1,41,-1,-1,43,45,-1,-1,-1,47,49,-1,51,53,55,57,59,61,63,-1,65,-1,-1,-1,-1,-1,-1,-1,-1,-1,-1,-1,-1,-1,-1,-1,-1,-1,-1,-1,-1,-1,-1,-1,-1,-1],"loss_changes":[1.180212E6,1.067695E5,1.052694E4,1.9257634E5,2.06375E4,0E0,6.973562E3,9.2888125E3,2.707634E4,2.8825E3,1.9513383E4,8.860498E1,1.5273438E0,8.5330625E3,2.0387764E0,1.3318164E3,1.0590331E4,1.4621375E4,1.384E3,1.10109375E2,5.307458E3,0E0,3.0090332E1,0E0,0E0,5.9036875E3,1.2106423E3,0E0,0E0,0E0,8.693227E1,3.7484321E3,0E0,2.8705E3,1.7897945E4,3.295E2,1.6436453E4,1.6648438E1,2.2469849E1,2.7196335E3,0E0,9.618652E0,0E0,0E0,0E0,0E0,0E0,0E0,0E0,0E0,0E0,0E0,0E0,0E0,0E0,0E0,0E0,0E0,0E0,0E0,0E0,0E0,0E0,0E0,0E0,0E0,0E0],"parents":[2147483647,0,0,1,1,2,2,3,3,4,4,6,6,7,7,8,8,9,9,10,10,11,11,12,12,13,13,14,14,15,15,16,16,17,17,18,18,19,19,20,20,22,22,25,25,26,26,30,30,31,31,33,33,34,34,35,35,36,36,37,37,38,38,39,39,41,41],"right_children":[2,4,6,8,10,-1,12,14,16,18,20,22,24,26,28,30,32,34,36,38,40,-1,42,-1,-1,44,46,-1,-1,-1,48,50,-1,52,54,56,58,60,62,64,-1,66,-1,-1,-1,-1,-1,-1,-1,-1,-1,-1,-1,-1,-1,-1,-1,-1,-1,-1,-1,-1,-1,-1,-1,-1,-1],"split_conditions":[1.4371538E3,3.0589836E-2,2.27E2,4E0,1E0,2.2365775E0,2.43E2,1.2E2,2.51E2,1.4333333E1,1.92E2,3.1058334E2,2.3254014E3,0E0,2.004209E6,1E0,3.0016E4,9.25E0,1E3,1.45E2,2.37E2,1.2790564E0,1.3508E4,2.211119E0,7.128713E-1,2.999631E6,3.2E7,-1.5404499E-1,5.2185543E-2,2.2437937E0,5.2E1,6.495312E3,2.2379062E0,1.36E7,1.3446189E1,1.3025323E3,3.167E3,9.38E2,1.7357846E2,2.35E2,2.2288046E0,1.0394602E3,7.9569095E-1,2.2063305E0,1.3079987E0,2.155356E0,-1.2990344E-1,1.5278174E0,-1.5419295E-1,-8.846899E-2,1.8098443E0,2.1924117E0,-9.222447E-2,8.453599E-3,2.0236435E0,2.2448614E0,1.839478E0,-3.937251E-2,2.2415762E0,2.2450516E0,1.7875432E0,1.397474E0,2.3282783E-1,2.2016613E0,-1.593457E-1,4.41637E-2,-1.6057043E-1],"split_indices":[13,37,66,2,43,0,66,34,65,8,21,40,41,66,18,43,65,52,35,24,66,0,5,0,0,19,21,0,0,0,1,14,0,21,41,13,5,29,14,66,0,41,0,0,0,0,0,0,0,0,0,0,0,0,0,0,0,0,0,0,0,0,0,0,0,0,0],"split_type":[0,0,0,0,0,0,0,0,0,0,0,0,0,0,0,0,0,0,0,0,0,0,0,0,0,0,0,0,0,0,0,0,0,0,0,0,0,0,0,0,0,0,0,0,0,0,0,0,0,0,0,0,0,0,0,0,0,0,0,0,0,0,0,0,0,0,0],"sum_hessian":[1.8467345E5,1.6031445E5,2.4359006E4,2.1378936E4,1.3893552E5,1.6663112E2,2.4192375E4,1.443033E4,6.948605E3,1.371562E5,1.7793068E3,2.408025E4,1.1212445E2,1.4268304E4,1.6202669E2,5.8065784E2,6.3679473E3,2.3577992E4,1.1357821E5,8.5456006E2,9.2474677E2,2.8622224E0,2.4077389E4,1.1088001E2,1.2444446E0,1.4075788E4,1.9251558E2,1.5804446E2,3.9822226E0,5.548978E2,2.5760002E1,6.1828984E3,1.850489E2,2.1883682E4,1.6943113E3,1.09761875E5,3.8163381E3,8.4858673E2,5.973334E0,8.195912E2,1.0515556E2,2.4075398E4,1.9911113E0,1.3377903E4,6.978845E2,2.2773335E1,1.6974223E2,2.1155558E0,2.3644447E1,6.0888184E3,9.408001E1,2.1834152E4,4.9528893E1,6.3304895E2,1.0612623E3,1.0955131E5,2.1056001E2,3.0936893E2,3.5069692E3,8.1747565E2,3.1111115E1,1.9911113E0,3.9822226E0,4.554667E1,7.740445E2,2.0284447E1,2.4055113E4],"tree_param":{"num_deleted":"0","num_feature":"77","num_nodes":"67","size_leaf_vector":"1"}},{"base_weights":[-5.2941924E-1,-5.3413355E-1,-4.630924E-1,-5.3483087E-1,-5.163407E-1,-1.6232565E-2,-1.6061379E-1,-5.350333E-1,-4.8138437E-1,-1.6067648E-1,-4.8022708E-1,1.7365631E0,-2.5024092E-1,-1.6070871E-1,-5.319116E-1,-5.2836597E-1,1.0368505E0,-1.6053754E-1,-4.4349575E-1,5.934795E0,-4.6403635E-1,-5.0282437E-1,1.9570637E0,-4.5905802E-1,-5.336863E-1,-1.6044778E-1,-2.3705006E-1,-4.3622229E-1,1.617752E0,2.8402364E0,-4.960977E-1,-1.4886996E-1,2.2103531E0,8.70827E-2,-1.5936062E-1,-2.1673988E-1,-5.272642E-1,4.7986603E-1,2.5910263E0,-5.941469E-2,-1.6041714E-1,-1.6067378E-1,-1.5323165E-1,4.8113206E-1,-1.492891E-1,-1.493893E-1,4.4554453E-2,-1.3989638E-1,1.3039244E0,-3.2461684E-2,-1.5087721E-1,-1.493893E-1,1.1886792E0,2.8651685E-1,-1.327195E-1,-1.6056658E-1,-1.4091858E-1,-1.5243763E-1,3.349977E-1,8.3341235E-1,3.8946012E-1],"categories":[],"categories_nodes":[],"categories_segments":[],"categories_sizes":[],"default_left":[0,0,0,0,0,0,0,0,0,0,0,0,0,0,0,0,0,0,0,0,0,0,0,0,0,0,0,0,0,0,0,0,0,0,0,0,0,0,0,0,0,0,0,0,0,0,0,0,0,0,0,0,0,0,0,0,0,0,0,0,0],"id":1,"left_children":[1,3,5,7,9,11,-1,13,15,-1,17,19,21,-1,23,25,27,-1,29,31,33,35,37,39,41,-1,43,45,-1,47,49,-1,-1,51,-1,53,55,57,59,-1,-1,-1,-1,-1,-1,-1,-1,-1,-1,-1,-1,-1,-1,-1,-1,-1,-1,-1,-1,-1,-1],"loss_changes":[5.7496094E1,1.8632812E0,3.961006E2,1.5351562E0,4.282837E0,7.012089E2,0E0,5.859375E-2,4.588942E1,0E0,4.361145E0,1.8630029E3,8.41819E2,0E0,3.5136719E0,1.0348358E0,1.2694064E2,0E0,2.3841791E2,6.4250757E2,4.9707413E0,9.3532715E0,1.439707E2,1.3686844E1,9.5654297E-1,0E0,8.082862E0,6.3122225E-1,0E0,1.1050804E2,3.5237427E0,0E0,0E0,3.6685852E1,0E0,2.9052177E1,3.19458E-1,3.063499E1,2.2570984E1,0E0,0E0,0E0,0E0,0E0,0E0,0E0,0E0,0E0,0E0,0E0,0E0,0E0,0E0,0E0,0E0,0E0,0E0,0E0,0E0,0E0,0E0],"parents":[2147483647,0,0,1,1,2,2,3,3,4,4,5,5,7,7,8,8,10,10,11,11,12,12,14,14,15,15,16,16,18,18,19,19,20,20,21,21,22,22,23,23,24,24,26,26,27,27,29,29,30,30,33,33,35,35,36,36,37,37,38,38],"right_children":[2,4,6,8,10,12,-1,14,16,-1,18,20,22,-1,24,26,28,-1,30,32,34,36,38,40,42,-1,44,46,-1,48,50,-1,-1,52,-1,54,56,58,60,-1,-1,-1,-1,-1,-1,-1,-1,-1,-1,-1,-1,-1,-1,-1,-1,-1,-1,-1,-1,-1,-1],"split_conditions":[5.26E2,1.8867924E4,6.23641E5,1.8467E4,9E0,7.18E2,-1.6061379E-1,2.37E2,1.9676671E3,-1.6067648E-1,2.37E2,2.01E2,2.6087431E5,-1.6070871E-1,2.43E2,1.6675159E3,1.895555E2,-1.6053754E-1,2.45E2,1.72E2,1.36E2,9.38E2,6.102412E2,1E0,9.1603055E4,-1.6044778E-1,3.52744E5,4.4E1,1.617752E0,2.56E2,2.52E2,-1.4886996E-1,2.2103531E0,1.3E2,-1.5936062E-1,2.01E2,3.0424021E4,3E0,5.81E2,-5.941469E-2,-1.6041714E-1,-1.6067378E-1,-1.5323165E-1,4.8113206E-1,-1.492891E-1,-1.493893E-1,4.4554453E-2,-1.3989638E-1,1.3039244E0,-3.2461684E-2,-1.5087721E-1,-1.493893E-1,1.1886792E0,2.8651685E-1,-1.327195E-1,-1.6056658E-1,-1.4091858E-1,-1.5243763E-1,3.349977E-1,8.3341235E-1,3.8946012E-1],"split_indices":[29,37,18,4,52,29,0,66,41,0,65,39,17,0,66,41,37,0,65,6,5,29,27,51,14,0,1,24,0,66,65,0,0,5,0,39,27,3,19,0,0,0,0,0,0,0,0,0,0,0,0,0,0,0,0,0,0,0,0,0,0],"split_type":[0,0,0,0,0,0,0,0,0,0,0,0,0,0,0,0,0,0,0,0,0,0,0,0,0,0,0,0,0,0,0,0,0,0,0,0,0,0,0,0,0,0,0,0,0,0,0,0,0,0,0,0,0,0,0,0,0,0,0,0,0],"sum_hessian":[1.8467345E5,1.7241181E5,1.2261637E4,1.6588147E5,6.530347E3,1.7075023E3,1.0554134E4,1.6524681E5,6.3466675E2,4.250898E3,2.279449E3,2.0035558E2,1.5071469E3,1.3617981E5,2.9066988E4,6.1624896E2,1.841778E1,9.0832007E2,1.371129E3,6.832001E1,1.3203557E2,1.3530846E3,1.5406224E2,6.973867E2,2.8369602E4,6.0206226E2,1.4186667E1,1.4435556E1,3.9822226E0,2.0782225E1,1.3503468E3,1.256889E1,5.5751114E1,1.4311112E1,1.1772446E2,1.0727112E2,1.2458135E3,4.6791115E1,1.0727112E2,1.5754668E2,5.3984E2,2.618411E4,2.1854934E3,1.1200001E0,1.3066668E1,1.31911125E1,1.2444446E0,6.7200007E0,1.4062223E1,2.3644447E1,1.3267024E3,1.31911125E1,1.1200001E0,1.6800001E1,9.0471115E1,1.0871467E3,1.5866669E2,1.841778E1,2.8373335E1,9.271112E1,1.4560001E1],"tree_param":{"num_deleted":"0","num_feature":"77","num_nodes":"61","size_leaf_vector":"1"}},{"base_weights":[1.9119026E-2,-3.0735794E-1,5.040994E0,1.3768015E0,-5.199993E-1,7.4939322E0,-1.6066763E-1,-5.284134E-1,6.7022076E0,-5.300967E-1,1.7617919E-1,-1.33829E-1,2.2497125E0,-5.2977866E-1,-2.6956972E-1,7.4424353E0,-1.6037683E-1,-5.322928E-1,-1.13102995E-1,7.215665E0,-1.6063397E-1,-5.33462E-1,-4.5613727E-1,-1.5830502E-1,1.2572758E0,7.4726744E0,-1.5204889E-1,-5.338104E-1,-3.8265193E-1,-5.310142E-1,6.867416E0,-1.3846155E-1,2.2385206E0,-1.6052186E-1,-1.3383342E-1,-1.5682742E-1,3.4682497E-1,-1.4085668E-1,1.2522936E0,-1.4754099E-1,2.247629E0,-1.6019708E-1,-3.7795126E-2,-1.5958317E-1,1.151431E0,-1.6049796E-1,-5.806452E-2,2.1969838E0,-1.1623617E-1],"categories":[],"categories_nodes":[],"categories_segments":[],"categories_sizes":[],"default_left":[0,0,0,0,0,0,0,0,0,0,0,0,0,0,0,0,0,0,0,0,0,0,0,0,0,0,0,0,0,0,0,0,0,0,0,0,0,0,0,0,0,0,0,0,0,0,0,0,0],"id":2,"left_children":[1,3,5,7,9,11,-1,13,15,17,19,-1,-1,21,23,25,-1,27,29,31,-1,33,35,-1,37,39,-1,41,43,45,47,-1,-1,-1,-1,-1,-1,-1,-1,-1,-1,-1,-1,-1,-1,-1,-1,-1,-1],"loss_changes":[3.0278022E5,6.209993E4,1.5420744E5,1.9723853E5,1.0823984E3,3.2090625E2,0E0,4.916748E0,2.7443312E4,1.3891406E2,1.1034359E4,0E0,0E0,3.6201172E0,3.1072178E1,1.1208281E3,0E0,3.408203E1,2.326714E3,3.854756E2,0E0,1.6689453E0,7.4212814E1,0E0,5.9651886E1,7.1978125E2,0E0,1.08984375E1,9.5934094E2,9.0657043E-1,1.5183936E2,0E0,0E0,0E0,0E0,0E0,0E0,0E0,0E0,0E0,0E0,0E0,0E0,0E0,0E0,0E0,0E0,0E0,0E0],"parents":[2147483647,0,0,1,1,2,2,3,3,4,4,5,5,7,7,8,8,9,9,10,10,13,13,14,14,15,15,17,17,18,18,19,19,21,21,22,22,24,24,25,25,27,27,28,28,29,29,30,30],"right_children":[2,4,6,8,10,12,-1,14,16,18,20,-1,-1,22,24,26,-1,28,30,32,-1,34,36,-1,38,40,-1,42,44,46,48,-1,-1,-1,-1,-1,-1,-1,-1,-1,-1,-1,-1,-1,-1,-1,-1,-1,-1],"split_conditions":[1.9335E3,1E0,2.3E1,3E0,1.1627E3,1.4E1,-1.6066763E-1,1E0,3.7E1,3.79E7,3E1,-1.33829E-1,2.2497125E0,7.7924194E5,1E0,2.57E2,-1.6037683E-1,1.077552E6,1.1601E4,2E1,-1.6063397E-1,5.174521E6,2E0,-1.5830502E-1,1.92E2,2.56E2,-1.5204889E-1,1.23E7,1.2210995E3,7E0,1.1E1,-1.3846155E-1,2.2385206E0,-1.6052186E-1,-1.3383342E-1,-1.5682742E-1,3.4682497E-1,-1.4085668E-1,1.2522936E0,-1.4754099E-1,2.247629E0,-1.6019708E-1,-3.7795126E-2,-1.5958317E-1,1.151431E0,-1.6049796E-1,-5.806452E-2,2.1969838E0,-1.1623617E-1],"split_indices":[12,3,6,67,52,6,0,43,4,74,4,0,0,22,47,65,0,72,5,6,0,73,67,0,1,65,0,14,13,67,2,0,0,0,0,0,0,0,0,0,0,0,0,0,0,0,0,0,0],"split_type":[0,0,0,0,0,0,0,0,0,0,0,0,0,0,0,0,0,0,0,0,0,0,0,0,0,0,0,0,0,0,0,0,0,0,0,0,0,0,0,0,0,0,0,0,0,0,0,0,0],"sum_hessian":[1.8467345E5,1.734014E5,1.1272055E4,1.9438598E4,1.539628E5,7.8283027E3,3.4437515E3,1.4317335E4,5.1212627E3,1.5176188E5,2.2009246E3,4.9777784E0,7.823325E3,1.4241175E4,7.616E1,4.6460093E3,4.752534E2,1.5096656E5,7.953245E2,2.0122668E2,1.999698E3,1.35568545E4,6.8432007E2,6.570667E1,1.0453334E1,4.6284624E3,1.7546669E1,1.4944833E5,1.5182223E3,7.512712E2,4.4053337E1,6.222223E0,1.9500446E2,1.3306348E4,2.5050668E2,6.578134E2,2.6506668E1,7.0933337E0,3.3600004E0,1.1200001E1,4.6172627E3,1.4938212E5,6.620445E1,1.4672001E3,5.102223E1,7.4193787E2,9.333334E0,4.1440002E1,2.6133335E0],"tree_param":{"num_deleted":"0","num_feature":"77","num_nodes":"49","size_leaf_vector":"1"}},{"base_weights":[-4.9089196E-1,-5.011259E-1,2.1049793E0,-5.2317953E-1,2.8136801E-2,-2.1490827E-1,6.936958E0,-5.2471584E-1,1.10068575E-1,7.3768587E0,-5.3490454E-1,9.4655615E-1,-1.6029769E-1,-1.5046754E-1,2.230285E0,-5.3484076E-1,-4.4989148E-1,-1.6030613E-1,2.1781104E0,-1.3437729E-1,7.454693E0,-2.4620455E-2,-1.6069074E-1,5.165674E0,-1.586965E-1,-1.6058332E-1,-3.826918E-1,-5.118298E-1,5.197012E-1,-1.0465116E-1,2.245066E0,-1.4416476E-1,6.226415E-1,-1.3490364E-1,6.4957347E0,-1.6027096E-1,7.734265E-2,-1.6040105E-1,-2.9387744E-2,-1.6056754E-1,2.2240307E0,2.0727787E0,-8.9108914E-2],"categories":[],"categories_nodes":[],"categories_segments":[],"categories_sizes":[],"default_left":[0,0,0,0,0,0,0,0,0,0,0,0,0,0,0,0,0,0,0,0,0,0,0,0,0,0,0,0,0,0,0,0,0,0,0,0,0,0,0,0,0,0,0],"id":3,"left_children":[1,3,5,7,9,11,13,15,17,19,21,23,-1,-1,-1,25,27,-1,-1,-1,29,31,-1,33,-1,-1,35,37,39,-1,-1,-1,-1,-1,41,-1,-1,-1,-1,-1,-1,-1,-1],"loss_changes":[4.9071055E3,2.1471133E3,8.132869E3,1.7185547E2,3.045394E4,1.8268588E2,8.742949E2,1.3321875E2,1.9770269E3,3.2234766E2,2.5378418E0,6.643784E2,0E0,0E0,0E0,1.0113281E1,1.2616001E3,0E0,0E0,0E0,1.1942383E2,1.1368073E1,0E0,2.0929102E2,0E0,0E0,4.361097E1,1.865708E2,9.178966E3,0E0,0E0,0E0,0E0,0E0,6.4986206E1,0E0,0E0,0E0,0E0,0E0,0E0,0E0,0E0],"parents":[2147483647,0,0,1,1,2,2,3,3,4,4,5,5,6,6,7,7,8,8,9,9,10,10,11,11,15,15,16,16,20,20,21,21,23,23,26,26,27,27,28,28,34,34],"right_children":[2,4,6,8,10,12,14,16,18,20,22,24,-1,-1,-1,26,28,-1,-1,-1,30,32,-1,34,-1,-1,36,38,40,-1,-1,-1,-1,-1,42,-1,-1,-1,-1,-1,-1,-1,-1],"split_conditions":[2.999631E6,1.1632E4,9.94367E6,3.4E7,9E0,4.21E2,6.4E1,2.92E4,1.72E2,1.314E4,1E1,6E0,-1.6029769E-1,-1.5046754E-1,2.230285E0,9.98528E5,1.7625E3,-1.6030613E-1,2.1781104E0,-1.3437729E-1,2.863301E6,1.631107E6,-1.6069074E-1,2.84E2,-1.586965E-1,-1.6058332E-1,6.4E1,9.860743E2,1.584103E6,-1.0465116E-1,2.245066E0,-1.4416476E-1,6.226415E-1,-1.3490364E-1,1.0043749E7,-1.6027096E-1,7.734265E-2,-1.6040105E-1,-2.9387744E-2,-1.6056754E-1,2.2240307E0,2.0727787E0,-8.9108914E-2],"split_indices":[19,5,76,16,3,65,34,65,6,65,3,39,0,0,0,19,13,0,0,0,25,25,0,65,0,0,34,13,26,0,0,0,0,0,1,0,0,0,0,0,0,0,0],"split_type":[0,0,0,0,0,0,0,0,0,0,0,0,0,0,0,0,0,0,0,0,0,0,0,0,0,0,0,0,0,0,0,0,0,0,0,0,0,0,0,0,0,0,0],"sum_hessian":[1.8467345E5,1.8394906E5,7.243912E2,1.7659078E5,7.3582764E3,4.9006226E2,2.343289E2,1.7616358E5,4.272178E2,5.2279114E2,6.835485E3,1.0528001E2,3.8478226E2,1.4684445E1,2.1964447E2,1.5516158E5,2.1001992E4,3.927467E2,3.4471115E1,5.1022224E0,5.176889E2,9.831112E0,6.825654E3,2.6631113E1,7.8648895E1,1.547147E5,4.4688004E2,1.9741371E4,1.2606223E3,1.8666668E0,5.1582227E2,8.711112E0,1.1200001E0,5.226667E0,2.1404446E1,3.6151114E2,8.53689E1,1.8708605E4,1.0327645E3,1.0941156E3,1.6650668E2,2.0160002E1,1.2444446E0],"tree_param":{"num_deleted":"0","num_feature":"77","num_nodes":"43","size_leaf_vector":"1"}},{"base_weights":[2.1112175E-1,-3.5257962E-1,6.365191E0,-4.00435E-1,3.4425185E0,-4.7778493E-1,7.256786E0,-4.858691E-1,8.789838E-1,-4.5213118E-1,6.362663E0,9.341282E-1,-1.6062073E-1,-2.7547625E-1,2.2497854E0,-1.1796445E-1,-5.351818E-1,6.092991E0,-1.6069476E-1,-5.247521E-1,1.3735492E0,7.021761E0,-3.647136E-1,-4.5767376E-1,2.081081E0,6.6524725E0,-5.007745E-1,-4.1179276E-1,2.914421E0,-5.355726E-1,-2.854433E-1,-1.6029729E-1,7.472126E0,-5.258876E-1,4.4554453E-2,4.7818246E0,-4.7043264E-1,7.8463906E-1,2.246912E0,-1.5920034E-1,1.5555556E0,4.4554454E-1,-1.5788856E-1,6.226415E-1,2.069261E0,-1.6032471E-1,2.705649E0,-1.2530515E-1,1.9670908E0,2.1009388E0,-7.005406E-2,-1.6067396E-1,-7.850913E-2,-1.5978721E-1,1.9845837E-1,-1.3589568E-1,2.2487786E0,-1.584414E-1,-5.1625244E-2,1.8132529E0,-1.1294584E-1,-1.5354097E-1,5.6603767E-2,7.972318E-1,-1.5726154E-1,1.4294976E0,-1.0210697E-1],"categories":[],"categories_nodes":[],"categories_segments":[],"categories_sizes":[],"default_left":[0,0,0,0,0,0,0,0,0,0,0,0,0,0,0,0,0,0,0,0,0,0,0,0,0,0,0,0,0,0,0,0,0,0,0,0,0,0,0,0,0,0,0,0,0,0,0,0,0,0,0,0,0,0,0,0,0,0,0,0,0,0,0,0,0,0,0],"id":4,"left_children":[1,3,5,7,9,11,13,15,17,19,21,23,-1,25,-1,27,29,31,-1,33,35,37,39,41,-1,43,45,47,49,51,53,-1,55,57,-1,59,61,63,-1,-1,-1,-1,-1,-1,-1,-1,65,-1,-1,-1,-1,-1,-1,-1,-1,-1,-1,-1,-1,-1,-1,-1,-1,-1,-1,-1,-1],"loss_changes":[6.4064856E5,3.0726955E4,9.454975E4,1.826253E4,2.3963943E4,1.4589664E2,2.5044625E4,2.8413125E3,7.714374E4,1.2053824E2,5.341672E3,5.916814E2,0E0,6.723E2,0E0,1.6495727E4,1.3328125E1,2.0404766E4,0E0,7.431183E-1,2.2126773E2,3.195086E3,1.0258704E2,8.530142E0,0E0,9.039917E-1,4.6321358E1,6.956316E2,2.1051531E4,1.328125E-1,5.1358414E1,0E0,3.5192188E2,6.00708E-1,0E0,8.2527435E1,7.380271E-1,1.9174808E2,0E0,0E0,0E0,0E0,0E0,0E0,0E0,0E0,2.9751682E1,0E0,0E0,0E0,0E0,0E0,0E0,0E0,0E0,0E0,0E0,0E0,0E0,0E0,0E0,0E0,0E0,0E0,0E0,0E0,0E0],"parents":[2147483647,0,0,1,1,2,2,3,3,4,4,5,5,6,6,7,7,8,8,9,9,10,10,11,11,13,13,15,15,16,16,17,17,19,19,20,20,21,21,22,22,23,23,25,25,26,26,27,27,28,28,29,29,30,30,32,32,33,33,35,35,36,36,37,37,46,46],"right_children":[2,4,6,8,10,12,14,16,18,20,22,24,-1,26,-1,28,30,32,-1,34,36,38,40,42,-1,44,46,48,50,52,54,-1,56,58,-1,60,62,64,-1,-1,-1,-1,-1,-1,-1,-1,66,-1,-1,-1,-1,-1,-1,-1,-1,-1,-1,-1,-1,-1,-1,-1,-1,-1,-1,-1,-1],"split_conditions":[8.09E7,1E0,2.35E2,1.4371538E3,1.92E2,6E0,1.3025323E3,3E0,1.1601E4,9.563E3,2.37E2,8.4E1,-1.6062073E-1,4.8E0,2.2497854E0,1.16E2,1.3025323E3,1.1595E4,-1.6069476E-1,9.38E2,4.244E4,2.35E2,1.246203E7,2.2E1,2.081081E0,3.75E7,1.0785176E3,2.58E7,1.54334E4,2.319E3,1.449375E3,-1.6029729E-1,2.4E1,1.45E2,4.4554453E-2,1.2E1,1.74E2,1E0,2.246912E0,-1.5920034E-1,1.5555556E0,4.4554454E-1,-1.5788856E-1,6.226415E-1,2.069261E0,-1.6032471E-1,1E0,-1.2530515E-1,1.9670908E0,2.1009388E0,-7.005406E-2,-1.6067396E-1,-7.850913E-2,-1.5978721E-1,1.9845837E-1,-1.3589568E-1,2.2487786E0,-1.584414E-1,-5.1625244E-2,1.8132529E0,-1.1294584E-1,-1.5354097E-1,5.6603767E-2,7.972318E-1,-1.5726154E-1,1.4294976E0,-1.0210697E-1],"split_indices":[73,43,66,13,21,40,13,52,5,29,66,34,0,40,0,34,13,5,0,29,1,66,1,65,0,22,13,29,16,12,12,0,4,24,0,5,21,3,0,0,0,0,0,0,0,0,46,0,0,0,0,0,0,0,0,0,0,0,0,0,0,0,0,0,0,0,0],"split_type":[0,0,0,0,0,0,0,0,0,0,0,0,0,0,0,0,0,0,0,0,0,0,0,0,0,0,0,0,0,0,0,0,0,0,0,0,0,0,0,0,0,0,0,0,0,0,0,0,0,0,0,0,0,0,0,0,0,0,0,0,0,0,0,0,0,0,0],"sum_hessian":[1.8467345E5,1.69178E5,1.549545E4,1.6707216E5,2.105849E3,1.7862758E3,1.3709175E4,1.5661472E5,1.045744E4,9.027201E2,1.203129E3,6.944E1,1.7168357E3,4.2759116E2,1.3281583E4,1.8511361E4,1.3810336E5,2.2310403E3,8.2264E3,8.6887115E2,3.3848892E1,1.0957334E3,1.0739556E2,5.7120007E1,1.2320001E1,1.256889E1,4.1502225E2,1.6876908E4,1.6344535E3,1.3788645E5,2.169067E2,3.8440894E2,1.8466312E3,8.676268E2,1.2444446E0,1.1324446E1,2.2524446E1,7.665778E1,1.0190756E3,1.0515556E2,2.2400002E0,1.2444446E0,5.587556E1,1.1200001E0,1.144889E1,4.115378E2,3.4844446E0,1.6863592E4,1.3315557E1,7.1045337E2,9.2400006E2,1.3788184E5,4.604445E0,1.7235558E2,4.4551113E1,5.475556E0,1.8411558E3,8.616534E2,5.973334E0,8.960001E0,2.3644447E0,2.1404446E1,1.1200001E0,3.1111115E1,4.554667E1,1.7422223E0,1.7422223E0],"tree_param":{"num_deleted":"0","num_feature":"77","num_nodes":"67","size_leaf_vector":"1"}},{"base_weights":[-5.130228E-1,-5.255489E-1,3.5589647E0,-5.297064E-1,2.4082437E0,6.4268556E0,-3.7093636E-1,-5.306354E-1,3.566266E0,-1.597155E-1,7.078391E0,6.720643E0,1.2068554E0,-1.6002882E-1,1.6708992E0,-5.314522E-1,-1.8848455E-1,2.1490126E0,-1.52889E-1,2.2266715E0,-1.307054E-1,2.115024E0,1.8749877E0,-1.4977308E-1,1.7983942E0,-5.322674E-1,-3.271156E-1,-3.2117796E-1,1.8651462E0,-1.6002743E-1,-1.3805704E-1,-1.2639749E-1,1.8156911E0,-1.5052216E-1,2.2069035E-1],"categories":[],"categories_nodes":[],"categories_segments":[],"categories_sizes":[],"default_left":[0,0,0,0,0,0,0,0,0,0,0,0,0,0,0,0,0,0,0,0,0,0,0,0,0,0,0,0,0,0,0,0,0,0,0],"id":5,"left_children":[1,3,5,7,9,11,13,15,17,-1,19,21,23,-1,-1,25,27,-1,-1,-1,-1,-1,-1,-1,-1,29,31,33,-1,-1,-1,-1,-1,-1,-1],"loss_changes":[9.421398E3,2.246918E3,6.3868623E3,7.014531E2,3.5842192E3,4.9419922E2,2.3458011E2,5.126953E1,6.1675946E2,0E0,2.6368164E2,3.9853516E0,1.5550677E2,0E0,0E0,3.0371094E1,3.7539005E2,0E0,0E0,0E0,0E0,0E0,0E0,0E0,0E0,1.4988281E1,4.4202597E2,8.2675606E1,0E0,0E0,0E0,0E0,0E0,0E0,0E0],"parents":[2147483647,0,0,1,1,2,2,3,3,4,4,5,5,6,6,7,7,8,8,10,10,11,11,12,12,15,15,16,16,25,25,26,26,27,27],"right_children":[2,4,6,8,10,12,14,16,18,-1,20,22,24,-1,-1,26,28,-1,-1,-1,-1,-1,-1,-1,-1,30,32,34,-1,-1,-1,-1,-1,-1,-1],"split_conditions":[6.68313E6,5.05E7,1.1204842E-1,3.56E2,1.7089568E2,6.350172E7,2.58E7,3.648654E6,8.05E2,-1.597155E-1,6E0,8.015936E6,1.92E2,-1.6002882E-1,1.6708992E0,1.76E2,7.26E7,2.1490126E0,-1.52889E-1,2.2266715E0,-1.307054E-1,2.115024E0,1.8749877E0,-1.4977308E-1,1.7983942E0,1.95E7,2.999631E6,2.6625E2,1.8651462E0,-1.6002743E-1,-1.3805704E-1,-1.2639749E-1,1.8156911E0,-1.5052216E-1,2.2069035E-1],"split_indices":[69,27,15,38,9,1,29,70,4,0,5,76,4,0,0,7,28,0,0,0,0,0,0,0,0,24,19,8,0,0,0,0,0,0,0],"split_type":[0,0,0,0,0,0,0,0,0,0,0,0,0,0,0,0,0,0,0,0,0,0,0,0,0,0,0,0,0,0,0,0,0,0,0],"sum_hessian":[1.8467345E5,1.8410798E5,5.654756E2,1.8384827E5,2.5971558E2,3.2654224E2,2.3893335E2,1.8380745E5,4.081778E1,1.5991112E2,9.980445E1,3.0887112E2,1.7671112E1,2.334578E2,5.475556E0,1.8336916E5,4.3829337E2,2.1280003E1,1.9537779E1,9.54489E1,4.355556E0,1.7347557E2,1.3539557E2,1.368889E1,3.9822226E0,1.826389E5,7.3024005E2,4.3032892E2,7.964445E0,1.7974633E5,2.892587E3,7.205334E2,9.706668E0,3.6798224E2,6.2346672E1],"tree_param":{"num_deleted":"0","num_feature":"77","num_nodes":"35","size_leaf_vector":"1"}},{"base_weights":[-5.1217264E-1,-5.19927E-1,2.7209244E0,-5.2446795E-1,1.2096617E0,-1.6007115E-1,6.917527E0,-5.314654E-1,6.2557824E-2,-1.6028905E-1,2.2287297E0,2.235849E0,-1.4918713E-1,-5.319157E-1,7.7752626E-1,-5.2997833E-1,2.0169132E0,-5.326053E-1,-5.722595E-2,2.0249116E0,-1.5765423E-1,-1.5951468E-1,-4.137931E-1,2.2085323E0,-1.5936807E-1,-1.601534E-1,-1.4993659E-1,1.9753215E0,-1.5282473E-1,-1.5489787E-1,2.870544E-1],"categories":[],"categories_nodes":[],"categories_segments":[],"categories_sizes":[],"default_left":[0,0,0,0,0,0,0,0,0,0,0,0,0,0,0,0,0,0,0,0,0,0,0,0,0,0,0,0,0,0,0],"id":6,"left_children":[1,3,5,7,9,-1,11,13,15,-1,-1,-1,-1,17,19,21,23,25,27,-1,-1,-1,29,-1,-1,-1,-1,-1,-1,-1,-1],"loss_changes":[4.631328E3,1.4475781E3,6.0408735E3,7.5483203E2,5.239812E3,0E0,7.703213E2,1.0744922E2,2.5087312E3,0E0,0E0,0E0,0E0,5.9390625E1,4.926366E2,1.1550903E-1,6.868177E3,7.1054688E0,7.975677E2,0E0,0E0,0E0,4.569592E0,0E0,0E0,0E0,0E0,0E0,0E0,0E0,0E0],"parents":[2147483647,0,0,1,1,2,2,3,3,4,4,6,6,7,7,8,8,13,13,14,14,15,15,16,16,17,17,18,18,22,22],"right_children":[2,4,6,8,10,-1,12,14,16,-1,-1,-1,-1,18,20,22,24,26,28,-1,-1,-1,30,-1,-1,-1,-1,-1,-1,-1,-1],"split_conditions":[4.1375612E6,9.89E7,1.64E7,4.27294E5,1E0,-1.6007115E-1,3.397E3,3.4E7,1.12E2,-1.6028905E-1,2.2287297E0,2.235849E0,-1.4918713E-1,5.05E7,5.023474E6,3.6E1,3.122744E6,1E0,2.7041528E0,2.0249116E0,-1.5765423E-1,-1.5951468E-1,9.292667E5,2.2085323E0,-1.5936807E-1,-1.601534E-1,-1.4993659E-1,1.9753215E0,-1.5282473E-1,-1.5489787E-1,2.870544E-1],"split_indices":[70,26,26,19,30,0,4,16,34,0,0,0,0,27,73,68,1,30,14,0,0,0,21,0,0,0,0,0,0,0,0],"split_type":[0,0,0,0,0,0,0,0,0,0,0,0,0,0,0,0,0,0,0,0,0,0,0,0,0,0,0,0,0,0,0],"sum_hessian":[1.8467345E5,1.8423242E5,4.4103116E2,1.837507E5,4.817245E2,2.4888892E2,1.9214224E2,1.8158623E5,2.1644624E3,3.7694226E2,1.04782234E2,1.7920001E2,1.2942224E1,1.8152439E5,6.1848892E1,1.6614579E3,5.030045E2,1.8126094E5,2.634489E2,1.032889E1,5.1520004E1,1.6334579E3,2.8000002E1,1.6177779E2,3.4122668E2,1.7465008E5,6.610863E3,1.592889E1,2.4752002E2,2.6631113E1,1.368889E0],"tree_param":{"num_deleted":"0","num_feature":"77","num_nodes":"31","size_leaf_vector":"1"}},{"base_weights":[-5.09828E-1,-5.2646947E-1,-2.6028252E-1,-1.6067186E-1,-3.0077502E-1,7.4435344E0,-5.355765E-1,4.54113E0,-1.6045505E-1,2.2443268E0,-1.0465116E-1,-7.926025E-2,-1.6069987E-1,-1.5921615E-1,7.1928306E0,-8.9108914E-2,5.6603767E-2,7.356956E0,-1.299915E-1,-1.1111111E-1,2.2340102E0],"categories":[],"categories_nodes":[],"categories_segments":[],"categories_sizes":[],"default_left":[0,0,0,0,0,0,0,0,0,0,0,0,0,0,0,0,0,0,0,0,0],"id":7,"left_children":[1,3,5,-1,7,9,11,13,-1,-1,-1,15,-1,-1,17,-1,-1,19,-1,-1,-1],"loss_changes":[7.6678125E2,3.5554297E2,2.4494E4,0E0,7.6126113E3,1.192207E2,4.1357422E-1,4.169609E3,0E0,0E0,0E0,2.5235543E-1,0E0,0E0,2.578623E2,0E0,0E0,1.4092676E2,0E0,0E0,0E0],"parents":[2147483647,0,0,1,1,2,2,4,4,5,5,6,6,7,7,11,11,14,14,17,17],"right_children":[2,4,6,-1,8,10,12,14,-1,-1,-1,16,-1,-1,18,-1,-1,20,-1,-1,-1],"split_conditions":[4.88E2,1E0,4.9E1,-1.6067186E-1,8E0,1.6E1,5E1,6.888889E0,-1.6045505E-1,2.2443268E0,-1.0465116E-1,1.46573E5,-1.6069987E-1,-1.5921615E-1,8E0,-8.9108914E-2,5.6603767E-2,2.29E2,-1.299915E-1,-1.1111111E-1,2.2340102E0],"split_indices":[35,30,39,0,8,3,39,8,0,0,0,1,0,0,66,0,0,65,0,0,0],"split_type":[0,0,0,0,0,0,0,0,0,0,0,0,0,0,0,0,0,0,0,0,0],"sum_hessian":[1.8467345E5,1.73127E5,1.1546454E4,1.6641334E5,6.713654E3,3.974756E2,1.1148979E4,3.087467E2,6.404907E3,3.9560892E2,1.8666668E0,2.3644447E0,1.1146614E4,1.06275566E2,2.0247113E2,1.2444446E0,1.1200001E0,1.9824002E2,4.2311115E0,2.2400002E0,1.9600002E2],"tree_param":{"num_deleted":"0","num_feature":"77","num_nodes":"21","size_leaf_vector":"1"}},{"base_weights":[-5.356518E-1,-1.607134E-1,-4.0942928E-1,-1.5891819E-1,1.0465117E0],"categories":[],"categories_nodes":[],"categories_segments":[],"categories_sizes":[],"default_left":[0,0,0,0,0],"id":8,"left_children":[1,-1,3,-1,-1],"loss_changes":[1.171875E0,0E0,4.4680138E1,0E0,0E0],"parents":[2147483647,0,0,2,2],"right_children":[2,-1,4,-1,-1],"split_conditions":[1.5304E4,-1.607134E-1,2.3254014E3,-1.5891819E-1,1.0465117E0],"split_indices":[34,0,41,0,0],"split_type":[0,0,0,0,0],"sum_hessian":[1.8467345E5,1.8458311E5,9.034667E1,8.848001E1,1.8666668E0],"tree_param":{"num_deleted":"0","num_feature":"77","num_nodes":"5","size_leaf_vector":"1"}},{"base_weights":[-5.3557056E-1,-1.6068253E-1,-4.532185E-1,-1.5893307E-1,9.0566033E-1],"categories":[],"categories_nodes":[],"categories_segments":[],"categories_sizes":[],"default_left":[0,0,0,0,0],"id":9,"left_children":[1,-1,3,-1,-1],"loss_changes":[3.28125E-1,0E0,2.5880842E1,0E0,0E0],"parents":[2147483647,0,0,2,2],"right_children":[2,-1,4,-1,-1],"split_conditions":[1.5304E4,-1.6068253E-1,2.33E2,-1.5893307E-1,9.0566033E-1],"split_indices":[34,0,8,0,0],"split_type":[0,0,0,0,0],"sum_hessian":[1.8467345E5,1.8458311E5,9.034667E1,8.922668E1,1.1200001E0],"tree_param":{"num_deleted":"0","num_feature":"77","num_nodes":"5","size_leaf_vector":"1"}},{"base_weights":[-5.273074E-1,-4.6873343E-1,-5.3492767E-1,-4.9421248E-1,4.9197016E0,-4.4431365E-1,-5.350796E-1,-5.005995E-1,5.2377367E0,6.3047223E0,-1.531635E-1,-1.600883E-1,5.440706E-1,-1.6071102E-1,-5.311444E-1,-5.109181E-1,4.1943163E-1,-1.3681428E-1,2.124473E0,2.1476893E0,1.0593328E0,-1.52889E-1,1.7027026E0,-5.024494E-1,-1.6064443E-1,-5.135213E-1,1.5789472E0,-1.5991464E-1,5.861719E0,-5.2430177E-1,2.1235344E0,-1.5442827E-1,1.1177729E0,1.9631728E0,-1.5243763E-1,2.1620688E0,-1.3807139E-1,-1.6065936E-1,5.608862E-1,2.002445E0,-1.5100671E-1],"categories":[],"categories_nodes":[],"categories_segments":[],"categories_sizes":[],"default_left":[0,0,0,0,0,0,0,0,0,0,0,0,0,0,0,0,0,0,0,0,0,0,0,0,0,0,0,0,0,0,0,0,0,0,0,0,0,0,0,0,0],"id":10,"left_children":[1,3,5,7,9,11,13,15,17,19,-1,-1,21,-1,23,25,27,-1,-1,-1,-1,-1,-1,29,-1,31,33,-1,35,37,39,-1,-1,-1,-1,-1,-1,-1,-1,-1,-1],"loss_changes":[8.217578E1,2.922337E3,2.0078125E0,7.776084E2,7.566897E2,2.4953217E1,1.2109375E-1,2.0096143E2,2.5150568E2,1.6402588E2,0E0,0E0,1.3076617E2,0E0,2.5229492E0,1.1458203E2,1.2217023E3,0E0,0E0,0E0,0E0,0E0,0E0,1.7109375E2,0E0,1.1167871E2,2.7546045E2,0E0,3.0179382E2,7.9995056E1,2.980019E2,0E0,0E0,0E0,0E0,0E0,0E0,0E0,0E0,0E0,0E0],"parents":[2147483647,0,0,1,1,2,2,3,3,4,4,5,5,6,6,7,7,8,8,9,9,12,12,14,14,15,15,16,16,23,23,25,25,26,26,28,28,29,29,30,30],"right_children":[2,4,6,8,10,12,14,16,18,20,-1,-1,22,-1,24,26,28,-1,-1,-1,-1,-1,-1,30,-1,32,34,-1,36,38,40,-1,-1,-1,-1,-1,-1,-1,-1,-1,-1],"split_conditions":[3.6E0,2E0,2E0,3.59E7,4.8E1,5.59E2,2.92E4,7.3199336E3,2E0,2.0100502E4,-1.531635E-1,-1.600883E-1,1.3653741E2,-1.6071102E-1,1.76E2,1.7E7,1E0,-1.3681428E-1,2.124473E0,2.1476893E0,1.0593328E0,-1.52889E-1,1.7027026E0,5.94E3,-1.6064443E-1,6.2222223E0,2.2777992E7,-1.5991464E-1,4.4E1,7.451864E1,1.1601E4,-1.5442827E-1,1.1177729E0,1.9631728E0,-1.5243763E-1,2.1620688E0,-1.3807139E-1,-1.6065936E-1,5.608862E-1,2.002445E0,-1.5100671E-1],"split_indices":[40,38,8,26,34,24,65,14,11,15,0,0,36,0,4,26,46,0,0,0,0,0,0,5,0,12,1,0,34,9,5,0,0,0,0,0,0,0,0,0,0],"split_type":[0,0,0,0,0,0,0,0,0,0,0,0,0,0,0,0,0,0,0,0,0,0,0,0,0,0,0,0,0,0,0,0,0,0,0,0,0,0,0,0,0],"sum_hessian":[1.8467345E5,2.126681E4,1.6340664E5,2.1167629E4,9.918223E1,2.7838223E2,1.6312827E5,2.114498E4,2.2648891E1,7.889778E1,2.0284447E1,2.5573335E2,2.2648891E1,1.4069205E5,2.2436215E4,2.09109E4,2.3408002E2,5.724445E0,1.6924446E1,5.9111115E1,1.9786669E1,1.9537779E1,3.1111114E0,2.9611558E3,1.9475059E4,2.0885637E4,2.5262224E1,1.9998224E2,3.4097782E1,2.9375115E3,2.3644447E1,2.088041E4,5.226667E0,6.844445E0,1.841778E1,2.8000002E1,6.0977783E0,2.924569E3,1.2942224E1,8.088889E0,1.5555557E1],"tree_param":{"num_deleted":"0","num_feature":"77","num_nodes":"41","size_leaf_vector":"1"}},{"base_weights":[-5.2171373E-1,-5.3445333E-1,2.2237267E-2,-5.254471E-1,-1.6064112E-1,7.0090423E0,-5.317486E-1,-5.0888103E-1,-5.3432864E-1,-1.5227538E-1,2.2423096E0,4.6374784E-3,-1.6067296E-1,-1.6044977E-1,5.623525E-1,-1.6070026E-1,-5.006549E-1,2.662397E0,-1.5425818E-1,-1.5666394E-1,3.6457982E0,5.214091E-2,-1.6035274E-1,1.4651163E0,-1.06983654E-1,1.6924745E0,-1.071093E-1,1.3703704E0,-1.5450644E-1],"categories":[],"categories_nodes":[],"categories_segments":[],"categories_sizes":[],"default_left":[0,0,0,0,0,0,0,0,0,0,0,0,0,0,0,0,0,0,0,0,0,0,0,0,0,0,0,0,0],"id":11,"left_children":[1,3,5,7,-1,9,11,13,15,-1,-1,17,-1,-1,19,-1,21,23,-1,-1,25,27,-1,-1,-1,-1,-1,-1,-1],"loss_changes":[1.2797461E3,1.3710938E0,1.6365233E4,2.430664E0,0E0,1.0902275E3,8.046143E0,1.7905371E2,2.6953125E-1,0E0,0E0,4.1014732E1,0E0,0E0,5.121395E2,0E0,8.85453E0,3.431881E1,0E0,0E0,3.2018073E2,7.439541E1,0E0,0E0,0E0,0E0,0E0,0E0,0E0],"parents":[2147483647,0,0,1,1,2,2,3,3,5,5,6,6,7,7,8,8,11,11,14,14,16,16,17,17,20,20,21,21],"right_children":[2,4,6,8,-1,10,12,14,16,-1,-1,18,-1,-1,20,-1,22,24,-1,-1,26,28,-1,-1,-1,-1,-1,-1,-1],"split_conditions":[1E3,6E0,3.167E3,2.64E2,-1.6064112E-1,8.37E2,5.731E3,2.58E2,6.8E1,-1.5227538E-1,2.2423096E0,2.5E2,-1.6067296E-1,-1.6044977E-1,1.02304405E2,-1.6070026E-1,8E1,1.81149E7,-1.5425818E-1,-1.5666394E-1,2.58E2,3.475E3,-1.6035274E-1,1.4651163E0,-1.06983654E-1,1.6924745E0,-1.071093E-1,1.3703704E0,-1.5450644E-1],"split_indices":[35,39,5,65,0,10,5,65,35,0,0,66,0,0,37,0,35,1,0,0,66,1,0,0,0,0,0,0,0],"split_type":[0,0,0,0,0,0,0,0,0,0,0,0,0,0,0,0,0,0,0,0,0,0,0,0,0,0,0,0,0],"sum_hessian":[1.8467345E5,1.8044733E5,4.226134E3,1.8361904E4,1.6208542E5,3.096178E2,3.9165159E3,6.428925E3,1.1932979E4,1.8044445E1,2.9157336E2,2.7751114E1,3.888765E3,6.2773516E3,1.5157335E2,1.146233E4,4.7064893E2,3.857778E0,2.3893335E1,1.1274667E2,3.882667E1,2.7128891E1,4.4352005E2,1.8666668E0,1.9911113E0,2.5635557E1,1.31911125E1,2.2400002E0,2.4888891E1],"tree_param":{"num_deleted":"0","num_feature":"77","num_nodes":"29","size_leaf_vector":"1"}},{"base_weights":[-5.294463E-1,-5.345639E-1,-3.9704204E-1,-5.3486633E-1,-3.312224E-1,5.8172774E-1,-1.6068761E-1,-5.2967304E-1,-5.35296E-1,-5.2976424E-1,5.0486784E0,-4.1342062E-1,3.3049657E0,-5.319734E-1,-4.9853766E-1,-1.6070151E-1,-5.296804E-1,-1.6008186E-1,-2.2747548E-1,1.9537741E0,-1.06983654E-1,6.7627504E-2,-5.3265285E-1,4.244933E0,-1.5721476E-1,-5.2544576E-1,-1.6065794E-1,-4.6780426E-2,-1.6053252E-1,-1.6065998E-1,-5.029866E-1,-1.19102426E-1,5.6603767E-2,-4.659535E-1,3.2355096E0,-2.8404954E-1,-1.6039062E-1,4.626395E0,-1.4967959E-1,-1.6067804E-1,-2.0665217E-2,-1.582869E-1,1.2662106E0,1.0809932E-1,-1.5464006E-1,-1.5914895E-1,1.9524142E-1,1.4122746E0,-1.3437729E-1,4.4554453E-2,-1.2763038E-1,1.2181416E0,1.7444782E0],"categories":[],"categories_nodes":[],"categories_segments":[],"categories_sizes":[],"default_left":[0,0,0,0,0,0,0,0,0,0,0,0,0,0,0,0,0,0,0,0,0,0,0,0,0,0,0,0,0,0,0,0,0,0,0,0,0,0,0,0,0,0,0,0,0,0,0,0,0,0,0,0,0],"id":12,"left_children":[1,3,5,7,9,11,-1,13,15,17,19,21,23,25,27,-1,29,-1,31,-1,-1,33,35,37,-1,39,-1,41,-1,-1,43,-1,-1,45,47,49,-1,51,-1,-1,-1,-1,-1,-1,-1,-1,-1,-1,-1,-1,-1,-1,-1],"loss_changes":[1.24921875E2,1.07578125E1,9.330049E2,1.1328125E-1,2.875345E2,2.3138862E3,0E0,7.1313477E-1,6.25E-2,1.7836761E-1,7.817996E1,3.5931732E1,8.24574E2,1.3427734E-2,1.5766846E1,0E0,1.3498535E0,0E0,4.264119E-1,0E0,0E0,2.1312837E2,9.538269E-2,3.34479E2,0E0,2.095935E1,0E0,1.5136536E2,0E0,0E0,2.0444183E1,0E0,0E0,8.131376E0,1.0064958E2,4.363839E-1,0E0,9.073096E1,0E0,0E0,0E0,0E0,0E0,0E0,0E0,0E0,0E0,0E0,0E0,0E0,0E0,0E0,0E0],"parents":[2147483647,0,0,1,1,2,2,3,3,4,4,5,5,7,7,8,8,9,9,10,10,11,11,12,12,13,13,14,14,16,16,18,18,21,21,22,22,23,23,25,25,27,27,30,30,33,33,34,34,35,35,37,37],"right_children":[2,4,6,8,10,12,-1,14,16,18,20,22,24,26,28,-1,30,-1,32,-1,-1,34,36,38,-1,40,-1,42,-1,-1,44,-1,-1,46,48,50,-1,52,-1,-1,-1,-1,-1,-1,-1,-1,-1,-1,-1,-1,-1,-1,-1],"split_conditions":[2.896E4,6.24E3,2.92E4,1.07E2,5.59E2,9.2E1,-1.6068761E-1,1.15E3,8.19E2,3E0,4.256121E7,1.321E3,1.998E3,2.42E2,1.324E3,-1.6070151E-1,9.4E1,-1.6008186E-1,2.92E3,1.9537741E0,-1.06983654E-1,6.61E2,3.117E3,5E0,-1.5721476E-1,2.37E2,-1.6065794E-1,1.444E3,-1.6053252E-1,-1.6065998E-1,3.88E2,-1.19102426E-1,5.6603767E-2,5.59E2,6.088219E6,5.997589E6,-1.6039062E-1,5.667086E6,-1.4967959E-1,-1.6067804E-1,-2.0665217E-2,-1.582869E-1,1.2662106E0,1.0809932E-1,-1.5464006E-1,-1.5914895E-1,1.9524142E-1,1.4122746E0,-1.3437729E-1,4.4554453E-2,-1.2763038E-1,1.2181416E0,1.7444782E0],"split_indices":[66,34,66,1,24,19,0,66,29,19,1,24,24,65,66,0,8,0,10,0,0,24,24,4,0,65,0,65,0,0,4,0,0,24,1,1,0,23,0,0,0,0,0,0,0,0,0,0,0,0,0,0,0],"split_type":[0,0,0,0,0,0,0,0,0,0,0,0,0,0,0,0,0,0,0,0,0,0,0,0,0,0,0,0,0,0,0,0,0,0,0,0,0,0,0,0,0,0,0,0,0,0,0,0,0,0,0,0,0],"sum_hessian":[1.8467345E5,1.7779827E5,6.8751826E3,1.7753258E5,2.656889E2,8.5232007E2,6.022863E3,1.3661139E4,1.6387144E5,2.5710223E2,8.586667E0,6.2483563E2,2.2748447E2,1.2706276E4,9.548623E2,1.5350833E5,1.0363112E4,2.5312003E2,3.9822226E0,6.5955563E0,1.9911113E0,1.24195564E2,5.0064005E2,1.8256001E2,4.492445E1,4.530898E3,8.1753784E3,7.168001E1,8.831823E2,8.483876E3,1.8792357E3,2.8622224E0,1.1200001E0,1.0702223E2,1.7173334E1,5.1022224E0,4.955378E2,1.6899557E2,1.35644455E1,4.432214E3,9.8684456E1,6.520889E1,6.471112E0,2.6382225E1,1.8528535E3,1.0167112E2,5.3511114E0,1.2071112E1,5.1022224E0,1.2444446E0,3.857778E0,1.1747556E2,5.1520004E1],"tree_param":{"num_deleted":"0","num_feature":"77","num_nodes":"53","size_leaf_vector":"1"}},{"base_weights":[-5.3563017E-1],"categories":[],"categories_nodes":[],"categories_segments":[],"categories_sizes":[],"default_left":[0],"id":13,"left_children":[-1],"loss_changes":[0E0],"parents":[2147483647],"right_children":[-1],"split_conditions":[-1.6068906E-1],"split_indices":[0],"split_type":[0],"sum_hessian":[1.8467345E5],"tree_param":{"num_deleted":"0","num_feature":"77","num_nodes":"1","size_leaf_vector":"1"}},{"base_weights":[-5.3287935E-1,-5.3550315E-1,-4.6495762E-1,-1.6067114E-1,-4.8870927E-1,3.4453638E-2,-1.6068761E-1,-1.6010426E-1,2.4239242E0,-4.9171594E-1,1.4755197E0,1.3475935E0,-1.0210697E-1,-3.1176576E-1,-1.6039534E-1,1.9392247E0,-1.5704575E-1,-4.3625703E-1,1.5393194E0,4.4985694E-1,2.4889214E0,-1.5622701E-1,6.00745E-2,5.769993E-1,-8.9108914E-2,2.199531E-1,-1.4780436E-1,1.8745707E-1,8.3311796E-1],"categories":[],"categories_nodes":[],"categories_segments":[],"categories_sizes":[],"default_left":[0,0,0,0,0,0,0,0,0,0,0,0,0,0,0,0,0,0,0,0,0,0,0,0,0,0,0,0,0],"id":14,"left_children":[1,3,5,-1,7,9,-1,-1,11,13,15,-1,-1,17,-1,19,-1,21,23,25,27,-1,-1,-1,-1,-1,-1,-1,-1],"loss_changes":[3.2664062E1,2.96875E-1,2.4269434E2,0E0,3.6226032E1,6.4775134E2,0E0,0E0,2.5742203E1,4.6686554E0,2.1280856E2,0E0,0E0,2.9005905E1,0E0,1.5089307E2,0E0,6.3425617E0,6.1907787E0,1.4053846E1,7.098926E1,0E0,0E0,0E0,0E0,0E0,0E0,0E0,0E0],"parents":[2147483647,0,0,1,1,2,2,4,4,5,5,8,8,9,9,10,10,13,13,15,15,17,17,18,18,19,19,20,20],"right_children":[2,4,6,-1,8,10,-1,-1,12,14,16,-1,-1,18,-1,20,-1,22,24,26,28,-1,-1,-1,-1,-1,-1,-1,-1],"split_conditions":[2.896E4,6.24E3,2.92E4,-1.6067114E-1,5.596517E5,9.2E1,-1.6068761E-1,-1.6010426E-1,7.040006E7,9.75E2,7.356E3,1.3475935E0,-1.0210697E-1,8.29E2,-1.6039534E-1,1.7420246E-1,-1.5704575E-1,5.59E2,5.997589E6,5.997589E6,2.5312035E6,-1.5622701E-1,6.00745E-2,5.769993E-1,-8.9108914E-2,2.199531E-1,-1.4780436E-1,1.8745707E-1,8.3311796E-1],"split_indices":[66,34,66,0,26,19,0,0,1,24,24,0,0,24,0,37,0,24,1,1,21,0,0,0,0,0,0,0,0],"split_type":[0,0,0,0,0,0,0,0,0,0,0,0,0,0,0,0,0,0,0,0,0,0,0,0,0,0,0,0,0],"sum_hessian":[1.8467345E5,1.7779827E5,6.8751826E3,1.7753258E5,2.656889E2,8.5232007E2,6.022863E3,2.6245337E2,3.235556E0,6.2483563E2,2.2748447E2,1.4933335E0,1.7422223E0,1.2195557E2,5.0288004E2,1.8467557E2,4.280889E1,1.1498668E2,6.968889E0,5.027556E1,1.3440001E2,1.0167112E2,1.3315557E1,5.724445E0,1.2444446E0,3.882667E1,1.144889E1,1.841778E1,1.1598223E2],"tree_param":{"num_deleted":"0","num_feature":"77","num_nodes":"29","size_leaf_vector":"1"}},{"base_weights":[1.0761164E0,1.1146755E0,-4.3572098E-1,1.0328835E0,1.1296684E0,9.045597E-1,-5.001848E-1,1.0825541E0,-1.781349E-2,1.1285121E0,1.7875817E0,1.166115E0,-9.921171E-2,-5.192395E-1,1.1557269E0,1.0919089E0,-3.021407E-1,1.169251E0,-4.355031E-1,-2.5695464E-1,1.1286906E0,5.2501833E-1,2.07466E0,1.1740206E0,3.4652862E-1,-1.5568046E-1,9.966732E-1,2.9843083E-1,-5.200234E-1,-1.2088426E-1,1.1798867E0,1.119907E0,8.804306E-1,1.3436637E0,-5.381554E-1,1.115244E0,4.5773816E0,-4.7808117E-1,2.332438E0,1.129752E0,8.9405614E-1,1.2277712E0,-5.204473E-1,6.324793E-1,1.55667E0,3.5277322E-1,1.2725028E-1,7.3542523E-1,-1.3866594E-1,1.1216116E0,-1.18272066E-1,-1.5621194E-1,3.0441245E-1,3.4515536E-1,2.00392E0,3.4190553E-1,2.912628E-1,1.2492276E-1,3.3980244E-1,3.428949E-1,5.835079E-1,-1.6735977E-1,3.2436436E-1,3.5056058E-1,2.1115276E-1,1.6863757E0,2.7291873E-1,-1.4671065E-1,2.2948358E0,1.3511882E0,4.9471864E-1,3.3904454E-1,2.3052865E-1,-1.8519124E-1,3.2334536E-1,3.3610502E-1,5.936799E-1,-1.7299101E-1,3.4664547E-1,3.4857552E-2,5.6283635E-1,4.16542E-2,2.5663802E-1,3.46766E-1,8.42505E-3,1.326967E-1,7.413406E-1],"categories":[],"categories_nodes":[],"categories_segments":[],"categories_sizes":[],"default_left":[0,0,0,0,0,0,0,0,0,0,0,0,0,0,0,0,0,0,0,0,0,0,0,0,0,0,0,0,0,0,0,0,0,0,0,0,0,0,0,0,0,0,0,0,0,0,0,0,0,0,0,0,0,0,0,0,0,0,0,0,0,0,0,0,0,0,0,0,0,0,0,0,0,0,0,0,0,0,0,0,0,0,0,0,0,0,0],"id":15,"left_children":[1,3,5,7,9,11,13,15,17,19,21,23,25,27,29,31,33,35,37,-1,39,41,43,45,47,-1,49,-1,51,-1,53,55,57,59,61,63,65,67,69,71,73,75,77,-1,79,-1,-1,81,-1,83,-1,-1,-1,-1,85,-1,-1,-1,-1,-1,-1,-1,-1,-1,-1,-1,-1,-1,-1,-1,-1,-1,-1,-1,-1,-1,-1,-1,-1,-1,-1,-1,-1,-1,-1,-1,-1],"loss_changes":[3.6258625E4,7.425625E2,1.3370144E3,4.903953E3,3.87875E2,1.865871E2,4.663308E2,1.1625625E3,2.1040833E3,1.821875E2,3.2419043E2,3.2443237E0,6.8472046E1,1.783789E1,6.8103485E0,5.2671094E2,2.3490044E2,1.9820007E2,3.710619E2,0E0,1.26375E2,1.2377023E2,9.439697E0,2.9174805E-1,2.4794035E0,0E0,7.611599E0,0E0,1.5818359E1,0E0,1.7096863E0,2.3085938E2,1.2196543E3,6.936325E0,1.7455505E1,2.3044678E1,5.9619263E1,2.7905408E2,6.339505E1,7.2125E1,6.41834E2,5.894043E0,7.076578E0,0E0,2.2029297E1,0E0,0E0,2.3780107E-1,0E0,1.3961487E0,0E0,0E0,0E0,0E0,2.0891514E0,0E0,0E0,0E0,0E0,0E0,0E0,0E0,0E0,0E0,0E0,0E0,0E0,0E0,0E0,0E0,0E0,0E0,0E0,0E0,0E0,0E0,0E0,0E0,0E0,0E0,0E0,0E0,0E0,0E0,0E0,0E0,0E0],"parents":[2147483647,0,0,1,1,2,2,3,3,4,4,5,5,6,6,7,7,8,8,9,9,10,10,11,11,12,12,13,13,14,14,15,15,16,16,17,17,18,18,20,20,21,21,22,22,23,23,24,24,26,26,28,28,30,30,31,31,32,32,33,33,34,34,35,35,36,36,37,37,38,38,39,39,40,40,41,41,42,42,44,44,47,47,49,49,54,54],"right_children":[2,4,6,8,10,12,14,16,18,20,22,24,26,28,30,32,34,36,38,-1,40,42,44,46,48,-1,50,-1,52,-1,54,56,58,60,62,64,66,68,70,72,74,76,78,-1,80,-1,-1,82,-1,84,-1,-1,-1,-1,86,-1,-1,-1,-1,-1,-1,-1,-1,-1,-1,-1,-1,-1,-1,-1,-1,-1,-1,-1,-1,-1,-1,-1,-1,-1,-1,-1,-1,-1,-1,-1,-1],"split_conditions":[1.5477377E3,8E0,6.2004083E2,3E0,2.999631E6,1.584103E6,1.3508E4,2.46E7,7E0,6E0,2.35E2,1.1595E4,3.567E3,1.35E2,3.51E2,9.6E1,6.4E1,2.48936E5,2.57E2,-2.5695464E-1,1.2210995E3,5.9E1,5.023474E6,1.4693452E6,8.557143E1,-1.5568046E-1,1.4342858E3,2.9843083E-1,2.43E2,-1.2088426E-1,2.3254014E3,1.6335125E1,1.321E3,2.001885E6,3.0016E4,2.772092E2,1.8496E4,3.0303E4,7.05E2,5.05E7,2.99E2,2E0,8.05E2,6.324793E-1,2.57E2,3.5277322E-1,1.2725028E-1,3.66E2,-1.3866594E-1,2.992414E6,-1.18272066E-1,-1.5621194E-1,3.0441245E-1,3.4515536E-1,2.37E2,3.4190553E-1,2.912628E-1,1.2492276E-1,3.3980244E-1,3.428949E-1,5.835079E-1,-1.6735977E-1,3.2436436E-1,3.5056058E-1,2.1115276E-1,1.6863757E0,2.7291873E-1,-1.4671065E-1,2.2948358E0,1.3511882E0,4.9471864E-1,3.3904454E-1,2.3052865E-1,-1.8519124E-1,3.2334536E-1,3.3610502E-1,5.936799E-1,-1.7299101E-1,3.4664547E-1,3.4857552E-2,5.6283635E-1,4.16542E-2,2.5663802E-1,3.46766E-1,8.42505E-3,1.326967E-1,7.413406E-1],"split_indices":[13,52,40,67,19,26,5,73,52,40,65,5,10,66,65,34,34,19,65,0,13,7,73,26,8,0,12,0,66,0,41,14,24,24,65,14,65,19,65,27,65,2,4,0,65,0,0,6,0,69,0,0,0,0,66,0,0,0,0,0,0,0,0,0,0,0,0,0,0,0,0,0,0,0,0,0,0,0,0,0,0,0,0,0,0,0,0],"split_type":[0,0,0,0,0,0,0,0,0,0,0,0,0,0,0,0,0,0,0,0,0,0,0,0,0,0,0,0,0,0,0,0,0,0,0,0,0,0,0,0,0,0,0,0,0,0,0,0,0,0,0,0,0,0,0,0,0,0,0,0,0,0,0,0,0,0,0,0,0,0,0,0,0,0,0,0,0,0,0,0,0,0,0,0,0,0,0],"sum_hessian":[6.2197556E5,6.06507E5,1.5468553E4,9.3964414E4,5.125426E5,7.092543E2,1.4759299E4,8.9722836E4,4.2415776E3,5.1164616E5,8.96436E2,5.625162E2,1.467381E2,1.4592072E4,1.6722589E2,8.912096E4,6.018755E2,1.1035405E3,3.1380369E3,4.5556503E1,5.116006E5,1.6659302E2,7.2984296E2,5.567138E2,5.802362E0,1.06482025E2,4.025607E1,6.89566E0,1.4585177E4,2.3131642E0,1.6491273E2,7.869769E4,1.0423271E4,7.489763E1,5.2697784E2,1.0876326E3,1.59079685E1,3.0913118E3,4.6725067E1,5.09293E5,2.3076042E3,9.95213E1,6.7071724E1,6.824964E2,4.7346542E1,5.5474725E2,1.966546E0,3.9794548E0,1.822907E0,3.7115772E1,3.1402986E0,1.457935E4,5.827692E0,1.615512E2,3.3615425E0,6.947146E4,9.226234E3,3.6716526E3,6.7516196E3,5.8332226E1,1.6565405E1,5.212884E2,5.6894746E0,9.612729E2,1.26359726E2,1.1968806E1,3.9391623E0,3.0880896E3,3.2223058E0,9.846306E0,3.687876E1,5.0873275E5,5.6025275E2,2.4990268E2,2.0577017E3,8.924951E1,1.0271789E1,6.5530594E1,1.5411279E0,8.841579E0,3.8504963E1,1.0278289E0,2.9516258E0,3.5932495E1,1.1832741E0,1.2224392E0,2.1391034E0],"tree_param":{"num_deleted":"0","num_feature":"77","num_nodes":"87","size_leaf_vector":"1"}},{"base_weights":[-5.111957E-1,-5.183975E-1,-4.1350967E-1,-5.194314E-1,-4.8948488E-1,1.15440644E-1,-1.561401E-1,-5.197395E-1,-4.3952844E-1,-1.562907E-1,-4.3484268E-1,-5.1752317E-1,6.6782844E-1,-1.5625644E-1,-5.1460683E-1,-5.09052E-1,7.8770727E-1,-1.5605752E-1,-3.806968E-1,-1.5614167E-1,-3.1435746E-1,1.2053102E0,-4.3342802E-1,-4.0378729E-1,-5.173879E-1,-1.5582493E-1,-9.6300185E-2,1.704194E0,-1.4434858E-1,1.5005592E0,-4.5615342E-1,1.9464599E-1,-1.4123496E-1,1.477197E0,-1.543597E-1,2.2943969E0,-5.013665E-1,-7.991429E-3,-1.5583304E-1,-1.5621951E-1,-1.4372644E-1,-1.4025019E-1,5.1080835E-1,-8.205829E-2,5.729305E-1,-1.24871634E-1,5.343722E-1,2.574637E-2,-1.4023475E-1,-1.5235758E-1,4.9538746E-1,-1.1319898E-1,1.3792017E0,4.744428E-2,-1.5298423E-1],"categories":[],"categories_nodes":[],"categories_segments":[],"categories_sizes":[],"default_left":[0,0,0,0,0,0,0,0,0,0,0,0,0,0,0,0,0,0,0,0,0,0,0,0,0,0,0,0,0,0,0,0,0,0,0,0,0,0,0,0,0,0,0,0,0,0,0,0,0,0,0,0,0,0,0],"id":16,"left_children":[1,3,5,7,9,11,-1,13,15,-1,17,19,21,-1,23,25,27,-1,29,-1,31,33,35,37,39,-1,41,43,-1,45,47,-1,-1,49,-1,51,53,-1,-1,-1,-1,-1,-1,-1,-1,-1,-1,-1,-1,-1,-1,-1,-1,-1,-1],"loss_changes":[8.037695E1,2.9335938E0,4.453263E2,2.3066406E0,6.1400757E0,4.634748E2,0E0,3.1835938E-1,3.4702057E1,0E0,6.081787E0,2.0657349E-1,4.1944244E2,0E0,5.459961E0,1.5801926E0,2.6341248E1,0E0,1.192378E2,0E0,2.0177813E0,2.2328369E2,4.430614E1,1.9827873E1,2.0478516E0,0E0,7.849298E0,5.7925797E0,0E0,1.8194061E1,4.9604797E0,0E0,0E0,1.4293677E2,0E0,3.7655586E1,1.3711128E0,0E0,0E0,0E0,0E0,0E0,0E0,0E0,0E0,0E0,0E0,0E0,0E0,0E0,0E0,0E0,0E0,0E0,0E0],"parents":[2147483647,0,0,1,1,2,2,3,3,4,4,5,5,7,7,8,8,10,10,11,11,12,12,14,14,15,15,16,16,18,18,20,20,21,21,22,22,23,23,24,24,26,26,27,27,29,29,30,30,33,33,35,35,36,36],"right_children":[2,4,6,8,10,12,-1,14,16,-1,18,20,22,-1,24,26,28,-1,30,-1,32,34,36,38,40,-1,42,44,-1,46,48,-1,-1,50,-1,52,54,-1,-1,-1,-1,-1,-1,-1,-1,-1,-1,-1,-1,-1,-1,-1,-1,-1,-1],"split_conditions":[5.26E2,2E4,6.23641E5,1.8467E4,9E0,5.5222E4,-1.561401E-1,2.37E2,1.9676671E3,-1.562907E-1,2.37E2,3.0176654E4,4.34E1,-1.5625644E-1,2.43E2,1.6675159E3,2.80712E5,-1.5605752E-1,2.45E2,-1.5614167E-1,4.4E1,8.36E2,8.725E4,1E0,9.1603055E4,-1.5582493E-1,5.3701077E1,5.0275E4,-1.4434858E-1,2.56E2,2.52E2,1.9464599E-1,-1.4123496E-1,3E0,-1.543597E-1,6.682159E3,1.00563E5,-7.991429E-3,-1.5583304E-1,-1.5621951E-1,-1.4372644E-1,-1.4025019E-1,5.1080835E-1,-8.205829E-2,5.729305E-1,-1.24871634E-1,5.343722E-1,2.574637E-2,-1.4023475E-1,-1.5235758E-1,4.9538746E-1,-1.1319898E-1,1.3792017E0,4.744428E-2,-1.5298423E-1],"split_indices":[29,37,18,4,52,23,0,66,41,0,65,22,40,0,66,41,1,0,65,0,24,19,1,51,14,0,37,1,0,66,65,0,0,3,0,27,1,0,0,0,0,0,0,0,0,0,0,0,0,0,0,0,0,0,0],"split_type":[0,0,0,0,0,0,0,0,0,0,0,0,0,0,0,0,0,0,0,0,0,0,0,0,0,0,0,0,0,0,0,0,0,0,0,0,0,0,0,0,0,0,0,0,0,0,0,0,0,0,0,0,0,0,0],"sum_hessian":[1.1455214E5,1.0668278E5,7.869353E3,1.02983016E5,3.6997654E3,1.3235831E3,6.54577E3,1.02582E5,4.0102014E2,2.3418743E3,1.3578912E3,6.168347E2,7.067484E2,8.418859E4,1.8393406E4,3.8007394E2,2.0946186E1,5.237333E2,8.3415796E2,6.064696E2,1.0365078E1,4.7488193E2,2.3186647E2,4.5388016E2,1.7939527E4,3.7051178E2,9.562173E0,1.1962648E1,8.983537E0,3.143927E1,8.027187E2,1.0083667E0,9.356711E0,4.1017862E2,6.4703316E1,4.8381047E0,2.2702837E2,1.068096E2,3.4707056E2,1.648751E4,1.4520175E3,8.54015E0,1.0220226E0,1.095252E0,1.0867396E1,3.954013E0,2.7485256E1,1.625386E1,7.8646484E2,3.291854E1,3.7726007E2,2.626805E0,2.2112997E0,2.6920462E0,2.2433632E2],"tree_param":{"num_deleted":"0","num_feature":"77","num_nodes":"55","size_leaf_vector":"1"}},{"base_weights":[1.212148E-2,6.3046706E-1,-1.5625694E-1,-5.161341E-1,1.113943E0,-5.171537E-1,2.1725903E0,-4.9652132E-1,1.1276003E0,-5.1820195E-1,-4.5495468E-1,1.9758278E0,-1.3132611E-1,-5.040135E-1,2.2471951E-1,1.1318188E0,-1.551209E-1,-1.563792E-1,-5.126672E-1,4.9503344E-1,-1.569984E-1,-4.2839912E-1,-1.5588988E-1,1.130788E0,5.1884437E0,-1.5411477E-1,3.9289948E-1,-1.0902796E-1,1.4687462E0,-1.5427536E-1,-8.2479995E-3,3.398771E-1,2.3852421E-2,2.4328475E0,4.8963442E-1],"categories":[],"categories_nodes":[],"categories_segments":[],"categories_sizes":[],"default_left":[0,0,0,0,0,0,0,0,0,0,0,0,0,0,0,0,0,0,0,0,0,0,0,0,0,0,0,0,0,0,0,0,0,0,0],"id":17,"left_children":[1,3,-1,5,7,9,11,13,15,17,19,-1,-1,21,-1,23,-1,-1,25,27,-1,29,-1,31,33,-1,-1,-1,-1,-1,-1,-1,-1,-1,-1],"loss_changes":[5.1688066E4,4.0249E4,0E0,6.0160156E1,1.1238281E3,1.1674805E0,9.914574E1,4.3917084E0,3.519375E2,9.1796875E-2,2.3966934E1,0E0,0E0,2.8307343E-1,0E0,2.0535156E2,0E0,0E0,1.5194214E1,9.6301865E1,0E0,2.7049074E0,0E0,1.1329297E2,1.1717178E2,0E0,0E0,0E0,0E0,0E0,0E0,0E0,0E0,0E0,0E0],"parents":[2147483647,0,0,1,1,3,3,4,4,5,5,6,6,7,7,8,8,9,9,10,10,13,13,15,15,18,18,19,19,21,21,23,23,24,24],"right_children":[2,4,-1,6,8,10,12,14,16,18,20,-1,-1,22,-1,24,-1,-1,26,28,-1,30,-1,32,34,-1,-1,-1,-1,-1,-1,-1,-1,-1,-1],"split_conditions":[2.3E1,1.8E1,-1.5625694E-1,1.35968E3,2.56E2,2.999631E6,1.41E3,4.38E3,2.230248E6,6E0,2.57E2,1.9758278E0,-1.3132611E-1,1E0,2.2471951E-1,8E0,-1.551209E-1,-1.563792E-1,1.0526696E6,5.023474E6,-1.569984E-1,1E0,-1.5588988E-1,5.178664E2,4E0,-1.5411477E-1,3.9289948E-1,-1.0902796E-1,1.4687462E0,-1.5427536E-1,-8.2479995E-3,3.398771E-1,2.3852421E-2,2.4328475E0,4.8963442E-1],"split_indices":[6,4,0,12,65,19,10,10,25,52,65,0,0,3,0,3,0,0,22,73,0,43,0,36,2,0,0,0,0,0,0,0,0,0,0],"split_type":[0,0,0,0,0,0,0,0,0,0,0,0,0,0,0,0,0,0,0,0,0,0,0,0,0,0,0,0,0,0,0,0,0,0,0],"sum_hessian":[1.5683547E5,7.260318E4,8.42323E4,2.1533865E4,5.1069316E4,2.152651E4,7.3555827E0,4.2914465E2,5.064017E4,2.1162516E4,3.6399567E2,2.1675947E0,5.1879883E0,4.271706E2,1.9740615E0,5.0510926E4,1.2924634E2,1.35648125E4,7.5977026E3,2.4019882E1,3.3997577E2,7.799932E1,3.491713E2,5.049937E4,1.1553407E1,7.594051E3,3.6519318E0,2.0866817E1,3.1530647E0,6.400931E1,1.3990011E1,5.0396914E4,1.0245569E2,5.640331E0,5.913076E0],"tree_param":{"num_deleted":"0","num_feature":"77","num_nodes":"35","size_leaf_vector":"1"}},{"base_weights":[-4.6166244E-1,-4.7519517E-1,7.4920064E-1,-5.0337565E-1,1.7795576E-2,1.1797588E0,-1.581399E-1,-5.1710856E-1,-4.0634447E-1,1.1290088E0,-5.1964945E-1,-1.5918675E-1,1.2904733E0,-5.194793E-1,8.116512E-2,-5.192461E-1,2.2992529E-1,-1.1977317E-1,1.13164E0,1.4235814E-1,-1.5624385E-1,3.9012256E-1,-1.3730974E-1,-5.201811E-1,-2.8867966E-1,-1.5575896E-1,1.1619195E0,-5.1966596E-1,-4.4513002E-1,8.451589E0,4.276459E-2,-8.59333E-2,3.3978698E-1,-1.3469261E-1,5.8762115E-1,-1.5438694E-1,-1.562337E-1,-1.5607215E-1,1.8300594E-1,8.8451415E-2,3.5074675E-1,-1.5613209E-1,-1.4588226E-1,2.4078892E-1,-1.4574367E-1,3.1642807E0,-1.4086412E-1,-1.5635477E-1,3.265235E-1],"categories":[],"categories_nodes":[],"categories_segments":[],"categories_sizes":[],"default_left":[0,0,0,0,0,0,0,0,0,0,0,0,0,0,0,0,0,0,0,0,0,0,0,0,0,0,0,0,0,0,0,0,0,0,0,0,0,0,0,0,0,0,0,0,0,0,0,0,0],"id":18,"left_children":[1,3,5,7,9,11,-1,13,15,17,19,-1,21,23,25,27,29,-1,31,33,-1,-1,-1,35,37,-1,39,41,43,45,47,-1,-1,-1,-1,-1,-1,-1,-1,-1,-1,-1,-1,-1,-1,-1,-1,-1,-1],"loss_changes":[1.9257793E3,1.6144023E3,7.145189E2,1.4626367E2,3.7536682E3,1.8469128E2,0E0,1.3661133E2,9.794634E2,8.690918E0,3.33667E0,0E0,1.6451294E1,1.5386719E1,2.4775638E2,1.2866211E-1,3.1621606E3,0E0,3.177002E0,9.70502E0,0E0,0E0,0E0,4.8828125E-2,6.1295082E1,0E0,5.1078796E-1,4.4433594E-2,4.0543613E0,8.6022437E2,1.1861295E3,0E0,0E0,0E0,0E0,0E0,0E0,0E0,0E0,0E0,0E0,0E0,0E0,0E0,0E0,0E0,0E0,0E0,0E0],"parents":[2147483647,0,0,1,1,2,2,3,3,4,4,5,5,7,7,8,8,9,9,10,10,12,12,13,13,14,14,15,15,16,16,18,18,19,19,23,23,24,24,26,26,27,27,28,28,29,29,30,30],"right_children":[2,4,6,8,10,12,-1,14,16,18,20,-1,22,24,26,28,30,-1,32,34,-1,-1,-1,36,38,-1,40,42,44,46,48,-1,-1,-1,-1,-1,-1,-1,-1,-1,-1,-1,-1,-1,-1,-1,-1,-1,-1],"split_conditions":[2.999631E6,1.1632E4,4.21E2,2.92E4,9E0,2.84E2,-1.581399E-1,3.4E7,9.860743E2,1.314E4,1E1,-1.5918675E-1,1E0,9.98528E5,1.72E2,4.5403605E6,2.092E3,-1.1977317E-1,2.863301E6,5.2004E6,-1.5624385E-1,3.9012256E-1,-1.3730974E-1,6E0,3.1E1,-1.5575896E-1,9E0,8.8276654E2,1.644886E-1,2.05E2,1.584103E6,-8.59333E-2,3.3978698E-1,-1.3469261E-1,5.8762115E-1,-1.5438694E-1,-1.562337E-1,-1.5607215E-1,1.8300594E-1,8.8451415E-2,3.5074675E-1,-1.5613209E-1,-1.4588226E-1,2.4078892E-1,-1.4574367E-1,3.1642807E0,-1.4086412E-1,-1.5635477E-1,3.265235E-1],"split_indices":[19,5,65,65,3,65,0,16,13,65,3,0,48,19,6,70,10,0,25,25,0,0,0,39,68,0,19,13,15,29,26,0,0,0,0,0,0,0,0,0,0,0,0,0,0,0,0,0,0],"split_type":[0,0,0,0,0,0,0,0,0,0,0,0,0,0,0,0,0,0,0,0,0,0,0,0,0,0,0,0,0,0,0,0,0,0,0,0,0,0,0,0,0,0,0,0,0,0,0,0,0],"sum_hessian":[1.1750134E5,1.1620326E5,1.2980908E3,1.0991996E5,6.283295E3,9.70708E2,3.2738278E2,9.628789E4,1.3632066E4,2.0479283E3,4.235366E3,5.8784172E1,9.119238E2,9.5907984E4,3.7991336E2,1.1577842E4,2.054224E3,3.2607515E0,2.0446676E3,7.2168436E0,4.2281494E3,9.070252E2,4.898627E0,9.561596E4,2.9201617E2,2.445724E2,1.3534096E2,1.1506653E4,7.118919E1,4.473938E1,2.0094847E3,1.2155726E0,2.043452E3,6.0123153E0,1.2045282E0,9.369313E3,8.624665E4,2.3252452E2,5.949165E1,1.4656564E0,1.3387529E2,1.1231618E4,2.7503537E2,1.6564056E0,6.953279E1,3.6080082E1,8.659298E0,1.3057555E3,7.037293E2],"tree_param":{"num_deleted":"0","num_feature":"77","num_nodes":"49","size_leaf_vector":"1"}},{"base_weights":[1.3857509E-1,-4.0318218E-1,9.882624E-1,-4.5149282E-1,8.6484236E-1,1.1204959E0,-5.1744586E-1,-4.0306974E-2,-5.20526E-1,-4.2717835E-1,1.0916508E0,-5.190046E-1,1.1297916E0,-1.5623331E-1,3.1093594E-1,-3.3309454E-1,8.886758E-1,-1.5616123E-1,-1.6379483E-1,-5.049003E-1,5.853505E-1,-4.7802037E-1,1.1242539E0,-1.5640664E-1,3.813591E-2,1.5742252E0,1.1286235E0,-1.5658213E-1,-3.3843983E-2,1.2568448E0,-5.6261325E-1,-1.0855545E-1,7.081534E-2,-5.085692E-1,9.695451E-2,1.2645019E0,-1.4811595E-1,-1.5675722E-1,3.601008E-1,1.1339506E0,-4.483175E-1,1.8298115E0,1.3404957E0,-1.2416681E-1,3.3861786E-1,3.7394336E-1,-1.3767305E-1,3.5780895E-1,2.0186641E0,-1.7008199E-1,3.4992984E-1,-1.5311956E-1,-3.2347843E-2,-1.5079853E-1,4.705087E-1,9.975099E-1,3.3447424E-1,-1.557249E-1,-1.5615158E-2,4.340058E-1,3.3199096E-1],"categories":[],"categories_nodes":[],"categories_segments":[],"categories_sizes":[],"default_left":[0,0,0,0,0,0,0,0,0,0,0,0,0,0,0,0,0,0,0,0,0,0,0,0,0,0,0,0,0,0,0,0,0,0,0,0,0,0,0,0,0,0,0,0,0,0,0,0,0,0,0,0,0,0,0,0,0,0,0,0,0],"id":19,"left_children":[1,3,5,7,9,11,13,15,17,19,21,23,25,-1,-1,27,29,-1,31,33,35,37,39,-1,-1,41,43,-1,45,47,49,-1,-1,51,-1,53,-1,-1,-1,55,57,-1,59,-1,-1,-1,-1,-1,-1,-1,-1,-1,-1,-1,-1,-1,-1,-1,-1,-1,-1],"loss_changes":[7.880955E4,6.4048066E3,1.3272555E4,2.8586816E3,1.1249485E3,9.3447656E2,2.8404785E1,3.938371E3,2.6757812E-1,4.54468E1,1.6760425E2,5.920868E-1,2.9851562E1,0E0,0E0,6.2215784E2,1.8547588E3,0E0,4.204216E-1,1.7848511E0,3.0938225E1,5.641239E0,4.9280518E1,0E0,0E0,1.5810168E2,1.009375E1,0E0,2.3193381E3,9.636367E2,5.9192505E0,0E0,0E0,3.345337E-1,0E0,1.4570927E1,0E0,0E0,0E0,1.2889526E2,5.4273224E-1,0E0,2.14328E0,0E0,0E0,0E0,0E0,0E0,0E0,0E0,0E0,0E0,0E0,0E0,0E0,0E0,0E0,0E0,0E0,0E0,0E0],"parents":[2147483647,0,0,1,1,2,2,3,3,4,4,5,5,6,6,7,7,8,8,9,9,10,10,11,11,12,12,15,15,16,16,18,18,19,19,20,20,21,21,22,22,25,25,26,26,28,28,29,29,30,30,33,33,35,35,39,39,40,40,42,42],"right_children":[2,4,6,8,10,12,14,16,18,20,22,24,26,-1,-1,28,30,-1,32,34,36,38,40,-1,-1,42,44,-1,46,48,50,-1,-1,52,-1,54,-1,-1,-1,56,58,-1,60,-1,-1,-1,-1,-1,-1,-1,-1,-1,-1,-1,-1,-1,-1,-1,-1,-1,-1],"split_conditions":[1.3025323E3,1E0,1.1601E4,3E0,1.74E2,1.1595E4,2.2E7,1.16E2,2.319E3,9.38E2,1.2E1,6.6805175E6,1.4371538E3,-1.5623331E-1,3.1093594E-1,6.4E1,2.99E2,-1.5616123E-1,1.3255173E1,1.45E2,4.244E4,1.375382E6,3.3437E4,-1.5640664E-1,3.813591E-2,6.85E7,2.4E1,-1.5658213E-1,2.84E2,5.6568515E6,1.39E7,-1.0855545E-1,7.081534E-2,1.93E2,9.695451E-2,7.7E1,-1.4811595E-1,-1.5675722E-1,3.601008E-1,1E0,2.4E1,1.8298115E0,1E0,-1.2416681E-1,3.3861786E-1,3.7394336E-1,-1.3767305E-1,3.5780895E-1,2.0186641E0,-1.7008199E-1,3.4992984E-1,-1.5311956E-1,-3.2347843E-2,-1.5079853E-1,4.705087E-1,9.975099E-1,3.3447424E-1,-1.557249E-1,-1.5615158E-2,4.340058E-1,3.3199096E-1],"split_indices":[13,43,5,52,21,5,27,34,12,29,4,16,13,0,0,34,65,0,8,24,1,1,24,0,0,23,4,0,65,74,22,0,0,29,0,66,0,0,0,3,35,0,43,0,0,0,0,0,0,0,0,0,0,0,0,0,0,0,0,0,0],"split_type":[0,0,0,0,0,0,0,0,0,0,0,0,0,0,0,0,0,0,0,0,0,0,0,0,0,0,0,0,0,0,0,0,0,0,0,0,0,0,0,0,0,0,0,0,0,0,0,0,0,0,0,0,0,0,0,0,0,0,0,0,0],"sum_hessian":[1.7120253E5,1.0454536E5,6.665718E4,1.0070907E5,3.836285E3,6.1276082E4,5.3810986E3,1.4477503E4,8.623157E4,5.7274475E2,3.2635403E3,3.4516043E2,6.093092E4,5.3702485E3,1.0849892E1,1.1008572E4,3.468931E3,8.6228336E4,3.230295E0,5.323805E2,4.0364307E1,6.6128555E1,3.1974116E3,3.4410153E2,1.0588977E0,1.56213E2,6.077471E4,6.7488687E3,4.2597036E3,2.7670967E3,7.018344E2,2.2237983E0,1.0064965E0,5.3041626E2,1.9642142E0,2.466725E1,1.5697057E1,6.509125E1,1.0373048E0,3.178094E3,1.9317743E1,6.4397426E0,1.4977325E2,3.7754183E0,6.0770934E4,1.061245E3,3.1984585E3,2.7362378E3,3.0858774E1,7.00753E2,1.0814335E0,5.2773364E2,2.6826327E0,3.523184E0,2.1144066E1,2.587834E1,3.1522156E3,1.612772E1,3.1900244E0,9.943562E1,5.033763E1],"tree_param":{"num_deleted":"0","num_feature":"77","num_nodes":"61","size_leaf_vector":"1"}},{"base_weights":[-4.892338E-1,-5.060885E-1,9.279726E-1,-5.115483E-1,7.963584E-1,1.0961354E0,-1.5560606E-1,-5.1285577E-1,1.0835018E0,-1.5457383E-1,1.1314142E0,1.1115962E0,-1.4642231E-1,-5.1410097E-1,-6.7711346E-2,4.052396E-1,-1.4621057E-1,3.432267E-1,-1.16720684E-1,1.0996618E0,4.5542184E-1,-5.153615E-1,-2.2265144E-1,-4.651693E-1,8.5257536E-1,1.109048E0,-1.396662E-1,-1.5516095E-1,-1.2190292E-1,-8.41704E-2,2.4469955E0,-2.1175758E-3,-1.5557285E-1,7.6126194E-1,-1.558671E-1,3.3328584E-1,-9.238067E-2],"categories":[],"categories_nodes":[],"categories_segments":[],"categories_sizes":[],"default_left":[0,0,0,0,0,0,0,0,0,0,0,0,0,0,0,0,0,0,0,0,0,0,0,0,0,0,0,0,0,0,0,0,0,0,0,0,0],"id":20,"left_children":[1,3,5,7,9,11,-1,13,15,-1,17,19,-1,21,23,-1,-1,-1,-1,25,-1,27,29,31,33,35,-1,-1,-1,-1,-1,-1,-1,-1,-1,-1,-1],"loss_changes":[2.766166E3,8.14084E2,3.3170947E2,2.3819336E2,2.1066571E2,3.0418335E1,0E0,6.3072266E1,3.99802E1,0E0,7.789398E0,4.1920166E0,0E0,4.1597656E1,1.1699148E2,0E0,0E0,0E0,0E0,1.7814331E1,0E0,2.2488281E1,2.4041466E2,5.4587555E0,2.2442038E2,3.501587E0,0E0,0E0,0E0,0E0,0E0,0E0,0E0,0E0,0E0,0E0,0E0],"parents":[2147483647,0,0,1,1,2,2,3,3,4,4,5,5,7,7,8,8,10,10,11,11,13,13,14,14,19,19,21,21,22,22,23,23,24,24,25,25],"right_children":[2,4,6,8,10,12,-1,14,16,-1,18,20,-1,22,24,-1,-1,-1,-1,26,-1,28,30,32,34,36,-1,-1,-1,-1,-1,-1,-1,-1,-1,-1,-1],"split_conditions":[6.68313E6,5.05E7,1.9942294E-1,3.56E2,1.7089568E2,7.141499E6,-1.5560606E-1,3.648654E6,8.05E2,-1.5457383E-1,6E0,5E2,-1.4642231E-1,1.76E2,2.139E2,4.052396E-1,-1.4621057E-1,3.432267E-1,-1.16720684E-1,6.350172E7,4.5542184E-1,1.95E7,3.4342624E2,5.43843E6,4E0,1.1204842E-1,-1.396662E-1,-1.5516095E-1,-1.2190292E-1,-8.41704E-2,2.4469955E0,-2.1175758E-3,-1.5557285E-1,7.6126194E-1,-1.558671E-1,3.3328584E-1,-9.238067E-2],"split_indices":[69,27,15,38,9,69,0,70,4,0,5,4,0,7,8,0,0,0,0,1,0,24,13,76,3,15,0,0,0,0,0,0,0,0,0,0,0],"split_type":[0,0,0,0,0,0,0,0,0,0,0,0,0,0,0,0,0,0,0,0,0,0,0,0,0,0,0,0,0,0,0,0,0,0,0,0,0],"sum_hessian":[1.15783484E5,1.14423305E5,1.3601832E3,1.1394626E5,4.7704672E2,1.2187549E3,1.4142833E2,1.1385361E5,9.264837E1,9.695812E1,3.800886E2,1.207271E3,1.1483902E1,1.1353585E5,3.17761E2,7.929565E1,1.3352723E1,3.7719186E2,2.8967404E0,1.1764355E3,3.0835459E1,1.1304617E5,4.8967776E2,2.2226335E2,9.549765E1,1.1697125E3,6.72299E0,1.11164484E5,1.8816827E3,4.872763E2,2.4014685E0,2.3324404E1,1.9893893E2,4.2481487E1,5.3016167E1,1.1683582E3,1.3544813E0],"tree_param":{"num_deleted":"0","num_feature":"77","num_nodes":"37","size_leaf_vector":"1"}},{"base_weights":[-4.8911002E-1,-4.991242E-1,8.3104753E-1,-5.154976E-1,-1.07804984E-1,-1.5525743E-1,1.1199418E0,-5.1655626E-1,1.6147177E-1,4.3507004E-1,-1.5639906E-1,1.1443657E0,-1.4485991E-1,-5.169142E-1,-2.062569E-1,1.6968797E0,-4.683607E-1,7.1438265E-1,-1.5618575E-1,1.013804E-1,3.436498E-1,-5.174361E-1,-3.892339E-1,4.6738296E0,-1.5503524E-1,-1.4147037E-1,5.4410475E-1,-1.5503551E-1,1.0036689E0,-4.978517E-1,1.0921925E0,-1.5573305E-1,-1.4459191E-1,-1.5455993E-1,2.0746434E0,-1.18934125E-1,2.3905056E0,-1.0825649E-1,8.1047577E-1,4.504258E-2,-1.5417628E-1,3.56073E-1,-9.590061E-2],"categories":[],"categories_nodes":[],"categories_segments":[],"categories_sizes":[],"default_left":[0,0,0,0,0,0,0,0,0,0,0,0,0,0,0,0,0,0,0,0,0,0,0,0,0,0,0,0,0,0,0,0,0,0,0,0,0,0,0,0,0,0,0],"id":21,"left_children":[1,3,5,7,9,-1,11,13,15,17,-1,19,-1,21,23,25,27,29,-1,-1,-1,31,33,35,-1,-1,-1,-1,37,39,41,-1,-1,-1,-1,-1,-1,-1,-1,-1,-1,-1,-1],"loss_changes":[1.5323418E3,7.368086E2,3.4059998E2,7.919336E1,1.0373832E3,0E0,2.8702576E1,1.2136719E1,1.6820189E2,5.3374414E2,0E0,2.6068115E-1,0E0,7.1328125E0,1.9739111E2,1.3664032E1,9.324844E0,7.088982E2,0E0,0E0,0E0,6.2578125E0,4.1962906E2,1.3339763E2,0E0,0E0,0E0,0E0,1.0878144E1,3.910965E0,1.581062E2,0E0,0E0,0E0,0E0,0E0,0E0,0E0,0E0,0E0,0E0,0E0,0E0],"parents":[2147483647,0,0,1,1,2,2,3,3,4,4,6,6,7,7,8,8,9,9,11,11,13,13,14,14,15,15,16,16,17,17,21,21,22,22,23,23,28,28,29,29,30,30],"right_children":[2,4,6,8,10,-1,12,14,16,18,-1,20,-1,22,24,26,28,30,-1,-1,-1,32,34,36,-1,-1,-1,-1,38,40,42,-1,-1,-1,-1,-1,-1,-1,-1,-1,-1,-1,-1],"split_conditions":[4.1375612E6,4.29816E5,1.64E7,5.05E7,8.9216113E-1,-1.5525743E-1,3.397E3,5.983688E6,2.7041528E0,1.85E2,-1.5639906E-1,1.2E1,-1.4485991E-1,1.76E2,6.969328E-2,1.14E2,1.32735E5,7.09096E5,-1.5618575E-1,1.013804E-1,3.436498E-1,5.26E2,2.1235536E2,2.7928473E-2,-1.5503524E-1,-1.4147037E-1,5.4410475E-1,-1.5503551E-1,4E0,2.35E2,2.7928473E-2,-1.5573305E-1,-1.4459191E-1,-1.5455993E-1,2.0746434E0,-1.18934125E-1,2.3905056E0,-1.0825649E-1,8.1047577E-1,4.504258E-2,-1.5417628E-1,3.56073E-1,-9.590061E-2],"split_indices":[70,24,26,27,14,0,4,72,14,69,0,2,0,7,37,4,29,17,0,0,0,29,13,37,0,0,0,0,67,65,37,0,0,0,0,0,0,0,0,0,0,0,0],"split_type":[0,0,0,0,0,0,0,0,0,0,0,0,0,0,0,0,0,0,0,0,0,0,0,0,0,0,0,0,0,0,0,0,0,0,0,0,0,0,0,0,0,0,0],"sum_hessian":[1.1587591E5,1.1500416E5,8.717534E2,1.1038515E5,4.619005E3,1.5366176E2,7.180916E2,1.1021304E5,1.7211119E2,1.9971278E3,2.6218774E3,7.075952E2,1.0496402E1,1.10085375E5,1.2766292E2,4.9571476E1,1.2253971E2,1.5456454E3,4.5148242E2,1.4131609E0,7.0618207E2,1.09634195E5,4.511752E2,6.796789E0,1.2086613E2,2.378432E0,4.7193043E1,1.1926525E2,3.2744555E0,3.6718475E2,1.1784606E3,1.04679125E5,4.9550757E3,4.4444055E2,6.7346663E0,3.0234132E0,3.7733757E0,2.252065E0,1.0223905E0,8.683359E0,3.585014E2,1.104521E3,7.393955E1],"tree_param":{"num_deleted":"0","num_feature":"77","num_nodes":"43","size_leaf_vector":"1"}},{"base_weights":[-4.8711208E-1,-5.0862044E-1,-2.1346135E-1,-1.5620032E-1,-2.5325137E-1,1.1405947E0,-5.207121E-1,9.9418825E-1,-5.198475E-1,3.4258583E-1,-8.815558E-2,5.7099382E-3,-1.5625665E-1,1.1514206E0,-1.5632361E-1,-4.6173364E-1,-1.5632686E-1,-1.3991532E-1,1.1594937E0,1.1319146E0,-1.546667E-1,-9.312938E-2,3.4880838E-1,6.68484E-1,-8.925215E-2],"categories":[],"categories_nodes":[],"categories_segments":[],"categories_sizes":[],"default_left":[0,0,0,0,0,0,0,0,0,0,0,0,0,0,0,0,0,0,0,0,0,0,0,0,0],"id":22,"left_children":[1,3,5,-1,7,9,11,13,15,-1,-1,-1,-1,17,-1,19,-1,-1,21,23,-1,-1,-1,-1,-1],"loss_changes":[6.8378125E2,3.312871E2,3.5239082E3,0E0,1.6151373E3,3.3875732E0,5.443115E-1,2.0436047E2,4.8217773E-2,0E0,0E0,0E0,0E0,1.0664917E1,0E0,8.517002E0,0E0,0E0,3.991333E0,5.888868E0,0E0,0E0,0E0,0E0,0E0],"parents":[2147483647,0,0,1,1,2,2,4,4,5,5,6,6,7,7,8,8,13,13,15,15,18,18,19,19],"right_children":[2,4,6,-1,8,10,12,14,16,-1,-1,-1,-1,18,-1,20,-1,-1,22,24,-1,-1,-1,-1,-1],"split_conditions":[4.88E2,1E0,4.9E1,-1.5620032E-1,8E0,1.6E1,5E1,8E0,1.8E1,3.4258583E-1,-8.815558E-2,5.7099382E-3,-1.5625665E-1,9.803061E0,-1.5632361E-1,2.29E2,-1.5632686E-1,-1.3991532E-1,2.29E2,3.506E2,-1.546667E-1,-9.312938E-2,3.4880838E-1,6.68484E-1,-8.925215E-2],"split_indices":[35,30,39,0,8,3,39,66,4,0,0,0,0,9,0,66,0,0,65,26,0,0,0,0,0],"split_type":[0,0,0,0,0,0,0,0,0,0,0,0,0,0,0,0,0,0,0,0,0,0,0,0,0],"sum_hessian":[1.1619267E5,1.0772487E5,8.467801E3,1.0287078E5,4.854088E3,1.5655774E3,6.902223E3,8.542424E2,3.9998455E3,1.5643002E3,1.2771286E0,1.798687E0,6.9004243E3,7.741523E2,8.009011E1,9.1492966E1,3.9083525E3,3.5621195E0,7.7059015E2,2.334638E0,8.9158325E1,1.4657857E0,7.691243E2,1.0049639E0,1.3296742E0],"tree_param":{"num_deleted":"0","num_feature":"77","num_nodes":"25","size_leaf_vector":"1"}},{"base_weights":[-5.208149E-1,-1.562722E-1,-3.448041E-1,-1.5396763E-1,1.5747876E0,-9.5150314E-2,6.4542794E-1],"categories":[],"categories_nodes":[],"categories_segments":[],"categories_sizes":[],"default_left":[0,0,0,0,0,0,0],"id":23,"left_children":[1,-1,3,-1,5,-1,-1],"loss_changes":[1.6777344E0,0E0,2.115303E1,0E0,6.4881783E0,0E0,0E0],"parents":[2147483647,0,0,2,2,4,4],"right_children":[2,-1,4,-1,6,-1,-1],"split_conditions":[1.5304E4,-1.562722E-1,2.3254014E3,-1.5396763E-1,7.7781744E0,-9.5150314E-2,6.4542794E-1],"split_indices":[34,0,41,0,9,0,0],"split_type":[0,0,0,0,0,0,0],"sum_hessian":[1.14215445E5,1.1415352E5,6.1928547E1,5.760687E1,4.3216786E0,1.1146095E0,3.2070692E0],"tree_param":{"num_deleted":"0","num_feature":"77","num_nodes":"7","size_leaf_vector":"1"}},{"base_weights":[-5.206817E-1,-1.5622248E-1,-4.004174E-1,-1.5413919E-1,7.3661673E-1],"categories":[],"categories_nodes":[],"categories_segments":[],"categories_sizes":[],"default_left":[0,0,0,0,0],"id":24,"left_children":[1,-1,3,-1,-1],"loss_changes":[6.1328125E-1,0E0,2.1070225E1,0E0,0E0],"parents":[2147483647,0,0,2,2],"right_children":[2,-1,4,-1,-1],"split_conditions":[1.5304E4,-1.5622248E-1,8.4E1,-1.5413919E-1,7.3661673E-1],"split_indices":[34,0,24,0,0],"split_type":[0,0,0,0,0],"sum_hessian":[1.1421708E5,1.1415691E5,6.017726E1,5.8668133E1,1.5091283E0],"tree_param":{"num_deleted":"0","num_feature":"77","num_nodes":"5","size_leaf_vector":"1"}},{"base_weights":[-5.082518E-1,-4.2463264E-1,-5.196848E-1,-4.742274E-1,1.0336378E0,-3.9164278E-1,-5.199189E-1,-4.8609713E-1,9.6392095E-1,-1.5503189E-1,1.592471E0,-1.5566134E-1,5.6563336E-1,-1.5624645E-1,-5.142586E-1,-5.199565E-1,-2.9930055E-1,-1.4888564E-1,3.7095147E-1,1.6263727E0,-1.3149545E-1,-1.4582732E-1,6.2350017E-1,-4.7525683E-1,-1.5613629E-1,-5.2044725E-1,2.4887034E-1,-4.789527E-1,9.340638E0,4.9011073E-1,-8.2632914E-2,-5.041436E-1,8.5181653E-1,-1.5626797E-1,-6.695831E-2,3.443069E-1,-1.2637284E-1,-1.4603828E-1,8.4818006E-1,3.500956E0,1.3264905E-1,-1.5645614E-1,4.6322316E-1,3.8046232E-1,-1.4153478E-1],"categories":[],"categories_nodes":[],"categories_segments":[],"categories_sizes":[],"default_left":[0,0,0,0,0,0,0,0,0,0,0,0,0,0,0,0,0,0,0,0,0,0,0,0,0,0,0,0,0,0,0,0,0,0,0,0,0,0,0,0,0,0,0,0,0],"id":25,"left_children":[1,3,5,7,9,11,13,15,17,-1,19,-1,21,-1,23,25,27,-1,-1,29,-1,-1,-1,31,-1,33,35,37,39,-1,-1,41,43,-1,-1,-1,-1,-1,-1,-1,-1,-1,-1,-1,-1],"loss_changes":[1.0943164E2,9.9862036E2,2.8203125E0,2.2832227E2,3.943879E2,2.3216944E1,2.4609375E-1,8.358008E1,4.423748E1,0E0,2.3717346E1,0E0,3.6900475E1,0E0,3.1188965E0,4.357422E0,3.5268623E3,0E0,0E0,5.0343018E0,0E0,0E0,0E0,7.406915E1,0E0,1.3681641E0,5.1963716E0,5.316693E1,7.6709985E2,0E0,0E0,6.774112E1,2.3357471E1,0E0,0E0,0E0,0E0,0E0,0E0,0E0,0E0,0E0,0E0,0E0,0E0],"parents":[2147483647,0,0,1,1,2,2,3,3,4,4,5,5,6,6,7,7,8,8,10,10,12,12,14,14,15,15,16,16,19,19,23,23,25,25,26,26,27,27,28,28,31,31,32,32],"right_children":[2,4,6,8,10,12,14,16,18,-1,20,-1,22,-1,24,26,28,-1,-1,30,-1,-1,-1,32,-1,34,36,38,40,-1,-1,42,44,-1,-1,-1,-1,-1,-1,-1,-1,-1,-1,-1,-1],"split_conditions":[3.6E0,9.942058E3,2E0,1.7E7,1E0,5.59E2,2.92E4,1.04E2,6E0,-1.5503189E-1,4.8E1,-1.5566134E-1,1.3653741E2,-1.5624645E-1,1.76E2,7.3199336E3,4.13691E2,-1.4888564E-1,3.7095147E-1,6.5535E4,-1.3149545E-1,-1.4582732E-1,6.2350017E-1,5.94E3,-1.5613629E-1,4.8493265E6,4.4E1,1.02304405E2,4E0,4.9011073E-1,-8.2632914E-2,7.451864E1,1.1601E4,-1.5626797E-1,-6.695831E-2,3.443069E-1,-1.2637284E-1,-1.4603828E-1,8.4818006E-1,3.500956E0,1.3264905E-1,-1.5645614E-1,4.6322316E-1,3.8046232E-1,-1.4153478E-1],"split_indices":[40,14,8,26,46,24,65,34,11,0,34,0,36,0,4,14,37,0,0,65,0,0,0,5,0,22,34,37,2,0,0,9,5,0,0,0,0,0,0,0,0,0,0,0,0],"split_type":[0,0,0,0,0,0,0,0,0,0,0,0,0,0,0,0,0,0,0,0,0,0,0,0,0,0,0,0,0,0,0,0,0,0,0,0,0,0,0,0,0,0,0,0,0],"sum_hessian":[1.14693234E5,1.380009E4,1.0089314E5,1.3346848E4,4.532422E2,1.8721704E2,1.0070592E5,1.3238247E4,1.08599655E2,1.2010412E2,3.331381E2,1.6565797E2,2.155907E1,8.677748E4,1.3928448E4,1.1205343E4,2.0329044E3,1.695463E1,9.164502E1,3.278639E2,5.2741795E0,1.3117571E1,8.4415E0,1.9199596E3,1.2008488E4,1.1198519E4,6.824726E0,1.9966448E3,3.625962E1,3.2674557E2,1.118316E0,1.8796646E3,4.0295055E1,1.1180992E4,1.7526318E1,2.6105409E0,4.214185E0,1.9927712E3,3.8735971E0,2.849063E1,7.768992E0,1.8645911E3,1.5073577E1,3.0684015E1,9.611038E0],"tree_param":{"num_deleted":"0","num_feature":"77","num_nodes":"45","size_leaf_vector":"1"}},{"base_weights":[-5.02266E-1,-5.1894766E-1,1.3988989E-2,-5.058277E-1,-1.5613948E-1,1.1160295E0,-5.1530576E-1,-1.5611663E-1,-4.8290226E-1,1.137609E0,-1.4873916E-1,1.5192436E-3,-1.5623702E-1,-4.8611423E-1,2.183196E0,9.9867005E-3,3.4167728E-1,1.5897492E0,-1.5032385E-1,-4.11592E-1,-1.5612018E-1,7.214611E-1,1.985885E-1,-9.335498E-2,6.468975E-1,-1.5641928E-1,-8.325368E-2],"categories":[],"categories_nodes":[],"categories_segments":[],"categories_sizes":[],"default_left":[0,0,0,0,0,0,0,0,0,0,0,0,0,0,0,0,0,0,0,0,0,0,0,0,0,0,0],"id":26,"left_children":[1,3,5,7,-1,9,11,-1,13,15,-1,17,-1,19,21,-1,-1,23,-1,25,-1,-1,-1,-1,-1,-1,-1],"loss_changes":[9.926328E2,1.9589844E0,2.1056018E3,3.6245117E0,0E0,4.1301636E1,6.912781E0,0E0,3.979724E1,1.6411133E0,0E0,2.2031797E1,0E0,1.1331787E1,3.0496407E-1,0E0,0E0,7.816427E0,0E0,2.088945E1,0E0,0E0,0E0,0E0,0E0,0E0,0E0],"parents":[2147483647,0,0,1,1,2,2,3,3,5,5,6,6,8,8,9,9,11,11,13,13,14,14,17,17,19,19],"right_children":[2,4,6,8,-1,10,12,-1,14,16,-1,18,-1,20,22,-1,-1,24,-1,26,-1,-1,-1,-1,-1,-1,-1],"split_conditions":[1E3,6E0,9.64E1,9.624639E2,-1.5613948E-1,2.2777992E7,5.731E3,-1.5611663E-1,5.26E2,1.764373E6,-1.4873916E-1,2.5E2,-1.5623702E-1,2.58E2,1.011E3,9.9867005E-3,3.4167728E-1,2.27E2,-1.5032385E-1,2.47E2,-1.5612018E-1,7.214611E-1,1.985885E-1,-9.335498E-2,6.468975E-1,-1.5641928E-1,-8.325368E-2],"split_indices":[35,39,40,37,0,1,5,0,29,28,0,66,0,66,1,0,0,66,0,66,0,0,0,0,0,0,0],"split_type":[0,0,0,0,0,0,0,0,0,0,0,0,0,0,0,0,0,0,0,0,0,0,0,0,0,0,0],"sum_hessian":[1.15259984E5,1.1165219E5,3.6077974E3,1.1608542E4,1.0004365E5,1.170208E3,2.4375894E3,7.086115E3,4.5224263E3,1.1550382E3,1.5169717E1,2.5602453E1,2.4119868E3,4.5178013E3,4.625127E0,1.405284E0,1.1536329E3,5.634422E0,1.9968033E1,1.4276886E3,3.0901125E3,3.5298848E0,1.0952421E0,1.397247E0,4.237175E0,7.83306E2,6.4438257E2],"tree_param":{"num_deleted":"0","num_feature":"77","num_nodes":"27","size_leaf_vector":"1"}},{"base_weights":[-5.111276E-1,-5.190882E-1,-3.1961784E-1,-5.195476E-1,-2.476999E-1,6.0569394E-1,-1.5629087E-1,-5.1166373E-1,-5.202098E-1,-5.1271117E-1,1.7238842E0,-3.4317645E-1,1.5880632E0,-5.15217E-1,-4.6443692E-1,-1.562425E-1,-5.1131266E-1,-9.710679E-2,-1.5560782E-1,5.578178E-1,-8.789508E-2,1.9469397E-1,-5.164359E-1,1.7474775E0,-1.5103543E-1,-5.048684E-1,-1.5626019E-1,1.0543308E-1,-1.5608722E-1,-1.5621655E-1,-4.685806E-1,7.034304E-2,-9.553064E-2,-1.5436885E-1,1.475664E0,-1.9609831E-1,-1.5586433E-1,-1.497037E-1,1.8118345E0,-1.5628971E-1,4.0240973E-2,-1.5264943E-1,5.7115585E-1,1.8068554E-1,-1.4651518E-1,5.939592E-1,-1.4076474E-1,3.594694E-2,-1.0925586E-1,5.5306536E-1,-1.3900138E-1],"categories":[],"categories_nodes":[],"categories_segments":[],"categories_sizes":[],"default_left":[0,0,0,0,0,0,0,0,0,0,0,0,0,0,0,0,0,0,0,0,0,0,0,0,0,0,0,0,0,0,0,0,0,0,0,0,0,0,0,0,0,0,0,0,0,0,0,0,0,0,0],"id":27,"left_children":[1,3,5,7,9,11,-1,13,15,17,19,21,23,25,27,-1,29,31,-1,-1,-1,33,35,37,-1,39,-1,41,-1,-1,43,-1,-1,-1,45,47,-1,-1,49,-1,-1,-1,-1,-1,-1,-1,-1,-1,-1,-1,-1],"loss_changes":[1.7448633E2,1.3583984E1,8.526106E2,3.0664062E-1,9.900061E1,7.630363E2,0E0,1.1987305E0,2.7148438E-1,3.630638E-1,6.688553E0,3.895349E1,1.3494128E2,2.0239258E-1,1.9462372E1,0E0,2.343628E0,3.3812794E-1,0E0,0E0,0E0,9.370596E1,2.1274567E-1,5.4951538E1,0E0,2.9321655E1,0E0,6.201267E1,0E0,0E0,2.5134827E1,0E0,0E0,0E0,3.6933464E1,2.901767E-1,0E0,0E0,2.709436E1,0E0,0E0,0E0,0E0,0E0,0E0,0E0,0E0,0E0,0E0,0E0,0E0],"parents":[2147483647,0,0,1,1,2,2,3,3,4,4,5,5,7,7,8,8,9,9,10,10,11,11,12,12,13,13,14,14,16,16,17,17,21,21,22,22,23,23,25,25,27,27,30,30,34,34,35,35,38,38],"right_children":[2,4,6,8,10,12,-1,14,16,18,20,22,24,26,28,-1,30,32,-1,-1,-1,34,36,38,-1,40,-1,42,-1,-1,44,-1,-1,-1,46,48,-1,-1,50,-1,-1,-1,-1,-1,-1,-1,-1,-1,-1,-1,-1],"split_conditions":[2.896E4,6.24E3,2.92E4,1.07E2,5.59E2,9.2E1,-1.5629087E-1,1.15E3,8.19E2,3.56E3,4.256121E7,1.321E3,1.998E3,2.42E2,1.324E3,-1.562425E-1,9.4E1,1.04937E5,-1.5560782E-1,5.578178E-1,-8.789508E-2,5.59E2,3.117E3,4.84E2,-1.5103543E-1,2.37E2,-1.5626019E-1,1.444E3,-1.5608722E-1,-1.5621655E-1,3.88E2,7.034304E-2,-9.553064E-2,-1.5436885E-1,6.088219E6,1.565E3,-1.5586433E-1,-1.497037E-1,6.088219E6,-1.5628971E-1,4.0240973E-2,-1.5264943E-1,5.7115585E-1,1.8068554E-1,-1.4651518E-1,5.939592E-1,-1.4076474E-1,3.594694E-2,-1.0925586E-1,5.5306536E-1,-1.3900138E-1],"split_indices":[66,34,66,1,24,19,0,66,29,35,1,24,24,65,66,0,8,16,0,0,0,24,24,24,0,65,0,65,0,0,4,0,0,0,1,69,0,0,1,0,0,0,0,0,0,0,0,0,0,0,0],"split_type":[0,0,0,0,0,0,0,0,0,0,0,0,0,0,0,0,0,0,0,0,0,0,0,0,0,0,0,0,0,0,0,0,0,0,0,0,0,0,0,0,0,0,0,0,0,0,0,0,0,0,0],"sum_hessian":[1.1455897E5,1.0998544E5,4.57353E3,1.0979865E5,1.8678615E2,8.169998E2,3.75653E3,8.567743E3,1.0123091E5,1.6530638E2,2.147977E1,4.1591666E2,4.010832E2,7.9590083E3,6.087346E2,9.479608E4,6.4348315E3,2.5899444E0,1.6271643E2,2.020062E1,1.279151E0,1.0130367E2,3.1461298E2,3.728307E2,2.825249E1,2.8427686E3,5.1162397E3,5.4258106E1,5.544765E2,5.264469E3,1.1703622E3,1.0129648E0,1.5769794E0,6.558719E1,3.5716484E1,3.6426916E0,3.1097028E2,1.0195218E1,3.6263547E2,2.7730955E3,6.967305E1,4.0978607E1,1.3279499E1,2.0716204E1,1.149646E3,2.8349133E1,7.367352E0,1.3647609E0,2.2779307E0,3.5783682E2,4.798665E0],"tree_param":{"num_deleted":"0","num_feature":"77","num_nodes":"51","size_leaf_vector":"1"}},{"base_weights":[-5.207772E-1],"categories":[],"categories_nodes":[],"categories_segments":[],"categories_sizes":[],"default_left":[0],"id":28,"left_children":[-1],"loss_changes":[0E0],"parents":[2147483647],"right_children":[-1],"split_conditions":[-1.5623318E-1],"split_indices":[0],"split_type":[0],"sum_hessian":[1.1421517E5],"tree_param":{"num_deleted":"0","num_feature":"77","num_nodes":"1","size_leaf_vector":"1"}},{"base_weights":[-5.163831E-1,-5.205682E-1,-4.114474E-1,-1.5620208E-1,-4.5064136E-1,2.3909841E-1,-1.5629087E-1,-1.5558618E-1,1.7596637E0,-4.5307416E-1,1.4193634E0,7.2330856E-1,-8.5569836E-2,-1.9718498E-1,-1.5587735E-1,1.6715552E0,-1.50791E-1,-4.996751E-1,9.144051E-1,-2.9915822E-1,1.8179413E0,-1.5424092E-1,-3.7308283E-2,5.016569E-1,-1.3771352E-1,-1.4418437E-1,4.5530338E-2,3.8026083E-1,6.2237847E-1],"categories":[],"categories_nodes":[],"categories_segments":[],"categories_sizes":[],"default_left":[0,0,0,0,0,0,0,0,0,0,0,0,0,0,0,0,0,0,0,0,0,0,0,0,0,0,0,0,0],"id":29,"left_children":[1,3,5,-1,7,9,-1,-1,11,13,15,-1,-1,17,-1,19,-1,21,23,25,27,-1,-1,-1,-1,-1,-1,-1,-1],"loss_changes":[4.9996094E1,5.78125E-1,3.1289142E2,0E0,2.6892582E1,5.179576E2,0E0,0E0,7.86277E0,6.704315E0,1.1441986E2,0E0,0E0,2.8741072E1,0E0,6.036847E1,0E0,2.9846E-1,1.9863026E1,1.3164582E0,2.465924E1,0E0,0E0,0E0,0E0,0E0,0E0,0E0,0E0],"parents":[2147483647,0,0,1,1,2,2,4,4,5,5,8,8,9,9,10,10,13,13,15,15,17,17,18,18,19,19,20,20],"right_children":[2,4,6,-1,8,10,-1,-1,12,14,16,-1,-1,18,-1,20,-1,22,24,26,28,-1,-1,-1,-1,-1,-1,-1,-1],"split_conditions":[2.896E4,6.24E3,2.92E4,-1.5620208E-1,5.596517E5,9.2E1,-1.5629087E-1,-1.5558618E-1,7.040006E7,9.75E2,7.356E3,7.2330856E-1,-8.5569836E-2,5.59E2,-1.5587735E-1,6.61E2,-1.50791E-1,4.25E2,5.997589E6,5.59E2,1.7893669E-1,-1.5424092E-1,-3.7308283E-2,5.016569E-1,-1.3771352E-1,-1.4418437E-1,4.5530338E-2,3.8026083E-1,6.2237847E-1],"split_indices":[66,34,66,0,26,19,0,0,1,24,24,0,0,24,0,24,0,24,1,24,37,0,0,0,0,0,0,0,0],"split_type":[0,0,0,0,0,0,0,0,0,0,0,0,0,0,0,0,0,0,0,0,0,0,0,0,0,0,0,0,0],"sum_hessian":[1.1433211E5,1.0994335E5,4.388759E3,1.09771445E5,1.71906E2,6.322289E2,3.75653E3,1.6751921E2,4.3867936E0,3.9890503E2,2.333238E2,3.1912365E0,1.1955571E0,8.311772E1,3.1578732E2,2.06375E2,2.694881E1,6.577049E1,1.734723E1,1.419757E1,1.9217743E2,6.297414E1,2.7963488E0,1.1039056E1,6.3081746E0,1.0076759E1,4.1208096E0,6.3003105E1,1.2917433E2],"tree_param":{"num_deleted":"0","num_feature":"77","num_nodes":"29","size_leaf_vector":"1"}},{"base_weights":[8.432632E-1,8.6846423E-1,-4.6082455E-1,8.033469E-1,8.804645E-1,6.114904E-1,-5.008442E-1,8.364611E-1,-1.398264E-2,8.82088E-1,6.0010016E-1,9.0106255E-1,-3.1073123E-1,-5.149359E-1,8.939654E-1,8.4382355E-1,-1.1055147E-1,8.844264E-1,-4.1825882E-1,-2.4627002E-1,8.822392E-1,-5.5378234E-1,7.92675E-1,2.7407444E-1,-1.930791E-2,7.825671E-1,-4.9634087E-1,-5.155205E-1,2.3633198E-1,-1.1287726E-1,2.7605456E-1,8.920897E-1,7.7193356E-1,9.32863E-1,-5.279099E-1,9.2924863E-1,5.347088E-1,-4.6387663E-1,1.4350404E0,8.8270116E-1,5.860103E-1,-5.660472E-1,2.7570558E-1,9.336861E-1,-6.196865E-1,1.7888702E-1,-1.690756E-1,2.7356312E-1,-8.954079E-2,-1.5341206E-1,6.976721E-2,2.1152867E-1,-1.5478837E-1,2.6847747E-1,1.9560194E-1,1.6611099E-1,2.6327077E-1,2.677961E-1,3.577366E-1,-1.6424005E-1,2.5431168E-1,4.6964642E-1,2.702425E-1,2.227373E-1,-1.1675703E-1,3.6542672E-1,-1.5078725E-1,5.248088E-1,2.2776583E-1,2.6466036E-1,3.3203346E-1,-1.579603E-1,2.6706734E-1,-1.7167728E-1,2.211545E-1,2.5752872E-1,2.931422E-1,2.1211554E-1,-1.9311605E-1],"categories":[],"categories_nodes":[],"categories_segments":[],"categories_sizes":[],"default_left":[0,0,0,0,0,0,0,0,0,0,0,0,0,0,0,0,0,0,0,0,0,0,0,0,0,0,0,0,0,0,0,0,0,0,0,0,0,0,0,0,0,0,0,0,0,0,0,0,0,0,0,0,0,0,0,0,0,0,0,0,0,0,0,0,0,0,0,0,0,0,0,0,0,0,0,0,0,0,0],"id":30,"left_children":[1,3,5,7,9,11,13,15,17,19,21,23,25,27,29,31,33,35,37,-1,39,41,43,-1,45,47,49,51,-1,-1,-1,53,55,57,59,61,63,65,67,69,71,73,-1,75,77,-1,-1,-1,-1,-1,-1,-1,-1,-1,-1,-1,-1,-1,-1,-1,-1,-1,-1,-1,-1,-1,-1,-1,-1,-1,-1,-1,-1,-1,-1,-1,-1,-1,-1],"loss_changes":[2.0345125E4,4.73875E2,5.0397485E2,2.5581055E3,2.3284375E2,1.1316658E2,2.2286133E2,6.334375E2,1.337404E3,1.3203125E2,6.571687E2,3.727295E0,2.10376E1,8.937988E0,4.1271286E0,3.120625E2,3.0603568E2,1.7415833E1,2.1536029E2,0E0,6.921875E1,8.166367E0,5.0508203E2,0E0,2.1118019E0,2.3908339E0,1.0787868E0,6.387451E0,0E0,0E0,0E0,3.6121094E1,8.343594E2,1.0317383E0,1.39640045E1,1.6893982E1,2.5659195E1,1.6218726E2,1.1682869E1,5.603125E1,2.7012482E2,3.824463E0,0E0,6.694824E0,7.806732E0,0E0,0E0,0E0,0E0,0E0,0E0,0E0,0E0,0E0,0E0,0E0,0E0,0E0,0E0,0E0,0E0,0E0,0E0,0E0,0E0,0E0,0E0,0E0,0E0,0E0,0E0,0E0,0E0,0E0,0E0,0E0,0E0,0E0,0E0],"parents":[2147483647,0,0,1,1,2,2,3,3,4,4,5,5,6,6,7,7,8,8,9,9,10,10,11,11,12,12,13,13,14,14,15,15,16,16,17,17,18,18,20,20,21,21,22,22,24,24,25,25,26,26,27,27,31,31,32,32,33,33,34,34,35,35,36,36,37,37,38,38,39,39,40,40,41,41,43,43,44,44],"right_children":[2,4,6,8,10,12,14,16,18,20,22,24,26,28,30,32,34,36,38,-1,40,42,44,-1,46,48,50,52,-1,-1,-1,54,56,58,60,62,64,66,68,70,72,74,-1,76,78,-1,-1,-1,-1,-1,-1,-1,-1,-1,-1,-1,-1,-1,-1,-1,-1,-1,-1,-1,-1,-1,-1,-1,-1,-1,-1,-1,-1,-1,-1,-1,-1,-1,-1],"split_conditions":[1.7293801E3,8E0,6.2004083E2,3E0,1.2210995E3,1.328898E6,1.3508E4,1.54E7,7E0,6E0,2.99E2,9.776E3,5.8E1,2.43E2,3.51E2,1.47E2,6.4E1,2.772092E2,2.57E2,-2.4627002E-1,4.1375612E6,2E0,2E0,2.7407444E-1,1.568966E6,1.35968E3,2.43E2,1.23E2,2.3633198E-1,-1.1287726E-1,2.7605456E-1,3.8E1,3.117E3,2.52E2,3.0016E4,1E0,2E0,2.56E2,1E0,2.999631E6,6E0,1.5E1,2.7570558E-1,1.3025323E3,8E0,1.7888702E-1,-1.690756E-1,2.7356312E-1,-8.954079E-2,-1.5341206E-1,6.976721E-2,2.1152867E-1,-1.5478837E-1,2.6847747E-1,1.9560194E-1,1.6611099E-1,2.6327077E-1,2.677961E-1,3.577366E-1,-1.6424005E-1,2.5431168E-1,4.6964642E-1,2.702425E-1,2.227373E-1,-1.1675703E-1,3.6542672E-1,-1.5078725E-1,5.248088E-1,2.2776583E-1,2.6466036E-1,3.3203346E-1,-1.579603E-1,2.6706734E-1,-1.7167728E-1,2.211545E-1,2.5752872E-1,2.931422E-1,2.1211554E-1,-1.9311605E-1],"split_indices":[13,52,40,67,13,26,5,76,52,40,65,5,29,66,65,21,34,14,65,0,70,11,51,0,1,12,66,66,0,0,0,68,24,65,65,3,19,65,3,19,3,2,0,13,8,0,0,0,0,0,0,0,0,0,0,0,0,0,0,0,0,0,0,0,0,0,0,0,0,0,0,0,0,0,0,0,0,0,0],"split_type":[0,0,0,0,0,0,0,0,0,0,0,0,0,0,0,0,0,0,0,0,0,0,0,0,0,0,0,0,0,0,0,0,0,0,0,0,0,0,0,0,0,0,0,0,0,0,0,0,0,0,0,0,0,0,0,0,0,0,0,0,0,0,0,0,0,0,0,0,0,0,0,0,0,0,0,0,0,0,0],"sum_hessian":[6.190508E5,6.07315E5,1.1735797E4,9.451498E4,5.1280003E5,4.2171753E2,1.131408E4,9.083477E4,3.6802068E3,5.0984556E5,2.954463E3,3.209607E2,1.0075683E2,1.1201542E4,1.1253795E2,9.013414E4,7.0062744E2,1.1417491E3,2.5384578E3,4.4793427E1,5.0980078E5,4.222889E2,2.532174E3,3.1666086E2,4.299835E0,1.4156204E1,8.6600624E1,1.1197121E4,4.4208827E0,2.0057254E0,1.1053222E2,5.3920832E4,3.6213312E4,1.9982385E2,5.0080362E2,1.01057043E3,1.3117873E2,2.4782078E3,6.024986E1,5.0900506E5,7.957343E2,4.194119E2,2.8770108E0,2.3026182E3,2.2955598E2,1.9728761E0,2.3269594E0,1.2783558E1,1.3726467E0,8.514308E1,1.457545E0,3.4641743E0,1.1193657E4,5.3288812E4,6.3201776E2,1.1813763E4,2.4399549E4,1.7686687E2,2.2956997E1,4.9437714E2,6.426461E0,4.0927773E1,9.696427E2,1.07257164E2,2.3921566E1,5.511965E1,2.4230881E3,4.0039234E1,2.0210627E1,5.0787678E5,1.1282821E3,1.7070746E2,6.2502686E2,4.1798096E2,1.4309497E0,8.504738E2,1.4521442E3,3.5787306E0,2.2597725E2],"tree_param":{"num_deleted":"0","num_feature":"77","num_nodes":"79","size_leaf_vector":"1"}},{"base_weights":[-5.043907E-1,-5.1306915E-1,-3.900987E-1,-5.1442593E-1,-4.7969633E-1,1.3929653E-1,-5.156419E-1,-5.147883E-1,-4.223924E-1,-1.5489192E-1,-4.1369763E-1,-5.1174015E-1,5.668751E-1,-2.989418E-1,-1.5475057E-1,-1.5483803E-1,-5.085248E-1,-5.0792426E-1,5.867618E-1,-1.5459594E-1,-3.5062504E-1,-1.546259E-1,-2.72767E-1,8.982441E-1,-4.1204134E-1,-1.2884963E-1,6.997818E-2,-3.6912903E-1,-5.1211405E-1,-1.5431222E-1,-1.2029775E-1,1.2773612E0,-1.4305945E-1,1.1119457E0,-4.396352E-1,1.8342705E-1,-1.3660471E-1,1.0434936E0,-1.5232655E-1,1.3821156E0,-4.9151057E-1,2.5307981E-2,-1.5469384E-1,-1.5478137E-1,-1.4023183E-1,2.100944E-1,-1.2688085E-1,-8.3190575E-2,4.2418087E-1,-1.2029486E-1,3.7701258E-1,3.3482317E-2,-1.35757E-1,-1.502954E-1,3.3966786E-1,-1.0587552E-1,6.163221E-1,-3.4745798E-2,-1.5398102E-1],"categories":[],"categories_nodes":[],"categories_segments":[],"categories_sizes":[],"default_left":[0,0,0,0,0,0,0,0,0,0,0,0,0,0,0,0,0,0,0,0,0,0,0,0,0,0,0,0,0,0,0,0,0,0,0,0,0,0,0,0,0,0,0,0,0,0,0,0,0,0,0,0,0,0,0,0,0,0,0],"id":31,"left_children":[1,3,5,7,9,11,13,15,17,-1,19,21,23,25,-1,-1,27,29,31,-1,33,-1,35,37,39,-1,-1,41,43,-1,45,47,-1,49,51,-1,-1,53,-1,55,57,-1,-1,-1,-1,-1,-1,-1,-1,-1,-1,-1,-1,-1,-1,-1,-1,-1,-1],"loss_changes":[8.95332E1,3.5585938E0,4.2468378E2,2.4785156E0,7.758911E0,3.4141397E2,6.201172E-2,4.1210938E-1,2.8130363E1,0E0,7.397339E0,2.8701782E-1,2.4045544E2,5.852636E-1,0E0,0E0,6.932617E0,6.826401E-1,1.9456179E1,0E0,9.586697E1,0E0,1.8117884E0,1.1351846E2,2.7464922E1,0E0,0E0,2.4021847E1,2.1289062E0,0E0,1.8307855E0,3.7530403E0,0E0,9.771175E0,4.962036E0,0E0,0E0,6.9335144E1,0E0,1.0325477E1,1.4171982E0,0E0,0E0,0E0,0E0,0E0,0E0,0E0,0E0,0E0,0E0,0E0,0E0,0E0,0E0,0E0,0E0,0E0,0E0],"parents":[2147483647,0,0,1,1,2,2,3,3,4,4,5,5,6,6,7,7,8,8,10,10,11,11,12,12,13,13,16,16,17,17,18,18,20,20,22,22,23,23,24,24,27,27,28,28,30,30,31,31,33,33,34,34,37,37,39,39,40,40],"right_children":[2,4,6,8,10,12,14,16,18,-1,20,22,24,26,-1,-1,28,30,32,-1,34,-1,36,38,40,-1,-1,42,44,-1,46,48,-1,50,52,-1,-1,54,-1,56,58,-1,-1,-1,-1,-1,-1,-1,-1,-1,-1,-1,-1,-1,-1,-1,-1,-1,-1],"split_conditions":[5.26E2,1.8867924E4,6.23641E5,1.8467E4,9E0,5.5222E4,7.15698E5,2.37E2,1.8247865E3,-1.5489192E-1,2.37E2,3.0176654E4,4.34E1,2.01961E5,-1.5475057E-1,-1.5483803E-1,2.43E2,1.6675159E3,2.80712E5,-1.5459594E-1,2.45E2,-1.546259E-1,4.4E1,8.36E2,8.725E4,-1.2884963E-1,6.997818E-2,2.2E2,9.1603055E4,-1.5431222E-1,3.24E2,5.0275E4,-1.4305945E-1,2.56E2,2.52E2,1.8342705E-1,-1.3660471E-1,3E0,-1.5232655E-1,6.682159E3,1.23935E5,2.5307981E-2,-1.5469384E-1,-1.5478137E-1,-1.4023183E-1,2.100944E-1,-1.2688085E-1,-8.3190575E-2,4.2418087E-1,-1.2029486E-1,3.7701258E-1,3.3482317E-2,-1.35757E-1,-1.502954E-1,3.3966786E-1,-1.0587552E-1,6.163221E-1,-3.4745798E-2,-1.5398102E-1],"split_indices":[29,37,18,4,52,23,1,66,41,0,65,22,40,21,0,0,66,41,1,0,65,0,24,19,1,0,0,4,14,0,5,1,0,66,65,0,0,3,0,27,1,0,0,0,0,0,0,0,0,0,0,0,0,0,0,0,0,0,0],"split_type":[0,0,0,0,0,0,0,0,0,0,0,0,0,0,0,0,0,0,0,0,0,0,0,0,0,0,0,0,0,0,0,0,0,0,0,0,0,0,0,0,0,0,0,0,0,0,0,0,0,0,0,0,0,0,0,0,0,0,0],"sum_hessian":[9.0467E4,8.40792E4,6.387794E3,8.078064E4,3.2985662E3,1.2244364E3,5.1633574E3,8.045919E4,3.214514E2,2.1172734E3,1.1812927E3,4.8530615E2,7.3913025E2,5.9812818E0,5.1573765E3,6.622635E4,1.4232835E4,2.967931E2,2.4658312E1,4.4964984E2,7.316428E2,4.7680786E2,8.498286E0,5.52267E2,1.8686325E2,4.9579926E0,1.023289E0,3.5988116E2,1.3872953E4,2.916139E2,5.1792006E0,1.4829048E1,9.829264E0,4.1313164E1,6.903297E2,1.0525136E0,7.4457726E0,5.0078976E2,5.1477264E1,7.23049E0,1.7963277E2,8.798394E1,2.7189722E2,1.2769428E4,1.1035261E3,1.0413959E0,4.1378045E0,1.1143026E0,1.37147455E1,3.4532297E0,3.7859932E1,1.5596238E1,6.7473346E2,2.6955503E1,4.7383426E2,2.1519184E0,5.078572E0,1.0180598E1,1.6945216E2],"tree_param":{"num_deleted":"0","num_feature":"77","num_nodes":"59","size_leaf_vector":"1"}},{"base_weights":[1.0808195E-2,5.250965E-1,-1.5483767E-1,-5.1021975E-1,8.726767E-1,-5.114254E-1,9.6906334E-1,-4.8668E-1,8.818877E-1,-5.126861E-1,-4.4077915E-1,1.604417E0,-1.258649E-1,-4.949424E-1,1.8553412E-1,8.846872E-1,-1.5334429E-1,-1.5495917E-1,-5.05768E-1,3.2932392E-1,-1.5554251E-1,5.2770275E-1,4.6001446E-2,-4.0290177E-1,-1.5438972E-1,8.855682E-1,-1.953246E-1,-1.5212236E-1,2.7272886E-1,-1.4751527E-1,3.5399058E-1,-1.5230632E-1,1.0357001E-2,2.6621145E-1,5.4293644E-2],"categories":[],"categories_nodes":[],"categories_segments":[],"categories_sizes":[],"default_left":[0,0,0,0,0,0,0,0,0,0,0,0,0,0,0,0,0,0,0,0,0,0,0,0,0,0,0,0,0,0,0,0,0,0,0],"id":32,"left_children":[1,3,-1,5,7,9,11,13,15,17,19,21,-1,23,-1,25,-1,-1,27,29,-1,-1,-1,31,-1,33,-1,-1,-1,-1,-1,-1,-1,-1,-1],"loss_changes":[3.6362594E4,2.44366E4,0E0,3.0936035E1,6.3697656E2,1.2924805E0,1.3240726E1,3.4362564E0,1.973789E2,1.850586E-1,1.848806E1,1.9691372E0,0E0,4.1031647E-1,0E0,6.8765625E1,0E0,0E0,1.16102295E1,2.0601793E1,0E0,0E0,0E0,2.9816275E0,0E0,6.383203E1,0E0,0E0,0E0,0E0,0E0,0E0,0E0,0E0,0E0],"parents":[2147483647,0,0,1,1,3,3,4,4,5,5,6,6,7,7,8,8,9,9,10,10,11,11,13,13,15,15,18,18,19,19,23,23,25,25],"right_children":[2,4,-1,6,8,10,12,14,16,18,20,22,-1,24,-1,26,-1,-1,28,30,-1,-1,-1,32,-1,34,-1,-1,-1,-1,-1,-1,-1,-1,-1],"split_conditions":[2.3E1,1.8E1,-1.5483767E-1,1.35968E3,2.56E2,2.999631E6,1.41E3,4.38E3,2.230248E6,6E0,2.57E2,2.97E2,-1.258649E-1,1E0,1.8553412E-1,3.6404E4,-1.5334429E-1,-1.5495917E-1,1.0526696E6,2.42E2,-1.5554251E-1,5.2770275E-1,4.6001446E-2,1E0,-1.5438972E-1,3.4059946E2,-1.953246E-1,-1.5212236E-1,2.7272886E-1,-1.4751527E-1,3.5399058E-1,-1.5230632E-1,1.0357001E-2,2.6621145E-1,5.4293644E-2],"split_indices":[6,4,0,12,65,19,10,10,25,52,65,20,0,3,0,19,0,0,22,65,0,0,0,43,0,36,0,0,0,0,0,0,0,0,0],"split_type":[0,0,0,0,0,0,0,0,0,0,0,0,0,0,0,0,0,0,0,0,0,0,0,0,0,0,0,0,0,0,0,0,0,0,0],"sum_hessian":[1.3417936E5,6.790448E4,6.627488E4,1.706714E4,5.0837332E4,1.7053895E4,1.3244771E1,3.418064E2,5.0495527E4,1.674876E4,3.051366E2,8.980413E0,4.2643576E0,3.398179E2,1.988481E0,5.0394617E4,1.00909775E2,1.0718538E4,6.0302207E3,2.766719E1,2.774694E2,7.9240136E0,1.0563998E0,6.366755E1,2.7615036E2,5.0366145E4,2.8470963E1,6.0252983E3,4.9224534E0,1.4293279E1,1.3373912E1,5.1233784E1,1.2433764E1,5.0237316E4,1.2882945E2],"tree_param":{"num_deleted":"0","num_feature":"77","num_nodes":"35","size_leaf_vector":"1"}},{"base_weights":[-4.528835E-1,-4.6753776E-1,6.042008E-1,-4.9742663E-1,1.5534705E-2,9.0411764E-1,-1.5638185E-1,-5.117929E-1,-3.989111E-1,8.8046896E-1,-1.5481919E-1,-1.5708463E-1,9.758533E-1,-5.1439387E-1,8.196861E-2,-5.1407194E-1,1.3514881E-1,-1.3661936E-1,8.8539314E-1,9.822098E-1,-1.3105647E-1,-5.152806E-1,-2.4341127E-1,-1.5417975E-1,9.16018E-1,-5.1460767E-1,-4.1951662E-1,-5.172337E-1,8.5783184E-1,-9.8419584E-2,8.8654286E-1,3.1363794E-1,9.618228E-1,-1.5244406E-1,-1.5481558E-1,-1.5450147E-1,1.8777771E-1,5.420162E-2,2.768104E-1,-1.5467606E-1,-1.4184679E-1,2.4930298E-1,-1.4127423E-1,-1.5560901E-1,-5.3834725E-2,2.854259E-1,-1.4960507E-1,2.6560107E-1,4.4290236E-1,-9.5010094E-2,2.8939548E-1],"categories":[],"categories_nodes":[],"categories_segments":[],"categories_sizes":[],"default_left":[0,0,0,0,0,0,0,0,0,0,0,0,0,0,0,0,0,0,0,0,0,0,0,0,0,0,0,0,0,0,0,0,0,0,0,0,0,0,0,0,0,0,0,0,0,0,0,0,0,0,0],"id":33,"left_children":[1,3,5,7,9,11,-1,13,15,17,-1,-1,19,21,23,25,27,-1,29,31,-1,33,35,-1,37,39,41,43,45,-1,47,-1,49,-1,-1,-1,-1,-1,-1,-1,-1,-1,-1,-1,-1,-1,-1,-1,-1,-1,-1],"loss_changes":[1.450918E3,1.333623E3,4.3283026E2,1.229043E2,2.4754753E3,1.0413226E2,0E0,1.1727539E2,6.811998E2,1.3883911E1,0E0,0E0,9.082764E0,1.803125E1,1.6544357E2,2.4560547E-1,9.270029E2,0E0,3.1401367E0,2.319336E-1,0E0,1.5234375E-1,5.8972267E1,0E0,5.148697E-1,1.2670898E-1,4.038349E0,4.1763306E-1,1.1889331E2,0E0,1.4428711E-1,0E0,2.9754639E0,0E0,0E0,0E0,0E0,0E0,0E0,0E0,0E0,0E0,0E0,0E0,0E0,0E0,0E0,0E0,0E0,0E0,0E0],"parents":[2147483647,0,0,1,1,2,2,3,3,4,4,5,5,7,7,8,8,9,9,12,12,13,13,14,14,15,15,16,16,18,18,19,19,21,21,22,22,24,24,25,25,26,26,27,27,28,28,30,30,32,32],"right_children":[2,4,6,8,10,12,-1,14,16,18,-1,-1,20,22,24,26,28,-1,30,32,-1,34,36,-1,38,40,42,44,46,-1,48,-1,50,-1,-1,-1,-1,-1,-1,-1,-1,-1,-1,-1,-1,-1,-1,-1,-1,-1,-1],"split_conditions":[2.999631E6,1.1632E4,4.21E2,2.92E4,1E1,2.84E2,-1.5638185E-1,3.4E7,9.860743E2,6.510345E5,-1.5481919E-1,-1.5708463E-1,1E0,9.98528E5,1.72E2,4.5403605E6,1.217382E6,-1.3661936E-1,1.314E4,2.03E7,-1.3105647E-1,6E0,6.4E1,-1.5417975E-1,9.67E7,8.8276654E2,1.644886E-1,1.1029262E6,6E0,-9.8419584E-2,9E0,3.1363794E-1,5.023474E6,-1.5244406E-1,-1.5481558E-1,-1.5450147E-1,1.8777771E-1,5.420162E-2,2.768104E-1,-1.5467606E-1,-1.4184679E-1,2.4930298E-1,-1.4127423E-1,-1.5560901E-1,-5.3834725E-2,2.854259E-1,-1.4960507E-1,2.6560107E-1,4.4290236E-1,-9.5010094E-2,2.8939548E-1],"split_indices":[19,5,65,65,3,65,0,16,13,26,0,0,48,19,6,70,26,0,65,16,0,39,34,0,21,13,15,26,3,0,3,0,73,0,0,0,0,0,0,0,0,0,0,0,0,0,0,0,0,0,0],"split_type":[0,0,0,0,0,0,0,0,0,0,0,0,0,0,0,0,0,0,0,0,0,0,0,0,0,0,0,0,0,0,0,0,0,0,0,0,0,0,0,0,0,0,0,0,0,0,0,0,0,0,0],"sum_hessian":[9.364419E4,9.236431E4,1.2798796E3,8.698247E4,5.381845E3,1.01073505E3,2.6914456E2,7.590868E4,1.1073789E4,2.0483818E3,3.3334634E3,4.805295E1,9.626821E2,7.557774E4,3.3092993E2,9.109516E3,1.9642736E3,7.186828E0,2.0411951E3,9.586733E2,4.0088215E0,7.533034E4,2.474046E2,1.9324588E2,1.3768407E2,9.053774E3,5.57418E1,1.0324982E3,9.3177545E2,1.6630297E0,2.039532E3,2.214264E2,7.372469E2,7.4149136E3,6.791543E4,1.8882156E2,5.858304E1,1.4925847E0,1.3619148E2,8.835394E3,2.1838092E2,1.6017622E0,5.4140034E1,1.0275125E3,4.985659E0,8.719192E2,5.9856243E1,2.0378662E3,1.6657174E0,1.382626E0,7.3586426E2],"tree_param":{"num_deleted":"0","num_feature":"77","num_nodes":"51","size_leaf_vector":"1"}},{"base_weights":[1.24254845E-1,-3.8721672E-1,7.8712046E-1,8.521172E-2,-5.1425904E-1,8.7741697E-1,-5.1240134E-1,4.9352947E-1,-4.9041462E-1,-5.159125E-1,-2.2230414E-1,-5.138396E-1,8.8382065E-1,-1.5480933E-1,2.4730061E-1,-4.7831398E-1,7.746198E-1,-5.0281036E-1,1.0537267E0,-1.5477821E-1,-1.2779793E-1,-4.9821055E-1,7.007125E-1,-1.5497008E-1,3.130952E-2,-1.1727474E-1,8.838914E-1,-4.9268818E-1,1.1991571E0,9.0755355E-1,-4.3102157E-1,-2.3225684E-1,-5.118707E-1,-4.3206808E-1,1.4414757E0,7.143784E-2,-1.0174121E-1,-1.5143014E-1,-8.877486E-2,1.4179877E0,-2.156233E-2,1.0559632E0,2.6500845E-1,-1.5169999E-1,4.208262E-1,-8.769464E-2,3.9513022E-1,1.8603843E-1,3.7234306E-1,-1.5705107E-1,2.1620722E-1,1.383206E-1,-1.4586563E-1,-1.5646584E-1,-1.4474945E-1,-1.4741354E-1,4.1953716E-2,5.672588E-1,3.8227895E-1,-1.2644187E-1,1.21557795E-1,5.3652084E-1,-1.6210382E-1,-8.544596E-2,2.5740972E-1,4.8545253E-1,2.8794315E-1],"categories":[],"categories_nodes":[],"categories_segments":[],"categories_sizes":[],"default_left":[0,0,0,0,0,0,0,0,0,0,0,0,0,0,0,0,0,0,0,0,0,0,0,0,0,0,0,0,0,0,0,0,0,0,0,0,0,0,0,0,0,0,0,0,0,0,0,0,0,0,0,0,0,0,0,0,0,0,0,0,0,0,0,0,0,0,0],"id":34,"left_children":[1,3,5,7,9,11,13,15,17,19,21,23,25,-1,-1,27,29,31,33,-1,35,37,39,-1,-1,-1,41,43,45,47,49,51,53,55,57,-1,-1,-1,59,61,63,65,-1,-1,-1,-1,-1,-1,-1,-1,-1,-1,-1,-1,-1,-1,-1,-1,-1,-1,-1,-1,-1,-1,-1,-1,-1],"loss_changes":[5.0751523E4,5.0713516E3,7.650867E3,4.209212E3,3.203125E1,5.435781E2,2.0981201E1,2.862373E3,1.4278015E2,3.1640625E-1,9.629623E1,5.259094E-1,5.8125E0,0E0,0E0,5.7279724E1,1.3028662E3,1.7955322E1,3.4905952E1,0E0,3.798031E-1,7.3540497E-1,4.516375E1,0E0,0E0,0E0,4.5976562E0,5.8070557E1,3.9499989E0,7.010884E2,8.641217E1,4.2614388E1,1.7770996E0,5.125673E-1,1.1540146E0,0E0,0E0,0E0,1.1230152E0,3.2684464E1,1.0523958E1,8.240829E0,0E0,0E0,0E0,0E0,0E0,0E0,0E0,0E0,0E0,0E0,0E0,0E0,0E0,0E0,0E0,0E0,0E0,0E0,0E0,0E0,0E0,0E0,0E0,0E0,0E0],"parents":[2147483647,0,0,1,1,2,2,3,3,4,4,5,5,6,6,7,7,8,8,9,9,10,10,11,11,12,12,15,15,16,16,17,17,18,18,20,20,21,21,22,22,26,26,27,27,28,28,29,29,30,30,31,31,32,32,33,33,34,34,38,38,39,39,40,40,41,41],"right_children":[2,4,6,8,10,12,14,16,18,20,22,24,26,-1,-1,28,30,32,34,-1,36,38,40,-1,-1,-1,42,44,46,48,50,52,54,56,58,-1,-1,-1,60,62,64,66,-1,-1,-1,-1,-1,-1,-1,-1,-1,-1,-1,-1,-1,-1,-1,-1,-1,-1,-1,-1,-1,-1,-1,-1,-1],"split_conditions":[1.3025323E3,6E0,1.1601E4,2.84E2,1E0,1.1595E4,2.2E7,5E0,1.53E7,2.319E3,4.09E2,6.6805175E6,2.4E1,-1.5480933E-1,2.4730061E-1,5.0066624E0,1.4711E4,2.99E2,1.2147761E-1,-1.5477821E-1,8.72E2,1.92E2,2.3187E4,-1.5497008E-1,3.130952E-2,-1.1727474E-1,1.4371538E3,8.4E1,1.78E2,2.51E2,1E0,1E0,3.14E2,1.1658466E8,1.06E7,7.143784E-2,-1.0174121E-1,-1.5143014E-1,2.014E3,1E0,1.0177708E3,6.9E7,2.6500845E-1,-1.5169999E-1,4.208262E-1,-8.769464E-2,3.9513022E-1,1.8603843E-1,3.7234306E-1,-1.5705107E-1,2.1620722E-1,1.383206E-1,-1.4586563E-1,-1.5646584E-1,-1.4474945E-1,-1.4741354E-1,4.1953716E-2,5.672588E-1,3.8227895E-1,-1.2644187E-1,1.21557795E-1,5.3652084E-1,-1.6210382E-1,-8.544596E-2,2.5740972E-1,4.8545253E-1,2.8794315E-1],"split_indices":[13,40,5,65,43,5,27,20,17,12,21,16,4,0,0,13,24,65,15,0,4,21,1,0,0,0,13,34,1,65,43,3,19,1,21,0,0,0,1,47,13,73,0,0,0,0,0,0,0,0,0,0,0,0,0,0,0,0,0,0,0,0,0,0,0,0,0],"split_type":[0,0,0,0,0,0,0,0,0,0,0,0,0,0,0,0,0,0,0,0,0,0,0,0,0,0,0,0,0,0,0,0,0,0,0,0,0,0,0,0,0,0,0,0,0,0,0,0,0,0,0,0,0,0,0,0,0,0,0,0,0,0,0,0,0,0,0],"sum_hessian":[1.4969133E5,8.449491E4,6.519642E4,1.7906578E4,6.658833E4,6.0960914E4,4.235507E3,1.0475778E4,7.4307993E3,6.621257E4,3.757564E2,2.7894485E2,6.068197E4,4.224649E3,1.0857619E1,2.3500388E3,8.1257393E3,7.372292E3,5.8507393E1,6.62097E4,2.8669271E0,2.8963846E2,8.611794E1,2.7788333E2,1.0615276E0,3.0589886E0,6.067891E4,2.330773E3,1.9266033E1,7.318996E3,8.067432E2,2.3974637E2,7.1325454E3,1.208505E1,4.6422344E1,1.0031954E0,1.8637319E0,2.848442E2,4.7942433E0,4.2725235E1,4.3392708E1,1.8017458E2,6.0498734E4,2.3156504E3,1.5122428E1,1.3035363E0,1.7962498E1,3.9330703E3,3.3859255E3,7.472822E2,5.946098E1,6.405589E1,1.7569046E2,5.3516943E3,1.7808514E3,1.1077114E1,1.0079353E0,9.793636E0,3.6628708E1,2.952458E0,1.8417854E0,3.6002254E1,6.722983E0,3.3917572E1,9.475138E0,2.4002268E1,1.561723E2],"tree_param":{"num_deleted":"0","num_feature":"77","num_nodes":"67","size_leaf_vector":"1"}},{"base_weights":[-4.8033363E-1,-4.9886277E-1,7.1530724E-1,-5.047781E-1,6.539563E-1,8.216999E-1,-1.5372632E-1,-5.0620276E-1,8.203996E-1,-1.5305369E-1,8.9579517E-1,8.326651E-1,-1.4475149E-1,-5.076194E-1,-4.4345513E-2,2.9570344E-1,-1.4225882E-1,2.7151075E-1,-1.1132469E-1,8.450846E-1,6.34546E-1,-5.09178E-1,-1.8155321E-1,-4.4600344E-1,6.6870445E-1,-8.508394E-2,8.4637797E-1,7.166292E-1,3.6977053E-2,-1.5345193E-1,-1.129813E-1,-1.23447314E-1,2.5440612E-1,1.1633919E-2,-1.5385827E-1,4.606153E-1,-1.5321337E-1,2.517587E-1,3.232837E-1,2.5445706E-1,1.5204573E-1,-1.3800168E-1,2.4671707E-1],"categories":[],"categories_nodes":[],"categories_segments":[],"categories_sizes":[],"default_left":[0,0,0,0,0,0,0,0,0,0,0,0,0,0,0,0,0,0,0,0,0,0,0,0,0,0,0,0,0,0,0,0,0,0,0,0,0,0,0,0,0,0,0],"id":35,"left_children":[1,3,5,7,9,11,-1,13,15,-1,17,19,-1,21,23,-1,-1,-1,-1,25,27,29,31,33,35,-1,37,39,41,-1,-1,-1,-1,-1,-1,-1,-1,-1,-1,-1,-1,-1,-1],"loss_changes":[2.0348965E3,6.170293E2,1.835373E2,1.7027734E2,1.3055426E2,1.8856567E1,0E0,5.878125E1,2.1223465E1,0E0,