{"learner":{"attributes":{},"feature_names":["Protocol","Flow Duration","Total Fwd Packets","Total Backward Packets","Fwd Packets Length Total","Bwd Packets Length Total","Fwd Packet Length Max","Fwd Packet Length Min","Fwd Packet Length Mean","Fwd Packet Length Std","Bwd Packet Length Max","Bwd Packet Length Min","Bwd Packet Length Mean","Bwd Packet Length Std","Flow Bytes/s","Flow Packets/s","Flow IAT Mean","Flow IAT Std","Flow IAT Max","Flow IAT Min","Fwd IAT Total","Fwd IAT Mean","Fwd IAT Std","Fwd IAT Max","Fwd IAT Min","Bwd IAT Total","Bwd IAT Mean","Bwd IAT Std","Bwd IAT Max","Bwd IAT Min","Fwd PSH Flags","Bwd PSH Flags","Fwd URG Flags","Bwd URG Flags","Fwd Header Length","Bwd Header Length","Fwd Packets/s","Bwd Packets/s","Packet Length Min","Packet Length Max","Packet Length Mean","Packet Length Std","Packet Length Variance","FIN Flag Count","SYN Flag Count","RST Flag Count","PSH Flag Count","ACK Flag Count","URG Flag Count","CWE Flag Count","ECE Flag Count","Down/Up Ratio","Avg Packet Size","Avg Fwd Segment Size","Avg Bwd Segment Size","Fwd Avg Bytes/Bulk","Fwd Avg Packets/Bulk","Fwd Avg Bulk Rate","Bwd Avg Bytes/Bulk","Bwd Avg Packets/Bulk","Bwd Avg Bulk Rate","Subflow Fwd Packets","Subflow Fwd Bytes","Subflow Bwd Packets","Subflow Bwd Bytes","Init Fwd Win Bytes","Init Bwd Win Bytes","Fwd Act Data Packets","Fwd Seg Size Min","Active Mean","Active Std","Active Max","Active Min","Idle Mean","Idle Std","Idle Max","Idle Min"],"feature_types":["int","int","int","int","int","int","int","int","float","float","int","int","float","float","float","float","float","float","int","int","int","float","float","int","int","int","float","float","int","int","int","int","int","int","int","int","float","float","int","int","float","float","float","int","int","int","int","int","int","int","int","int","float","float","float","int","int","int","int","int","int","int","int","int","int","int","int","int","int","float","float","int","int","float","float","int","int"],"gradient_booster":{"model":{"gbtree_model_param":{"num_parallel_tree":"1","num_trees":"1500"},"iteration_indptr":[0,15,30,45,60,75,90,105,120,135,150,165,180,195,210,225,240,255,270,285,300,315,330,345,360,375,390,405,420,435,450,465,480,495,510,525,540,555,570,585,600,615,630,645,660,675,690,705,720,735,750,765,780,795,810,825,840,855,870,885,900,915,930,945,960,975,990,1005,1020,1035,1050,1065,1080,1095,1110,1125,1140,1155,1170,1185,1200,1215,1230,1245,1260,1275,1290,1305,1320,1335,1350,1365,1380,1395,1410,1425,1440,1455,1470,1485,1500],"tree_info":[0,1,2,3,4,5,6,7,8,9,10,11,12,13,14,0,1,2,3,4,5,6,7,8,9,10,11,12,13,14,0,1,2,3,4,5,6,7,8,9,10,11,12,13,14,0,1,2,3,4,5,6,7,8,9,10,11,12,13,14,0,1,2,3,4,5,6,7,8,9,10,11,12,13,14,0,1,2,3,4,5,6,7,8,9,10,11,12,13,14,0,1,2,3,4,5,6,7,8,9,10,11,12,13,14,0,1,2,3,4,5,6,7,8,9,10,11,12,13,14,0,1,2,3,4,5,6,7,8,9,10,11,12,13,14,0,1,2,3,4,5,6,7,8,9,10,11,12,13,14,0,1,2,3,4,5,6,7,8,9,10,11,12,13,14,0,1,2,3,4,5,6,7,8,9,10,11,12,13,14,0,1,2,3,4,5,6,7,8,9,10,11,12,13,14,0,1,2,3,4,5,6,7,8,9,10,11,12,13,14,0,1,2,3,4,5,6,7,8,9,10,11,12,13,14,0,1,2,3,4,5,6,7,8,9,10,11,12,13,14,0,1,2,3,4,5,6,7,8,9,10,11,12,13,14,0,1,2,3,4,5,6,7,8,9,10,11,12,13,14,0,1,2,3,4,5,6,7,8,9,10,11,12,13,14,0,1,2,3,4,5,6,7,8,9,10,11,12,13,14,0,1,2,3,4,5,6,7,8,9,10,11,12,13,14,0,1,2,3,4,5,6,7,8,9,10,11,12,13,14,0,1,2,3,4,5,6,7,8,9,10,11,12,13,14,0,1,2,3,4,5,6,7,8,9,10,11,12,13,14,0,1,2,3,4,5,6,7,8,9,10,11,12,13,14,0,1,2,3,4,5,6,7,8,9,10,11,12,13,14,0,1,2,3,4,5,6,7,8,9,10,11,12,13,14,0,1,2,3,4,5,6,7,8,9,10,11,12,13,14,0,1,2,3,4,5,6,7,8,9,10,11,12,13,14,0,1,2,3,4,5,6,7,8,9,10,11,12,13,14,0,1,2,3,4,5,6,7,8,9,10,11,12,13,14,0,1,2,3,4,5,6,7,8,9,10,11,12,13,14,0,1,2,3,4,5,6,7,8,9,10,11,12,13,14,0,1,2,3,4,5,6,7,8,9,10,11,12,13,14,0,1,2,3,4,5,6,7,8,9,10,11,12,13,14,0,1,2,3,4,5,6,7,8,9,10,11,12,13,14,0,1,2,3,4,5,6,7,8,9,10,11,12,13,14,0,1,2,3,4,5,6,7,8,9,10,11,12,13,14,0,1,2,3,4,5,6,7,8,9,10,11,12,13,14,0,1,2,3,4,5,6,7,8,9,10,11,12,13,14,0,1,2,3,4,5,6,7,8,9,10,11,12,13,14,0,1,2,3,4,5,6,7,8,9,10,11,12,13,14,0,1,2,3,4,5,6,7,8,9,10,11,12,13,14,0,1,2,3,4,5,6,7,8,9,10,11,12,13,14,0,1,2,3,4,5,6,7,8,9,10,11,12,13,14,0,1,2,3,4,5,6,7,8,9,10,11,12,13,14,0,1,2,3,4,5,6,7,8,9,10,11,12,13,14,0,1,2,3,4,5,6,7,8,9,10,11,12,13,14,0,1,2,3,4,5,6,7,8,9,10,11,12,13,14,0,1,2,3,4,5,6,7,8,9,10,11,12,13,14,0,1,2,3,4,5,6,7,8,9,10,11,12,13,14,0,1,2,3,4,5,6,7,8,9,10,11,12,13,14,0,1,2,3,4,5,6,7,8,9,10,11,12,13,14,0,1,2,3,4,5,6,7,8,9,10,11,12,13,14,0,1,2,3,4,5,6,7,8,9,10,11,12,13,14,0,1,2,3,4,5,6,7,8,9,10,11,12,13,14,0,1,2,3,4,5,6,7,8,9,10,11,12,13,14,0,1,2,3,4,5,6,7,8,9,10,11,12,13,14,0,1,2,3,4,5,6,7,8,9,10,11,12,13,14,0,1,2,3,4,5,6,7,8,9,10,11,12,13,14,0,1,2,3,4,5,6,7,8,9,10,11,12,13,14,0,1,2,3,4,5,6,7,8,9,10,11,12,13,14,0,1,2,3,4,5,6,7,8,9,10,11,12,13,14,0,1,2,3,4,5,6,7,8,9,10,11,12,13,14,0,1,2,3,4,5,6,7,8,9,10,11,12,13,14,0,1,2,3,4,5,6,7,8,9,10,11,12,13,14,0,1,2,3,4,5,6,7,8,9,10,11,12,13,14,0,1,2,3,4,5,6,7,8,9,10,11,12,13,14,0,1,2,3,4,5,6,7,8,9,10,11,12,13,14,0,1,2,3,4,5,6,7,8,9,10,11,12,13,14,0,1,2,3,4,5,6,7,8,9,10,11,12,13,14,0,1,2,3,4,5,6,7,8,9,10,11,12,13,14,0,1,2,3,4,5,6,7,8,9,10,11,12,13,14,0,1,2,3,4,5,6,7,8,9,10,11,12,13,14,0,1,2,3,4,5,6,7,8,9,10,11,12,13,14,0,1,2,3,4,5,6,7,8,9,10,11,12,13,14,0,1,2,3,4,5,6,7,8,9,10,11,12,13,14,0,1,2,3,4,5,6,7,8,9,10,11,12,13,14,0,1,2,3,4,5,6,7,8,9,10,11,12,13,14,0,1,2,3,4,5,6,7,8,9,10,11,12,13,14,0,1,2,3,4,5,6,7,8,9,10,11,12,13,14,0,1,2,3,4,5,6,7,8,9,10,11,12,13,14,0,1,2,3,4,5,6,7,8,9,10,11,12,13,14,0,1,2,3,4,5,6,7,8,9,10,11,12,13,14,0,1,2,3,4,5,6,7,8,9,10,11,12,13,14,0,1,2,3,4,5,6,7,8,9,10,11,12,13,14,0,1,2,3,4,5,6,7,8,9,10,11,12,13,14,0,1,2,3,4,5,6,7,8,9,10,11,12,13,14,0,1,2,3,4,5,6,7,8,9,10,11,12,13,14,0,1,2,3,4,5,6,7,8,9,10,11,12,13,14,0,1,2,3,4,5,6,7,8,9,10,11,12,13,14,0,1,2,3,4,5,6,7,8,9,10,11,12,13,14,0,1,2,3,4,5,6,7,8,9,10,11,12,13,14,0,1,2,3,4,5,6,7,8,9,10,11,12,13,14,0,1,2,3,4,5,6,7,8,9,10,11,12,13,14,0,1,2,3,4,5,6,7,8,9,10,11,12,13,14,0,1,2,3,4,5,6,7,8,9,10,11,12,13,14,0,1,2,3,4,5,6,7,8,9,10,11,12,13,14,0,1,2,3,4,5,6,7,8,9,10,11,12,13,14,0,1,2,3,4,5,6,7,8,9,10,11,12,13,14],"trees":[{"base_weights":[6.332245E0,7.1322985E0,-4.200523E-1,5.3862295E0,7.3834095E0,2.2389283E0,-4.8623157E-1,7.1324863E0,9.731307E-1,7.4177313E0,4.8241577E0,-5.332396E-1,7.3578706E0,7.201064E0,-4.8445213E-1,-7.980586E-2,5.690123E0,7.1662374E0,7.469134E0,6.839337E0,2.846475E-1,4.043607E0,-5.340707E-1,2.2154124E0,6.226415E-1,7.2720327E0,1.3004307E0,-1.5556459E-1,-2.0547946E-1,2.228085E0,-2.6386502E-1,2.2463622E0,-3.0191246E-1,7.3311744E0,4.6856484E0,7.4849935E0,6.987621E0,7.397511E0,4.1040072E0,-2.0490189E-1,2.2027972E0,1.5812417E0,5.6603767E-2,-5.344863E-1,9.4186044E-1,2.2125676E0,1.5832206E0,2.0761924E0,-1.401306E-1,-1.5030232E-1,2.053942E-1,-1.4288446E-1,7.1432936E-1,-1.6018085E-1,2.0240963E0,2.2220423E0,2.0031383E0,6.1158086E-3,2.218661E0,2.2460945E0,1.8923461E0,2.7877957E-2,2.2433596E0,2.2235196E0,1.0231328E0,3.3412126E-1,1.9914356E0,2.1717422E0,-1.5865278E-1,9.23669E-2,-1.605578E-1],"categories":[],"categories_nodes":[],"categories_segments":[],"categories_sizes":[],"default_left":[0,0,0,0,0,0,0,0,0,0,0,0,0,0,0,0,0,0,0,0,0,0,0,0,0,0,0,0,0,0,0,0,0,0,0,0,0,0,0,0,0,0,0,0,0,0,0,0,0,0,0,0,0,0,0,0,0,0,0,0,0,0,0,0,0,0,0,0,0,0,0],"id":0,"left_children":[1,3,5,7,9,-1,11,13,15,17,19,21,23,25,27,29,31,33,35,37,39,41,43,-1,-1,45,47,-1,49,-1,51,-1,53,55,57,59,61,63,65,67,-1,-1,-1,69,-1,-1,-1,-1,-1,-1,-1,-1,-1,-1,-1,-1,-1,-1,-1,-1,-1,-1,-1,-1,-1,-1,-1,-1,-1,-1,-1],"loss_changes":[1.244419E6,9.0262E4,1.2734857E4,1.9957744E5,1.5779E4,0E0,8.927732E3,9.69625E3,3.647447E4,2.243E3,2.1821379E4,9.36709E1,5.119629E0,7.6915625E3,1.4772949E0,8.298401E3,1.443857E4,1.2311875E4,1.074E3,2.4920938E3,2.5392969E3,2.0220337E1,3.840576E1,0E0,0E0,3.701375E3,2.1864404E3,0E0,5.5492167E0,0E0,3.2945115E3,0E0,5.110109E2,1.350125E3,2.38192E4,2.875E2,1.5947203E4,5.2453125E1,2.1313647E3,1.66243E3,0E0,0E0,0E0,1.4477051E1,0E0,0E0,0E0,0E0,0E0,0E0,0E0,0E0,0E0,0E0,0E0,0E0,0E0,0E0,0E0,0E0,0E0,0E0,0E0,0E0,0E0,0E0,0E0,0E0,0E0,0E0,0E0],"parents":[2147483647,0,0,1,1,2,2,3,3,4,4,6,6,7,7,8,8,9,9,10,10,11,11,12,12,13,13,14,14,15,15,16,16,17,17,18,18,19,19,20,20,21,21,22,22,25,25,26,26,28,28,30,30,32,32,33,33,34,34,35,35,36,36,37,37,38,38,39,39,43,43],"right_children":[2,4,6,8,10,-1,12,14,16,18,20,22,24,26,28,30,32,34,36,38,40,42,44,-1,-1,46,48,-1,50,-1,52,-1,54,56,58,60,62,64,66,68,-1,-1,-1,70,-1,-1,-1,-1,-1,-1,-1,-1,-1,-1,-1,-1,-1,-1,-1,-1,-1,-1,-1,-1,-1,-1,-1,-1,-1,-1,-1],"split_conditions":[1.4361926E3,3.0293169E-2,2.27E2,4E0,1E0,2.2389283E0,2.43E2,1.2E2,1.4E1,1.4333333E1,1.86E2,3.124E2,2.896E3,0E0,9.99748E5,0E0,7.6E1,6.888889E0,1E3,2.866E3,2.37E2,6.222758E6,1E1,2.2154124E0,6.226415E-1,5.133474E6,5.19E7,-1.5556459E-1,2.003996E6,2.228085E0,2.99E2,2.2463622E0,1.2E1,8.8E1,3.1E1,1.2991721E3,3.118E3,1.31E2,1.8016E4,2.35E2,2.2027972E0,1.5812417E0,5.6603767E-2,1.0353542E3,9.4186044E-1,2.2125676E0,1.5832206E0,2.0761924E0,-1.401306E-1,-1.5030232E-1,2.053942E-1,-1.4288446E-1,7.1432936E-1,-1.6018085E-1,2.0240963E0,2.2220423E0,2.0031383E0,6.1158086E-3,2.218661E0,2.2460945E0,1.8923461E0,2.7877957E-2,2.2433596E0,2.2235196E0,1.0231328E0,3.3412126E-1,1.9914356E0,2.1717422E0,-1.5865278E-1,9.23669E-2,-1.605578E-1],"split_indices":[13,37,66,2,43,0,66,34,6,8,24,40,6,66,19,65,35,8,35,20,66,1,3,0,0,19,21,0,23,0,65,0,5,34,6,13,5,24,23,66,0,0,0,41,0,0,0,0,0,0,0,0,0,0,0,0,0,0,0,0,0,0,0,0,0,0,0,0,0,0,0],"split_type":[0,0,0,0,0,0,0,0,0,0,0,0,0,0,0,0,0,0,0,0,0,0,0,0,0,0,0,0,0,0,0,0,0,0,0,0,0,0,0,0,0,0,0,0,0,0,0,0,0,0,0,0,0,0,0,0,0,0,0,0,0,0,0,0,0,0,0,0,0,0,0],"sum_hessian":[2.3035266E5,2.0595034E5,2.4402312E4,2.5897514E4,1.8005283E5,2.0222224E2,2.4200092E4,1.8554793E4,7.3427207E3,1.7766823E5,2.3846047E3,2.4056855E4,1.4323557E2,1.8389281E4,1.6551112E2,6.0035737E3,1.3391467E3,3.017467E4,1.4749356E5,1.651129E3,7.3347565E2,3.4844446E0,2.4053371E4,1.4211557E2,1.1200001E0,1.8170508E4,2.1877335E2,1.4672002E2,1.8791113E1,1.427378E2,5.860836E3,1.0299023E3,3.0924448E2,2.8291576E4,1.8830935E3,1.4277638E5,4.7171914E3,1.3698845E3,2.8124448E2,6.8680896E2,4.666667E1,2.3644447E0,1.1200001E0,2.4051504E4,1.8666668E0,1.7274135E4,8.963734E2,5.1644447E1,1.671289E2,1.4435556E1,4.355556E0,5.425903E3,4.3493338E2,3.002845E2,8.960001E0,2.5349834E4,2.9417424E3,6.922845E2,1.190809E3,1.4253034E5,2.4602669E2,3.1322668E2,4.403965E3,1.3641602E3,5.724445E0,1.2967113E2,1.5157335E2,2.7751114E1,6.5905786E2,1.9786669E1,2.4031717E4],"tree_param":{"num_deleted":"0","num_feature":"77","num_nodes":"71","size_leaf_vector":"1"}},{"base_weights":[-5.3073263E-1,-5.3449714E-1,-4.812596E-1,-5.346708E-1,-4.8680252E-1,-1.8453321E-1,-1.6061556E-1,-5.351142E-1,-5.222537E-1,-5.284988E-1,1.0127231E0,-3.263697E-1,1.8495653E0,-1.6070972E-1,-5.3260094E-1,-1.6067861E-1,-5.012874E-1,-5.3238213E-1,-4.6153862E-2,-4.4631305E-1,1.620438E0,-5.323943E-1,7.2748977E-1,2.3613074E0,-1.5535635E-1,-4.748569E-1,-5.339691E-1,-1.6057676E-1,-4.7796836E-1,-1.6049977E-1,-3.3795494E-1,3.3962265E-1,-1.3437729E-1,-1.5062763E-1,4.4554453E-2,-5.339133E-1,2.099368E-2,6.9851446E0,-4.0866268E-1,9.964963E-1,2.774738E0,-7.9280086E-2,-1.604876E-1,-1.6064975E-1,-1.5494311E-1,4.7880974E-1,-1.5232582E-1,1.981132E-1,-1.4698063E-1,-1.6047773E-1,-1.1510792E-1,3.3962265E-1,-1.299915E-1,2.2048688E0,-1.17717005E-1,5.40548E-1,-1.563511E-1,-1.4173229E-1,4.3346104E-1,8.776848E-1,5.523847E-1],"categories":[],"categories_nodes":[],"categories_segments":[],"categories_sizes":[],"default_left":[0,0,0,0,0,0,0,0,0,0,0,0,0,0,0,0,0,0,0,0,0,0,0,0,0,0,0,0,0,0,0,0,0,0,0,0,0,0,0,0,0,0,0,0,0,0,0,0,0,0,0,0,0,0,0,0,0,0,0,0,0],"id":1,"left_children":[1,3,5,7,9,11,-1,13,15,17,19,21,23,-1,25,-1,27,29,31,33,-1,35,37,39,-1,41,43,-1,45,-1,47,-1,-1,-1,-1,49,51,53,55,57,59,-1,-1,-1,-1,-1,-1,-1,-1,-1,-1,-1,-1,-1,-1,-1,-1,-1,-1,-1,-1],"loss_changes":[4.263672E1,1.5195312E0,2.6166504E2,8.90625E-1,4.979605E1,7.2646387E2,0E0,1.953125E-2,1.7998047E0,1.4124603E0,1.4109256E2,5.1121893E2,2.0008789E2,0E0,2.8310547E0,0E0,2.0343628E0,2.064209E-1,3.9259226E0,6.445074E-1,0E0,1.6660767E0,2.7412078E3,7.349463E1,0E0,1.1408691E1,7.4316406E-1,0E0,1.072872E2,0E0,2.2690196E0,0E0,0E0,0E0,0E0,9.326172E-2,3.6963398E0,1.6215088E2,8.224307E1,2.2405792E1,9.1432495E0,0E0,0E0,0E0,0E0,0E0,0E0,0E0,0E0,0E0,0E0,0E0,0E0,0E0,0E0,0E0,0E0,0E0,0E0,0E0,0E0],"parents":[2147483647,0,0,1,1,2,2,3,3,4,4,5,5,7,7,8,8,9,9,10,10,11,11,12,12,14,14,16,16,17,17,18,18,19,19,21,21,22,22,23,23,25,25,26,26,28,28,30,30,35,35,36,36,37,37,38,38,39,39,40,40],"right_children":[2,4,6,8,10,12,-1,14,16,18,20,22,24,-1,26,-1,28,30,32,34,-1,36,38,40,-1,42,44,-1,46,-1,48,-1,-1,-1,-1,50,52,54,56,58,60,-1,-1,-1,-1,-1,-1,-1,-1,-1,-1,-1,-1,-1,-1,-1,-1,-1,-1,-1,-1],"split_conditions":[4.88E2,1.8467E4,5.6552E5,2.0408164E4,1.9807102E3,2.5065698E5,-1.6061556E-1,2.37E2,9E0,1.8504967E3,1.5346289E2,3.9883266E4,7.65E2,-1.6070972E-1,2.43E2,-1.6067861E-1,2.37E2,1.6643635E3,1.0315389E7,4.8E1,1.620438E0,3.846556E4,1.0603E5,7.1607983E2,-1.5535635E-1,1E0,9.6774195E4,-1.6057676E-1,2.38E2,-1.6049977E-1,4.8E1,3.3962265E-1,-1.3437729E-1,-1.5062763E-1,4.4554453E-2,3.6028074E4,1.01256E5,1.36E2,1.99E2,3E0,5.6E2,-7.9280086E-2,-1.604876E-1,-1.6064975E-1,-1.5494311E-1,4.7880974E-1,-1.5232582E-1,1.981132E-1,-1.4698063E-1,-1.6047773E-1,-1.1510792E-1,3.3962265E-1,-1.299915E-1,2.2048688E0,-1.17717005E-1,5.40548E-1,-1.563511E-1,-1.4173229E-1,4.3346104E-1,8.776848E-1,5.523847E-1],"split_indices":[29,4,18,37,41,17,0,66,52,41,37,27,19,0,66,0,65,41,1,24,0,27,1,27,0,51,14,0,65,0,12,0,0,0,0,27,1,5,39,3,19,0,0,0,0,0,0,0,0,0,0,0,0,0,0,0,0,0,0,0,0],"split_type":[0,0,0,0,0,0,0,0,0,0,0,0,0,0,0,0,0,0,0,0,0,0,0,0,0,0,0,0,0,0,0,0,0,0,0,0,0,0,0,0,0,0,0,0,0,0,0,0,0,0,0,0,0,0,0,0,0,0,0,0,0],"sum_hessian":[2.3035266E5,2.1405505E5,1.6297619E4,2.1326817E5,7.868623E2,2.514898E3,1.3782721E4,2.0587456E5,7.393618E3,7.662045E2,2.065778E1,2.3517512E3,1.6314668E2,1.6683808E5,3.9036484E4,4.503396E3,2.8902224E3,7.599823E2,6.222223E0,1.6177778E1,4.4800005E0,1.9675913E3,3.8416003E2,1.3415112E2,2.8995558E1,9.115556E2,3.8124926E4,1.1675378E3,1.7226846E3,7.4816003E2,1.1822224E1,1.1200001E0,5.1022224E0,1.4933334E1,1.2444446E0,1.9622401E3,5.3511114E0,5.8240005E1,3.2592E2,3.1982225E1,1.021689E2,2.0359113E2,7.079645E2,3.5031113E4,3.0938135E3,2.3644447E1,1.6990402E3,1.1200001E0,1.0702223E1,1.9465602E3,1.5680001E1,1.1200001E0,4.2311115E0,5.5502228E1,2.737778E0,1.5057779E1,3.1086224E2,7.466667E0,2.4515558E1,8.611556E1,1.6053335E1],"tree_param":{"num_deleted":"0","num_feature":"77","num_nodes":"61","size_leaf_vector":"1"}},{"base_weights":[-9.0809084E-2,-3.543659E-1,5.003506E0,1.0542088E0,-5.233827E-1,7.493795E0,-1.6066857E-1,-5.3057617E-1,6.5364404E0,-5.313142E-1,9.28119E-2,-1.3437729E-1,2.2497118E0,-5.315453E-1,-3.2263833E-1,7.431599E0,-1.6044292E-1,-5.3304315E-1,-1.2510237E-1,7.2052307E0,-1.6064397E-1,-5.341782E-1,-4.770304E-1,-1.5861447E-1,1.0826541E0,7.4680624E0,-1.535009E-1,-5.343038E-1,-4.0445763E-1,-5.3243786E-1,6.632225E0,-1.3920286E-1,2.2384841E0,-1.6051085E-1,-1.4309004E-1,-1.5426722E-1,1.7442392E-1,-1.4144912E-1,1.1918918E0,-1.4995538E-1,2.247638E0,-1.6032723E-1,-6.599893E-2,-1.5996602E-1,1.20281E0,-1.6050301E-1,-1.071093E-1,2.1971388E0,-1.2924282E-1],"categories":[],"categories_nodes":[],"categories_segments":[],"categories_sizes":[],"default_left":[0,0,0,0,0,0,0,0,0,0,0,0,0,0,0,0,0,0,0,0,0,0,0,0,0,0,0,0,0,0,0,0,0,0,0,0,0,0,0,0,0,0,0,0,0,0,0,0,0],"id":2,"left_children":[1,3,5,7,9,11,-1,13,15,17,19,-1,-1,21,23,25,-1,27,29,31,-1,33,35,-1,37,39,-1,41,43,45,47,-1,-1,-1,-1,-1,-1,-1,-1,-1,-1,-1,-1,-1,-1,-1,-1,-1,-1],"loss_changes":[3.0928412E5,5.214408E4,1.5630653E5,2.0387653E5,9.558086E2,3.2890625E2,0E0,3.4960938E0,3.3313516E4,1.3553125E2,1.1113123E4,0E0,0E0,2.3461914E0,2.5764862E1,1.3567344E3,0E0,3.0945312E1,2.2594673E3,4.0035645E2,0E0,5.932617E-1,3.3529434E1,0E0,5.3321533E1,8.952656E2,0E0,7.0859375E0,1.0652954E3,1.581726E-1,2.3112451E2,0E0,0E0,0E0,0E0,0E0,0E0,0E0,0E0,0E0,0E0,0E0,0E0,0E0,0E0,0E0,0E0,0E0,0E0],"parents":[2147483647,0,0,1,1,2,2,3,3,4,4,5,5,7,7,8,8,9,9,10,10,13,13,14,14,15,15,17,17,18,18,19,19,21,21,22,22,24,24,25,25,27,27,28,28,29,29,30,30],"right_children":[2,4,6,8,10,12,-1,14,16,18,20,-1,-1,22,24,26,-1,28,30,32,-1,34,36,-1,38,40,-1,42,44,46,48,-1,-1,-1,-1,-1,-1,-1,-1,-1,-1,-1,-1,-1,-1,-1,-1,-1,-1],"split_conditions":[1.9335E3,1E0,2.3E1,3E0,1.1128763E3,1.4E1,-1.6066857E-1,1E0,3.7E1,3.79E7,3E1,-1.3437729E-1,2.2497118E0,7.4227756E5,1E0,2.57E2,-1.6044292E-1,1.02993E6,1.1601E4,2E1,-1.6064397E-1,5.16139E6,2E0,-1.5861447E-1,1.94E2,2.56E2,-1.535009E-1,1.2333333E7,1.2991721E3,7E0,1.1E1,-1.3920286E-1,2.2384841E0,-1.6051085E-1,-1.4309004E-1,-1.5426722E-1,1.7442392E-1,-1.4144912E-1,1.1918918E0,-1.4995538E-1,2.247638E0,-1.6032723E-1,-6.599893E-2,-1.5996602E-1,1.20281E0,-1.6050301E-1,-1.071093E-1,2.1971388E0,-1.2924282E-1],"split_indices":[12,3,6,67,52,6,0,43,4,74,4,0,0,17,47,65,0,72,5,4,0,73,7,0,1,65,0,14,13,67,2,0,0,0,0,0,0,0,0,0,0,0,0,0,0,0,0,0,0],"split_type":[0,0,0,0,0,0,0,0,0,0,0,0,0,0,0,0,0,0,0,0,0,0,0,0,0,0,0,0,0,0,0,0,0,0,0,0,0,0,0,0,0,0,0,0,0,0,0,0,0],"sum_hessian":[2.3035266E5,2.1902236E5,1.1330294E4,2.3464625E4,1.9555773E5,7.815983E3,3.5143115E3,1.8203361E4,5.2612627E3,1.930727E5,2.4850312E3,5.1022224E0,7.810881E3,1.8117371E4,8.599112E1,4.670027E3,5.912356E2,1.9225411E5,8.1859564E2,2.0085335E2,2.284178E3,1.727426E4,8.431112E2,7.553778E1,1.0453334E1,4.648747E3,2.1280003E1,1.9038445E5,1.8696534E3,7.729245E2,4.5671116E1,6.471112E0,1.9438223E2,1.701081E4,2.634489E2,8.1498676E2,2.8124447E1,7.3422227E0,3.1111114E0,1.3937778E1,4.634809E3,1.903109E5,7.354668E1,1.8175112E3,5.2142227E1,7.597334E2,1.31911125E1,4.156445E1,4.106667E0],"tree_param":{"num_deleted":"0","num_feature":"77","num_nodes":"49","size_leaf_vector":"1"}},{"base_weights":[-4.9996692E-1,-5.0784075E-1,1.4942101E0,-5.252085E-1,-9.358391E-2,-4.1307688E-1,6.488068E0,-5.265013E-1,8.273443E-2,7.3481464E0,-5.348499E-1,-1.6046011E-1,2.636093E0,-1.5544382E-1,7.425345E0,-5.344862E-1,-4.6570644E-1,-1.6034234E-1,2.181246E0,-1.3846155E-1,7.444196E0,-5.14139E-2,-1.6069582E-1,-1.5021771E-1,2.0198555E0,2.239768E0,-8.490566E-2,-1.6057535E-1,-3.685672E-1,7.9345363E-1,-5.2689904E-1,-1.1464969E-1,2.2449825E0,-1.4918713E-1,7.028863E-1,-1.6045243E-1,-1.5610042E-3,-1.6024062E-1,2.0690937E0,-1.34193E-1,-1.6066596E-1],"categories":[],"categories_nodes":[],"categories_segments":[],"categories_sizes":[],"default_left":[0,0,0,0,0,0,0,0,0,0,0,0,0,0,0,0,0,0,0,0,0,0,0,0,0,0,0,0,0,0,0,0,0,0,0,0,0,0,0,0,0],"id":3,"left_children":[1,3,5,7,9,11,13,15,17,19,21,-1,23,-1,25,27,29,-1,-1,-1,31,33,-1,-1,-1,-1,-1,-1,35,37,39,-1,-1,-1,-1,-1,-1,-1,-1,-1,-1],"loss_changes":[3.6177344E3,1.6507656E3,8.634067E3,1.731211E2,3.0325662E4,2.4528053E2,1.6488945E3,1.06421875E2,2.0809211E3,3.9120898E2,3.355713E0,0E0,3.296671E2,0E0,7.119238E1,2.4460938E1,1.9666968E3,0E0,0E0,0E0,1.5906055E2,1.7776867E1,0E0,0E0,0E0,0E0,0E0,0E0,5.4049347E1,9.590294E3,1.652295E1,0E0,0E0,0E0,0E0,0E0,0E0,0E0,0E0,0E0,0E0],"parents":[2147483647,0,0,1,1,2,2,3,3,4,4,5,5,6,6,7,7,8,8,9,9,10,10,12,12,14,14,15,15,16,16,20,20,21,21,28,28,29,29,30,30],"right_children":[2,4,6,8,10,12,14,16,18,20,22,-1,24,-1,26,28,30,-1,-1,-1,32,34,-1,-1,-1,-1,-1,-1,36,38,40,-1,-1,-1,-1,-1,-1,-1,-1,-1,-1],"split_conditions":[5.133474E6,1.1632E4,9.942003E6,3.52E7,9E0,5.019806E6,6.4E1,2.342777E6,1.45E2,2.651417E6,1E1,-1.6046011E-1,6.4E1,-1.5544382E-1,6E0,9.99748E5,7.445812E6,-1.6034234E-1,2.181246E0,-1.3846155E-1,1.2815E4,7.410856E6,-1.6069582E-1,-1.5021771E-1,2.0198555E0,2.239768E0,-8.490566E-2,-1.6057535E-1,3.1E1,6.85E2,6E0,-1.1464969E-1,2.2449825E0,-1.4918713E-1,7.028863E-1,-1.6045243E-1,-1.5610042E-3,-1.6024062E-1,2.0690937E0,-1.34193E-1,-1.6066596E-1],"split_indices":[19,5,76,16,3,73,34,27,6,25,3,0,34,0,4,19,18,0,0,0,65,25,0,0,0,0,0,0,68,12,3,0,0,0,0,0,0,0,0,0,0],"split_type":[0,0,0,0,0,0,0,0,0,0,0,0,0,0,0,0,0,0,0,0,0,0,0,0,0,0,0,0,0,0,0,0,0,0,0,0,0,0,0,0,0],"sum_hessian":[2.3035266E5,2.2944745E5,9.05209E2,2.2021467E5,9.232783E3,6.556978E2,2.4951114E2,2.197475E5,4.671645E2,5.159467E2,8.716836E3,6.313067E2,2.4391113E1,2.9493336E1,2.2001779E2,1.9422942E5,2.5518082E4,4.310756E2,3.608889E1,6.222223E0,5.097245E2,1.4560001E1,8.702276E3,1.4311112E1,1.0080001E1,2.188978E2,1.1200001E0,1.9333578E5,8.936356E2,1.1820979E3,2.4335984E4,2.4888892E0,5.072356E2,1.2942224E1,1.617778E0,6.127645E2,2.8087112E2,9.716623E2,2.1043558E2,2.3918225E3,2.1944162E4],"tree_param":{"num_deleted":"0","num_feature":"77","num_nodes":"41","size_leaf_vector":"1"}},{"base_weights":[6.316719E-2,-3.8785458E-1,6.2318416E0,-4.2652577E-1,2.6054242E0,-4.3440902E-1,7.2654905E0,-4.964192E-1,9.2662436E-1,-4.7854593E-1,5.552138E0,-4.6639115E-1,2.0122123E0,-1.6030893E-1,2.2498066E0,-1.9752666E-1,-5.346143E-1,6.223924E0,-1.6069458E-1,-4.961676E-1,1.6300509E0,6.3956327E0,-4.348493E-1,1.4773868E0,-5.295513E-1,-4.3914443E-1,2.7187018E0,-5.353135E-1,1.24459475E-1,-5.313506E-1,7.4713287E0,-5.2869666E-1,-1.420265E-1,-1.3540938E-1,3.568773E0,5.6544166E-2,2.246704E0,-1.5977848E-1,1.5278174E0,-1.5747784E-1,2.105733E0,-1.6063511E-1,1.9190599E0,-1.3307829E-1,1.951523E0,2.094767E0,-4.4385567E-2,-1.6067803E-1,-1.0878534E-1,-1.5315814E-1,5.632385E-1,-1.602529E-1,-6.0752176E-2,-1.3724855E-1,2.2488127E0,-1.5884781E-1,-8.521487E-2,8.8524586E-1,-1.5325077E-1,1.6674339E0,-1.2838806E-2,7.455987E-1,-1.5962079E-1,1.3475935E0,-1.1623617E-1],"categories":[],"categories_nodes":[],"categories_segments":[],"categories_sizes":[],"default_left":[0,0,0,0,0,0,0,0,0,0,0,0,0,0,0,0,0,0,0,0,0,0,0,0,0,0,0,0,0,0,0,0,0,0,0,0,0,0,0,0,0,0,0,0,0,0,0,0,0,0,0,0,0,0,0,0,0,0,0,0,0,0,0,0,0],"id":4,"left_children":[1,3,5,7,9,11,13,15,17,19,21,23,-1,-1,-1,25,27,29,-1,31,33,35,37,39,41,43,45,47,49,51,53,55,57,-1,59,61,-1,-1,-1,-1,-1,-1,63,-1,-1,-1,-1,-1,-1,-1,-1,-1,-1,-1,-1,-1,-1,-1,-1,-1,-1,-1,-1,-1,-1],"loss_changes":[6.4089394E5,2.4848764E4,1.0814925E5,2.004334E4,2.4884727E4,4.8458002E2,2.4789938E4,2.3004336E3,8.063276E4,5.0553802E1,7.074051E3,2.5852222E2,0E0,0E0,0E0,1.6091068E4,8.240234E1,1.8979117E4,0E0,1.5228424E1,4.732613E1,8.506742E3,9.664463E1,7.397367E2,3.0408203E1,6.5454614E2,2.135863E4,8.433594E0,2.126269E2,2.1884155E-1,3.7590625E2,8.6517334E-2,1.3054514E2,0E0,4.3186035E1,2.608961E2,0E0,0E0,0E0,0E0,0E0,0E0,3.2045807E1,0E0,0E0,0E0,0E0,0E0,0E0,0E0,0E0,0E0,0E0,0E0,0E0,0E0,0E0,0E0,0E0,0E0,0E0,0E0,0E0,0E0,0E0],"parents":[2147483647,0,0,1,1,2,2,3,3,4,4,5,5,6,6,7,7,8,8,9,9,10,10,11,11,15,15,16,16,17,17,19,19,20,20,21,21,22,22,23,23,24,24,25,25,26,26,27,27,28,28,29,29,30,30,31,31,32,32,34,34,35,35,42,42],"right_children":[2,4,6,8,10,12,14,16,18,20,22,24,-1,-1,-1,26,28,30,-1,32,34,36,38,40,42,44,46,48,50,52,54,56,58,-1,60,62,-1,-1,-1,-1,-1,-1,64,-1,-1,-1,-1,-1,-1,-1,-1,-1,-1,-1,-1,-1,-1,-1,-1,-1,-1,-1,-1,-1,-1],"split_conditions":[8.22E7,1E0,1.2991721E3,1.5477377E3,1.91E2,1E0,7E1,3E0,1.1601E4,1.41E2,2.37E2,1.1154186E-1,2.0122123E0,-1.6030893E-1,2.2498066E0,1.12E2,1.4361926E3,1.1595E4,-1.6069458E-1,9.71E2,4.22E2,2.35E2,1.0315389E7,7.2E1,1.0831536E3,3.14E7,4.56E3,1.2991721E3,1.117931E2,7.567857E2,2E1,1.96E2,3.6929E4,-1.3540938E-1,2.3412E4,1E0,2.246704E0,-1.5977848E-1,1.5278174E0,-1.5747784E-1,2.105733E0,-1.6063511E-1,3.563E3,-1.3307829E-1,1.951523E0,2.094767E0,-4.4385567E-2,-1.6067803E-1,-1.0878534E-1,-1.5315814E-1,5.632385E-1,-1.602529E-1,-6.0752176E-2,-1.3724855E-1,2.2488127E0,-1.5884781E-1,-8.521487E-2,8.8524586E-1,-1.5325077E-1,1.6674339E0,-1.2838806E-2,7.455987E-1,-1.5962079E-1,1.3475935E0,-1.1623617E-1],"split_indices":[73,43,13,13,21,43,4,52,5,24,66,14,0,0,0,34,13,5,0,29,1,66,1,34,13,29,21,13,9,40,4,29,1,0,1,3,0,0,0,0,0,0,69,0,0,0,0,0,0,0,0,0,0,0,0,0,0,0,0,0,0,0,0,0,0],"split_type":[0,0,0,0,0,0,0,0,0,0,0,0,0,0,0,0,0,0,0,0,0,0,0,0,0,0,0,0,0,0,0,0,0,0,0,0,0,0,0,0,0,0,0,0,0,0,0,0,0,0,0,0,0,0,0,0,0,0,0,0,0,0,0,0,0],"sum_hessian":[2.3035266E5,2.1465884E5,1.5693814E4,2.1192181E5,2.7370312E3,2.1068447E3,1.358697E4,2.0151378E5,1.0408036E4,1.3377778E3,1.3992534E3,2.0983823E3,8.462223E0,3.9548447E2,1.3191485E4,2.2834064E4,1.7867972E5,2.250827E3,8.1572095E3,1.327449E3,1.032889E1,1.2264001E3,1.7285335E2,6.5333336E1,2.0330491E3,2.1087734E4,1.746329E3,1.7849056E5,1.8915558E2,3.5093335E2,1.8998934E3,1.2153246E3,1.1212445E2,5.3511114E0,4.9777784E0,1.8056891E2,1.0458312E3,1.707378E2,2.1155558E0,4.8657784E1,1.6675556E1,2.0289424E3,4.106667E0,2.1075166E4,1.256889E1,7.014934E2,1.0448357E3,1.7819961E5,2.9095114E2,1.3937779E2,4.9777782E1,3.4732446E2,3.608889E0,5.8488894E0,1.8940446E3,1.2102223E3,5.1022224E0,1.1200001E1,1.0092445E2,2.8622224E0,2.1155558E0,3.459556E1,1.4597334E2,1.4933335E0,2.6133335E0],"tree_param":{"num_deleted":"0","num_feature":"77","num_nodes":"65","size_leaf_vector":"1"}},{"base_weights":[-5.1751816E-1,-5.2741414E-1,2.9578726E0,-5.307464E-1,1.8566875E0,6.1741543E0,-4.2152274E-1,-5.3161746E-1,3.6713283E0,-1.5995906E-1,6.504749E0,6.5230794E0,-1.809409E-1,-1.6020302E-1,4.9999995E0,-5.322863E-1,-2.0559576E-1,2.16309E0,-1.5365854E-1,2.2266715E0,-1.4886996E-1,-1.4477745E-1,2.0192316E0,5.5429494E-1,-1.5107913E-1,-8.490566E-2,1.8394159E0,-5.3294814E-1,-3.6749443E-1,-3.3355746E-1,1.821982E0,-1.6017522E-1,-1.4536364E-1,-1.3409685E-1,1.7103012E0,-1.5100671E-1,1.5991843E-1],"categories":[],"categories_nodes":[],"categories_segments":[],"categories_sizes":[],"default_left":[0,0,0,0,0,0,0,0,0,0,0,0,0,0,0,0,0,0,0,0,0,0,0,0,0,0,0,0,0,0,0,0,0,0,0,0,0],"id":5,"left_children":[1,3,5,7,9,11,13,15,17,-1,19,21,23,-1,25,27,29,-1,-1,-1,-1,-1,-1,-1,-1,-1,-1,31,33,35,-1,-1,-1,-1,-1,-1,-1],"loss_changes":[7.9239844E3,1.8258047E3,7.113256E3,8.415625E2,3.5672676E3,7.445996E2,1.9779312E2,4.9902344E1,7.094158E2,0E0,7.0393994E2,4.6570605E2,1.2988504E1,0E0,4.1184402E1,2.4761719E1,3.8057443E2,0E0,0E0,0E0,0E0,0E0,0E0,0E0,0E0,0E0,0E0,1.04375E1,4.4572086E2,6.8353165E1,0E0,0E0,0E0,0E0,0E0,0E0,0E0],"parents":[2147483647,0,0,1,1,2,2,3,3,4,4,5,5,6,6,7,7,8,8,10,10,11,11,12,12,14,14,15,15,16,16,27,27,28,28,29,29],"right_children":[2,4,6,8,10,12,14,16,18,-1,20,22,24,-1,26,28,30,-1,-1,-1,-1,-1,-1,-1,-1,-1,-1,32,34,36,-1,-1,-1,-1,-1,-1,-1],"split_conditions":[6.568163E6,5E7,1.1180008E-1,3.56E2,1.714311E2,7.01592E6,2.86E7,3.8372825E6,8.07E2,-1.5995906E-1,6E0,1.19E7,1.23E7,-1.6020302E-1,9.238986E7,1.55E2,7.26E7,2.16309E0,-1.5365854E-1,2.2266715E0,-1.4886996E-1,-1.4477745E-1,2.0192316E0,5.5429494E-1,-1.5107913E-1,-8.490566E-2,1.8394159E0,1.01E7,5.63595E5,2.52E2,1.821982E0,-1.6017522E-1,-1.4536364E-1,-1.3409685E-1,1.7103012E0,-1.5100671E-1,1.5991843E-1],"split_indices":[69,27,15,38,9,71,26,70,4,0,5,17,74,0,1,7,28,0,0,0,0,0,0,0,0,0,0,24,19,8,0,0,0,0,0,0,0],"split_type":[0,0,0,0,0,0,0,0,0,0,0,0,0,0,0,0,0,0,0,0,0,0,0,0,0,0,0,0,0,0,0,0,0,0,0,0,0],"sum_hessian":[2.3035266E5,2.2969945E5,6.532089E2,2.2937962E5,3.1982224E2,3.342578E2,3.1895114E2,2.2933297E5,4.666667E1,2.1180446E2,1.08017784E2,3.1683557E2,1.7422224E1,3.1335114E2,5.6000004E0,2.2886281E5,4.7015115E2,2.4888891E1,2.177778E1,9.54489E1,1.256889E1,9.084445E0,3.0775113E2,1.7422223E0,1.5680001E1,1.1200001E0,4.4800005E0,2.2794516E5,9.176534E2,4.6168893E2,8.462223E0,2.234603E5,4.4848535E3,9.067023E2,1.0951112E1,3.8640002E2,7.5288895E1],"tree_param":{"num_deleted":"0","num_feature":"77","num_nodes":"37","size_leaf_vector":"1"}},{"base_weights":[-5.168627E-1,-5.23018E-1,2.4267743E0,-5.268071E-1,7.691671E-1,-1.601605E-1,6.897335E0,-5.325287E-1,-4.7338467E-2,-5.329877E-1,2.2241526E0,2.2373743E0,-1.4958449E-1,-5.327096E-1,3.687302E0,-1.5981857E-1,2.0120769E0,-1.6042703E-1,-2.112676E-1,-5.332049E-1,-1.850886E-1,-1.2676057E-1,1.8812819E0,2.2076287E0,-1.5940008E-1,-1.1623617E-1,5.6603767E-2,-1.6026479E-1,-1.5191557E-1,1.9833187E0,-1.553506E-1],"categories":[],"categories_nodes":[],"categories_segments":[],"categories_sizes":[],"default_left":[0,0,0,0,0,0,0,0,0,0,0,0,0,0,0,0,0,0,0,0,0,0,0,0,0,0,0,0,0,0,0],"id":6,"left_children":[1,3,5,7,9,-1,11,13,15,17,-1,-1,-1,19,21,-1,23,-1,25,27,29,-1,-1,-1,-1,-1,-1,-1,-1,-1,-1],"loss_changes":[4.175074E3,1.1259219E3,6.3681865E3,6.287461E2,5.822706E3,0E0,7.9829785E2,1.7486328E2,2.7039768E3,2.0759583E-1,0E0,0E0,0E0,3.8902344E1,1.0708687E2,0E0,7.0202344E3,0E0,4.0663952E-1,5.859375E0,7.356839E2,0E0,0E0,0E0,0E0,0E0,0E0,0E0,0E0,0E0,0E0],"parents":[2147483647,0,0,1,1,2,2,3,3,4,4,6,6,7,7,8,8,9,9,13,13,14,14,16,16,18,18,19,19,20,20],"right_children":[2,4,6,8,10,-1,12,14,16,18,-1,-1,-1,20,22,-1,24,-1,26,28,30,-1,-1,-1,-1,-1,-1,-1,-1,-1,-1],"split_conditions":[4.388405E6,5.77E7,1.64E7,5.63595E5,1E0,-1.601605E-1,3.227E3,3.52E7,1.12E2,2E0,2.2241526E0,2.2373743E0,-1.4958449E-1,5E7,1E0,-1.5981857E-1,3.272739E6,-1.6042703E-1,4.9E1,1E0,3.0714285E1,-1.2676057E-1,1.8812819E0,2.2076287E0,-1.5940008E-1,-1.1623617E-1,5.6603767E-2,-1.6026479E-1,-1.5191557E-1,1.9833187E0,-1.553506E-1],"split_indices":[70,17,26,19,30,0,4,16,34,67,0,0,0,27,30,0,1,0,19,30,40,0,0,0,0,0,0,0,0,0,0],"split_type":[0,0,0,0,0,0,0,0,0,0,0,0,0,0,0,0,0,0,0,0,0,0,0,0,0,0,0,0,0,0,0],"sum_hessian":[2.3035266E5,2.298728E5,4.7985782E2,2.292013E5,6.7150226E2,2.8920892E2,1.9064891E2,2.2649836E5,2.7029336E3,5.6224005E2,1.0926223E2,1.7720891E2,1.34400015E1,2.2648953E5,8.835556E0,2.1879824E3,5.149512E2,5.585067E2,3.7333336E0,2.2616672E5,3.2280893E2,3.7333336E0,5.1022224E0,1.6538667E2,3.4956448E2,2.6133335E0,1.1200001E0,2.1793236E5,8.234365E3,1.4186667E1,3.0862225E2],"tree_param":{"num_deleted":"0","num_feature":"77","num_nodes":"31","size_leaf_vector":"1"}},{"base_weights":[-5.151349E-1,-5.283335E-1,-3.1790856E-1,-1.606788E-1,-3.5027152E-1,7.442964E0,-1.6070285E-1,4.2842183E0,-1.6054711E-1,2.2442694E0,-1.0465116E-1,-1.5943184E-1,7.2730494E0,-1.1623617E-1,7.3761816E0,2.233939E0,-1.0210697E-1],"categories":[],"categories_nodes":[],"categories_segments":[],"categories_sizes":[],"default_left":[0,0,0,0,0,0,0,0,0,0,0,0,0,0,0,0,0],"id":7,"left_children":[1,3,5,-1,7,9,-1,11,-1,-1,-1,-1,13,-1,15,-1,-1],"loss_changes":[5.9946484E2,2.7901562E2,2.442734E4,0E0,7.2544336E3,1.1920703E2,0E0,4.678836E3,0E0,0E0,0E0,0E0,1.6124902E2,0E0,1.0984668E2,0E0,0E0],"parents":[2147483647,0,0,1,1,2,2,4,4,5,5,7,7,12,12,14,14],"right_children":[2,4,6,-1,8,10,-1,12,-1,-1,-1,-1,14,-1,16,-1,-1],"split_conditions":[4.88E2,1E0,4.9E1,-1.606788E-1,7.142857E0,2E0,-1.6070285E-1,6.888889E0,-1.6054711E-1,2.2442694E0,-1.0465116E-1,-1.5943184E-1,2.29E2,-1.1623617E-1,9.8E2,2.233939E0,-1.0210697E-1],"split_indices":[35,30,39,0,8,11,0,8,0,0,0,0,65,0,1,0,0],"split_type":[0,0,0,0,0,0,0,0,0,0,0,0,0,0,0,0,0],"sum_hessian":[2.3035266E5,2.1590255E5,1.4450117E4,2.0743983E5,8.462721E3,3.9349338E2,1.4056623E4,3.2380447E2,8.138916E3,3.916267E2,1.8666668E0,1.2432001E2,1.9948447E2,2.6133335E0,1.9687112E2,1.951289E2,1.7422223E0],"tree_param":{"num_deleted":"0","num_feature":"77","num_nodes":"17","size_leaf_vector":"1"}},{"base_weights":[-5.3567284E-1,-1.6071358E-1,-4.5188135E-1,-1.5928258E-1,9.8663104E-1],"categories":[],"categories_nodes":[],"categories_segments":[],"categories_sizes":[],"default_left":[0,0,0,0,0],"id":8,"left_children":[1,-1,3,-1,-1],"loss_changes":[5.15625E-1,0E0,3.538535E1,0E0,0E0],"parents":[2147483647,0,0,2,2],"right_children":[2,-1,4,-1,-1],"split_conditions":[1.5404E4,-1.6071358E-1,2.177345E3,-1.5928258E-1,9.8663104E-1],"split_indices":[34,0,13,0,0],"split_type":[0,0,0,0,0],"sum_hessian":[2.3035266E5,2.302399E5,1.1274667E2,1.1125334E2,1.4933335E0],"tree_param":{"num_deleted":"0","num_feature":"77","num_nodes":"5","size_leaf_vector":"1"}},{"base_weights":[-5.3558606E-1,-1.6068754E-1,-4.5188135E-1,-1.5928574E-1,1.1138613E0],"categories":[],"categories_nodes":[],"categories_segments":[],"categories_sizes":[],"default_left":[0,0,0,0,0],"id":9,"left_children":[1,-1,3,-1,-1],"loss_changes":[5.078125E-1,0E0,3.942945E1,0E0,0E0],"parents":[2147483647,0,0,2,2],"right_children":[2,-1,4,-1,-1],"split_conditions":[1.5404E4,-1.6068754E-1,8.2E1,-1.5928574E-1,1.1138613E0],"split_indices":[34,0,24,0,0],"split_type":[0,0,0,0,0],"sum_hessian":[2.3035266E5,2.302399E5,1.1274667E2,1.1150223E2,1.2444446E0],"tree_param":{"num_deleted":"0","num_feature":"77","num_nodes":"5","size_leaf_vector":"1"}},{"base_weights":[-5.2884424E-1,-4.8082665E-1,-5.350547E-1,-5.011608E-1,4.9622526E0,-4.6775767E-1,-5.35186E-1,-5.0860524E-1,3.6301432E0,6.2507668E0,-1.5254238E-1,-1.6028693E-1,3.78486E-1,-1.6065904E-1,-5.288502E-1,-5.1730967E-1,2.4177504E-1,-1.5369688E-1,2.1618183E0,2.147264E0,1.0016036E0,1.7339449E0,-1.5470852E-1,4.5271206E0,-5.333906E-1,-5.182326E-1,1.6297297E0,-1.6011053E-1,5.895795E0,-1.1623617E-1,1.9273422E0,-1.6064173E-1,-2.450559E-1,-1.6064039E-1,-1.21963926E-1,2.156154E0,-1.3807139E-1,1.0193949E0,-1.5850681E-1],"categories":[],"categories_nodes":[],"categories_segments":[],"categories_sizes":[],"default_left":[0,0,0,0,0,0,0,0,0,0,0,0,0,0,0,0,0,0,0,0,0,0,0,0,0,0,0,0,0,0,0,0,0,0,0,0,0,0,0],"id":10,"left_children":[1,3,5,7,9,11,13,15,17,19,-1,-1,21,-1,23,25,27,-1,-1,-1,-1,-1,-1,29,31,33,-1,-1,35,-1,-1,-1,37,-1,-1,-1,-1,-1,-1],"loss_changes":[6.84375E1,2.9234468E3,1.5507812E0,8.1051465E2,6.9621533E2,2.3015701E1,1.640625E-1,1.715625E2,7.0609705E2,1.8642603E2,0E0,0E0,1.4845322E2,0E0,2.4500049E2,1.4528516E2,1.3257836E3,0E0,0E0,0E0,0E0,0E0,0E0,9.1881836E1,6.206787E0,4.972168E1,0E0,0E0,3.026294E2,0E0,0E0,0E0,8.181543E1,0E0,0E0,0E0,0E0,0E0,0E0],"parents":[2147483647,0,0,1,1,2,2,3,3,4,4,5,5,6,6,7,7,8,8,9,9,12,12,14,14,15,15,16,16,23,23,24,24,25,25,28,28,32,32],"right_children":[2,4,6,8,10,12,14,16,18,20,-1,-1,22,-1,24,26,28,-1,-1,-1,-1,-1,-1,30,32,34,-1,-1,36,-1,-1,-1,38,-1,-1,-1,-1,-1,-1],"split_conditions":[3.4285715E0,2E0,2E0,1.55E7,4.8E1,1.32E2,1.0295E3,7.2312363E3,2.73404E5,1.9607844E4,-1.5254238E-1,-1.6028693E-1,1.4E2,-1.6065904E-1,2E1,8.666667E0,1E0,-1.5369688E-1,2.1618183E0,2.147264E0,1.0016036E0,1.7339449E0,-1.5470852E-1,2E0,2.1052632E3,1.04E2,1.6297297E0,-1.6011053E-1,4.4E1,-1.1623617E-1,1.9273422E0,-1.6064173E-1,6.3E1,-1.6064039E-1,-1.21963926E-1,2.156154E0,-1.3807139E-1,1.0193949E0,-1.5850681E-1],"split_indices":[40,38,8,29,34,34,52,14,24,15,0,0,34,0,4,12,46,0,0,0,0,0,0,2,37,34,0,0,34,0,0,0,4,0,0,0,0,0,0],"split_type":[0,0,0,0,0,0,0,0,0,0,0,0,0,0,0,0,0,0,0,0,0,0,0,0,0,0,0,0,0,0,0,0,0,0,0,0,0,0,0],"sum_hessian":[2.3035266E5,2.638994E4,2.0396272E5,2.6292625E4,9.731557E1,4.041956E2,2.0355853E5,2.6246207E4,4.641778E1,7.8648895E1,1.8666668E1,3.750756E2,2.9120003E1,1.9299206E5,1.0566454E4,2.5945549E4,3.006578E2,2.1902224E1,2.4515558E1,5.886223E1,1.9786669E1,3.3600004E0,2.5760002E1,8.586667E0,1.0557867E4,2.5942438E4,3.1111114E0,2.6519113E2,3.546667E1,2.6133335E0,5.973334E0,1.0481334E4,7.653334E1,2.2470936E4,3.4715024E3,2.936889E1,6.0977783E0,4.7288895E0,7.180445E1],"tree_param":{"num_deleted":"0","num_feature":"77","num_nodes":"39","size_leaf_vector":"1"}},{"base_weights":[-5.246507E-1,-5.3467697E-1,-9.175049E-2,-5.2720743E-1,-1.6065131E-1,6.8563166E0,-5.3295475E-1,-5.131575E-1,-5.347218E-1,7.4085684E0,-1.5361977E-1,-2.7859858E-1,-1.6068117E-1,-1.6038272E-1,6.0428554E-1,-1.6070288E-1,-5.0978667E-1,-1.1294584E-1,2.242173E0,2.6600208E0,-1.5746155E-1,-5.113999E-1,3.1523333E0,-7.4100226E-2,-1.6041112E-1,1.3904924E0,-9.932089E-2,1.5280132E-2,-1.5622701E-1,1.6528971E0,-1.20770134E-1,1.4294976E0,-1.5531151E-1],"categories":[],"categories_nodes":[],"categories_segments":[],"categories_sizes":[],"default_left":[0,0,0,0,0,0,0,0,0,0,0,0,0,0,0,0,0,0,0,0,0,0,0,0,0,0,0,0,0,0,0,0,0],"id":11,"left_children":[1,3,5,7,-1,9,11,13,15,17,-1,19,-1,-1,21,-1,23,-1,-1,25,-1,27,29,31,-1,-1,-1,-1,-1,-1,-1,-1,-1],"loss_changes":[9.9977344E2,1.109375E0,1.5992151E4,2.102539E0,0E0,1.2713057E3,3.1558838E0,1.8898853E2,7.519531E-2,1.5024902E2,0E0,3.9495132E1,0E0,0E0,4.2438367E2,0E0,6.0465546E0,0E0,0E0,2.6555048E1,0E0,5.752506E-1,3.8289587E2,7.006232E1,0E0,0E0,0E0,0E0,0E0,0E0,0E0,0E0,0E0],"parents":[2147483647,0,0,1,1,2,2,3,3,5,5,6,6,7,7,8,8,9,9,11,11,14,14,16,16,19,19,21,21,22,22,23,23],"right_children":[2,4,6,8,-1,10,12,14,16,18,-1,20,-1,-1,22,-1,24,-1,-1,26,-1,28,30,32,-1,-1,-1,-1,-1,-1,-1,-1,-1],"split_conditions":[1E3,1.1154186E-1,9.4E1,2.62E2,-1.6065131E-1,2.2920676E7,5.705E3,2.58E2,6.8E1,2.6205375E5,-1.5361977E-1,2.49E2,-1.6068117E-1,-1.6038272E-1,1.1512779E2,-1.6070288E-1,7.6E1,-1.1294584E-1,2.242173E0,4.382E3,-1.5746155E-1,3E0,2.58E2,3.04E3,-1.6041112E-1,1.3904924E0,-9.932089E-2,1.5280132E-2,-1.5622701E-1,1.6528971E0,-1.20770134E-1,1.4294976E0,-1.5531151E-1],"split_indices":[35,14,40,65,0,1,5,65,35,26,0,66,0,0,37,0,35,0,0,4,0,16,66,1,0,0,0,0,0,0,0,0,0],"split_type":[0,0,0,0,0,0,0,0,0,0,0,0,0,0,0,0,0,0,0,0,0,0,0,0,0,0,0,0,0,0,0,0,0],"sum_hessian":[2.3035266E5,2.2513806E5,5.214596E3,2.251449E4,2.0262358E5,3.1048892E2,4.904107E3,7.8696187E3,1.4644872E4,2.8883557E2,2.1653336E1,5.1644447E1,4.8524624E3,7.721903E3,1.4771556E2,1.4085246E4,5.596267E2,2.3644447E0,2.8647113E2,3.235556E0,4.8408894E1,1.03288895E2,4.442667E1,3.0488892E1,5.291378E2,1.617778E0,1.617778E0,1.617778E0,1.0167112E2,2.6382225E1,1.8044445E1,1.7422223E0,2.874667E1],"tree_param":{"num_deleted":"0","num_feature":"77","num_nodes":"33","size_leaf_vector":"1"}},{"base_weights":[-5.305807E-1,-5.347786E-1,-4.342131E-1,-5.3501314E-1,-3.7772164E-1,4.5658794E-1,-1.6069567E-1,-5.30905E-1,-5.3537565E-1,-1.6021872E-1,5.166425E0,-4.3698922E-1,3.0768409E0,-1.6067581E-1,-5.215095E-1,-1.6070712E-1,-5.306515E-1,1.9488399E0,-1.0210697E-1,4.5312415E-3,-5.331688E-1,4.2524405E0,-1.5814185E-1,-5.2653944E-1,-4.226302E-1,-1.606699E-1,-5.089164E-1,-4.619638E-1,3.0588381E0,-3.3994335E-1,-1.6044486E-1,4.659714E0,-1.5054822E-1,-1.3765618E-1,-1.6062318E-1,3.6413166E-1,-1.6013698E-1,2.9171094E-1,-1.5656257E-1,-1.5925673E-1,2.3472889E-1,1.3858637E0,-1.3540938E-1,2.4064168E-2,-1.3540938E-1,1.2127836E0,1.7805253E0],"categories":[],"categories_nodes":[],"categories_segments":[],"categories_sizes":[],"default_left":[0,0,0,0,0,0,0,0,0,0,0,0,0,0,0,0,0,0,0,0,0,0,0,0,0,0,0,0,0,0,0,0,0,0,0,0,0,0,0,0,0,0,0,0,0,0,0],"id":12,"left_children":[1,3,5,7,9,11,-1,13,15,-1,17,19,21,-1,23,-1,25,-1,-1,27,29,31,-1,33,35,-1,37,39,41,43,-1,45,-1,-1,-1,-1,-1,-1,-1,-1,-1,-1,-1,-1,-1,-1,-1],"loss_changes":[9.295703E1,7.9296875E0,8.696123E2,4.296875E-2,2.909796E2,2.305541E3,0E0,5.1220703E-1,1.5625E-2,0E0,6.967479E1,3.1202667E1,1.0630891E3,0E0,2.7723389E0,0E0,1.0891113E0,0E0,0E0,1.9007812E2,1.020813E-2,3.68125E2,0E0,3.192505E0,5.459197E1,0E0,4.6019226E1,1.03374E1,9.891884E1,4.0343904E-1,0E0,1.1303125E2,0E0,0E0,0E0,0E0,0E0,0E0,0E0,0E0,0E0,0E0,0E0,0E0,0E0,0E0,0E0],"parents":[2147483647,0,0,1,1,2,2,3,3,4,4,5,5,7,7,8,8,10,10,11,11,12,12,14,14,16,16,19,19,20,20,21,21,23,23,24,24,26,26,27,27,28,28,29,29,31,31],"right_children":[2,4,6,8,10,12,-1,14,16,-1,18,20,22,-1,24,-1,26,-1,-1,28,30,32,-1,34,36,-1,38,40,42,44,-1,46,-1,-1,-1,-1,-1,-1,-1,-1,-1,-1,-1,-1,-1,-1,-1],"split_conditions":[2.896E4,6.204E3,2.92E4,1.1154186E-1,5.58E2,9E1,-1.6069567E-1,8.810572E3,8.46E2,-1.6021872E-1,4.1990092E7,1.85E3,1.85E3,-1.6067581E-1,1.305E3,-1.6070712E-1,9.5333336E1,1.9488399E0,-1.0210697E-1,6.71E2,4.472E3,6E0,-1.5814185E-1,2.37E2,1.452E3,-1.606699E-1,3.85E2,5.58E2,6.026986E6,6.026986E6,-1.6044486E-1,5.671336E6,-1.5054822E-1,-1.3765618E-1,-1.6062318E-1,3.6413166E-1,-1.6013698E-1,2.9171094E-1,-1.5656257E-1,-1.5925673E-1,2.3472889E-1,1.3858637E0,-1.3540938E-1,2.4064168E-2,-1.3540938E-1,1.2127836E0,1.7805253E0],"split_indices":[66,34,66,14,24,19,0,37,29,0,1,24,24,0,65,0,8,0,0,24,24,4,0,66,65,0,4,24,1,1,0,18,0,0,0,0,0,0,0,0,0,0,0,0,0,0,0],"split_type":[0,0,0,0,0,0,0,0,0,0,0,0,0,0,0,0,0,0,0,0,0,0,0,0,0,0,0,0,0,0,0,0,0,0,0,0,0,0,0,0,0,0,0,0,0,0,0],"sum_hessian":[2.3035266E5,2.2073273E5,9.61993E3,2.204012E5,3.3152002E2,9.831112E2,8.636818E3,1.7992553E4,2.0240866E5,3.233067E2,8.213334E0,7.337245E2,2.4938669E2,1.197193E4,6.0206226E3,1.8966256E5,1.2746099E4,6.471112E0,1.7422223E0,1.3141335E2,6.0231116E2,1.8791113E2,6.147556E1,5.7250674E3,2.9555557E2,1.0376179E4,2.3699202E3,1.14737785E2,1.6675556E1,6.844445E0,5.9546674E2,1.7310223E2,1.480889E1,6.6951117E2,5.055556E3,1.816889E1,2.773867E2,1.9911114E1,2.350009E3,1.0926223E2,5.475556E0,1.1324446E1,5.3511114E0,1.4933335E0,5.3511114E0,1.19466675E2,5.363556E1],"tree_param":{"num_deleted":"0","num_feature":"77","num_nodes":"47","size_leaf_vector":"1"}},{"base_weights":[-5.356338E-1],"categories":[],"categories_nodes":[],"categories_segments":[],"categories_sizes":[],"default_left":[0],"id":13,"left_children":[-1],"loss_changes":[0E0],"parents":[2147483647],"right_children":[-1],"split_conditions":[-1.6069014E-1],"split_indices":[0],"split_type":[0],"sum_hessian":[2.3035266E5],"tree_param":{"num_deleted":"0","num_feature":"77","num_nodes":"1","size_leaf_vector":"1"}},{"base_weights":[-5.334198E-1,-5.3553516E-1,-4.848319E-1,-1.6067816E-1,-4.950078E-1,-3.8274832E-2,-1.6069567E-1,-5.280455E-1,1.0465117E0,-4.7220397E-1,1.4631495E0,-1.6022566E-1,1.16693676E-1,-5.0640297E-1,3.6729336E-1,1.947117E0,-1.5706648E-1,-3.6786863E-1,-1.604497E-1,1.4046351E0,-1.5142563E-1,2.9370624E-1,2.5331209E0,-1.5653594E-1,1.6277713E-1,5.377677E-1,-1.1294584E-1,1.5589038E-1,-1.463705E-1,7.14028E-2,8.244019E-1],"categories":[],"categories_nodes":[],"categories_segments":[],"categories_sizes":[],"default_left":[0,0,0,0,0,0,0,0,0,0,0,0,0,0,0,0,0,0,0,0,0,0,0,0,0,0,0,0,0,0,0],"id":14,"left_children":[1,3,5,-1,7,9,-1,11,-1,13,15,-1,-1,17,19,21,-1,23,-1,25,-1,27,29,-1,-1,-1,-1,-1,-1,-1,-1],"loss_changes":[2.3414062E1,2.65625E-1,2.1831885E2,0E0,4.560218E1,6.418509E2,0E0,2.0391922E0,0E0,2.2126694E1,2.1340845E2,0E0,0E0,2.6968994E0,2.8293541E1,1.7156183E2,0E0,1.826348E1,0E0,1.0480076E1,0E0,8.67086E0,6.403668E1,0E0,0E0,0E0,0E0,0E0,0E0,0E0,0E0],"parents":[2147483647,0,0,1,1,2,2,4,4,5,5,7,7,9,9,10,10,13,13,14,14,15,15,17,17,19,19,21,21,22,22],"right_children":[2,4,6,-1,8,10,-1,12,-1,14,16,-1,-1,18,20,22,-1,24,-1,26,-1,28,30,-1,-1,-1,-1,-1,-1,-1,-1],"split_conditions":[2.896E4,6.204E3,2.92E4,-1.6067816E-1,6.3516825E5,9.5E1,-1.6069567E-1,5.257932E5,1.0465117E0,9E1,6.593E3,-1.6022566E-1,1.16693676E-1,9.84E2,9.84E2,1.7372674E-1,-1.5706648E-1,5.58E2,-1.604497E-1,5.876157E6,-1.5142563E-1,6.026986E6,5.019867E6,-1.5653594E-1,1.6277713E-1,5.377677E-1,-1.1294584E-1,1.5589038E-1,-1.463705E-1,7.14028E-2,8.244019E-1],"split_indices":[66,34,66,0,26,19,0,26,0,19,24,0,0,24,24,37,0,24,0,20,0,1,20,0,0,0,0,0,0,0,0],"split_type":[0,0,0,0,0,0,0,0,0,0,0,0,0,0,0,0,0,0,0,0,0,0,0,0,0,0,0,0,0,0,0],"sum_hessian":[2.3035266E5,2.2073273E5,9.61993E3,2.204012E5,3.3152002E2,9.831112E2,8.636818E3,3.2965335E2,1.8666668E0,7.6321783E2,2.1989336E2,3.2791113E2,1.7422223E0,7.337245E2,2.9493336E1,1.7683557E2,4.305778E1,1.2730668E2,6.0641785E2,1.31911125E1,1.6302223E1,4.666667E1,1.301689E2,1.0926223E2,1.8044445E1,1.0826668E1,2.3644447E0,3.6462227E1,1.0204445E1,1.1324446E1,1.1884445E2],"tree_param":{"num_deleted":"0","num_feature":"77","num_nodes":"31","size_leaf_vector":"1"}},{"base_weights":[1.0878754E0,1.1171023E0,-4.633078E-1,1.0572248E0,1.1276537E0,7.50773E-1,-5.0671256E-1,1.0920749E0,1.8279561E-1,1.1262946E0,1.6502689E0,1.1481061E0,-3.1569585E-1,-5.192797E-1,1.1295666E0,1.1058207E0,2.1133213E-1,1.3364302E0,-3.9779267E-1,1.1271125E0,3.9210394E-1,8.212814E-2,1.710955E0,1.1620283E0,-3.316926E-1,-5.142355E-1,8.829969E-1,-5.1998997E-1,3.2905918E-1,-1.14389636E-1,3.4792623E-1,1.1384387E0,1.0563821E0,1.216714E0,-1.8382968E-1,4.554434E0,1.291991E0,-4.5730162E-1,2.4271762E0,7.666022E-1,1.12748E0,1.1566823E0,-2.9091197E-1,4.131837E-1,-5.766386E-1,5.1717585E-1,1.3929863E0,3.494345E-1,8.441877E-2,4.2527735E-2,-1.5764257E-1,-1.5631159E-1,2.3454541E-2,1.0778106E0,-1.11007966E-1,2.9257122E-1,-5.206258E-1,3.408756E-1,6.579117E-1,2.52425E-1,3.4677878E-1,3.467175E-1,4.9959263E-1,-9.326823E-2,9.708486E-1,7.3063827E-1,1.76316E0,3.7580454E-1,5.765125E-1,8.147858E-1,-1.5154655E-1,1.0055902E0,3.4316412E-1,2.9666445E-1,-2.518233E-1,3.3828217E-1,1.01912566E-1,3.483166E-1,7.0138057E-3,-1.4742036E-1,3.419429E-1,-1.8606596E-1,1.713227E-1,2.216952E-1,4.845167E-1,9.8197624E-2,3.3693686E-1,-4.829386E-2,-1.5620813E-1],"categories":[],"categories_nodes":[],"categories_segments":[],"categories_sizes":[],"default_left":[0,0,0,0,0,0,0,0,0,0,0,0,0,0,0,0,0,0,0,0,0,0,0,0,0,0,0,0,0,0,0,0,0,0,0,0,0,0,0,0,0,0,0,0,0,0,0,0,0,0,0,0,0,0,0,0,0,0,0,0,0,0,0,0,0,0,0,0,0,0,0,0,0,0,0,0,0,0,0,0,0,0,0,0,0,0,0,0,0],"id":15,"left_children":[1,3,5,7,9,11,13,15,17,19,21,23,25,27,29,31,33,35,37,39,41,43,45,47,49,51,53,55,-1,-1,-1,57,59,61,63,65,67,69,71,73,75,77,79,-1,81,-1,83,-1,-1,-1,-1,-1,-1,85,-1,-1,87,-1,-1,-1,-1,-1,-1,-1,-1,-1,-1,-1,-1,-1,-1,-1,-1,-1,-1,-1,-1,-1,-1,-1,-1,-1,-1,-1,-1,-1,-1,-1,-1],"loss_changes":[3.6417875E4,4.969375E2,7.832361E2,3.5998125E3,4.743125E2,2.1782028E2,2.9554053E2,1.3751562E3,3.033966E3,4.009375E2,1.6510449E2,8.092712E0,3.3791965E1,1.69104E1,5.442749E0,1.791875E2,6.943092E2,2.1097607E2,5.077138E2,8.7625E1,3.8962637E2,5.6887913E1,4.489258E0,5.7141113E-1,4.6576983E-1,5.2762794E-1,5.3475885E0,1.4036377E1,0E0,0E0,0E0,1.5289844E2,9.5084375E2,1.1565186E1,5.4637585E2,4.2473785E1,3.4653564E1,4.4966443E2,7.013718E1,2.4471082E2,6.65625E1,1.7170105E0,1.13727715E2,0E0,2.5692167E0,0E0,9.0742035E0,0E0,0E0,0E0,0E0,0E0,0E0,2.3770523E-1,0E0,0E0,2.6367188E-1,0E0,0E0,0E0,0E0,0E0,0E0,0E0,0E0,0E0,0E0,0E0,0E0,0E0,0E0,0E0,0E0,0E0,0E0,0E0,0E0,0E0,0E0,0E0,0E0,0E0,0E0,0E0,0E0,0E0,0E0,0E0,0E0],"parents":[2147483647,0,0,1,1,2,2,3,3,4,4,5,5,6,6,7,7,8,8,9,9,10,10,11,11,12,12,13,13,14,14,15,15,16,16,17,17,18,18,19,19,20,20,21,21,22,22,23,23,24,24,25,25,26,26,27,27,31,31,32,32,33,33,34,34,35,35,36,36,37,37,38,38,39,39,40,40,41,41,42,42,44,44,46,46,53,53,56,56],"right_children":[2,4,6,8,10,12,14,16,18,20,22,24,26,28,30,32,34,36,38,40,42,44,46,48,50,52,54,56,-1,-1,-1,58,60,62,64,66,68,70,72,74,76,78,80,-1,82,-1,84,-1,-1,-1,-1,-1,-1,86,-1,-1,88,-1,-1,-1,-1,-1,-1,-1,-1,-1,-1,-1,-1,-1,-1,-1,-1,-1,-1,-1,-1,-1,-1,-1,-1,-1,-1,-1,-1,-1,-1,-1,-1],"split_conditions":[1.7293801E3,8E0,6.256071E2,3E0,5.133474E6,1.5559888E6,1.4021E4,1.58E7,7E0,1.5477377E3,2.35E2,1.1595E4,4.38E3,2.43E2,3.51E2,1.47E2,6.4E1,1E0,2.57E2,6E0,1.449375E3,9.8E1,5.019806E6,2.03E3,1.143E3,5E0,1.3344182E3,1.24E2,3.2905918E-1,-1.14389636E-1,3.4792623E-1,4E0,2.825E3,3.52E7,7.01592E6,4E0,1E0,2.56E2,1E0,1.0831536E3,3.56E2,2.912437E6,9E0,4.131837E-1,7.2E2,5.1717585E-1,2.57E2,3.494345E-1,8.441877E-2,4.2527735E-2,-1.5764257E-1,-1.5631159E-1,2.3454541E-2,9.999047E6,-1.11007966E-1,2.9257122E-1,1.1595E4,3.408756E-1,6.579117E-1,2.52425E-1,3.4677878E-1,3.467175E-1,4.9959263E-1,-9.326823E-2,9.708486E-1,7.3063827E-1,1.76316E0,3.7580454E-1,5.765125E-1,8.147858E-1,-1.5154655E-1,1.0055902E0,3.4316412E-1,2.9666445E-1,-2.518233E-1,3.3828217E-1,1.01912566E-1,3.483166E-1,7.0138057E-3,-1.4742036E-1,3.419429E-1,-1.8606596E-1,1.713227E-1,2.216952E-1,4.845167E-1,9.8197624E-2,3.3693686E-1,-4.829386E-2,-1.5620813E-1],"split_indices":[13,52,40,67,19,26,5,73,52,13,65,5,10,66,65,21,34,3,65,4,12,4,73,4,4,3,12,66,0,0,0,2,24,16,71,8,46,65,3,13,38,69,3,0,4,0,65,0,0,0,0,0,0,28,0,0,5,0,0,0,0,0,0,0,0,0,0,0,0,0,0,0,0,0,0,0,0,0,0,0,0,0,0,0,0,0,0,0,0],"split_type":[0,0,0,0,0,0,0,0,0,0,0,0,0,0,0,0,0,0,0,0,0,0,0,0,0,0,0,0,0,0,0,0,0,0,0,0,0,0,0,0,0,0,0,0,0,0,0,0,0,0,0,0,0,0,0,0,0,0,0,0,0,0,0,0,0,0,0,0,0,0,0,0,0,0,0,0,0,0,0,0,0,0,0,0,0,0,0,0,0],"sum_hessian":[8.032719E5,7.8841706E5,1.4854825E4,1.18133414E5,6.702836E5,5.121829E2,1.4342642E4,1.1360546E5,4.5279556E3,6.685482E5,1.7354135E3,3.731007E2,1.3908221E2,1.4234003E4,1.0863932E2,1.1185941E5,1.7460565E3,1.5154465E3,3.012509E3,6.6780375E5,7.4445306E2,6.4744934E1,1.6706685E3,3.6983594E2,3.264773E0,1.19809204E2,1.9273014E1,1.4228428E4,5.574764E0,1.9002807E0,1.06739044E2,6.738132E4,4.4478082E4,4.9206128E2,1.2539952E3,1.926022E1,1.4961863E3,2.9511794E3,6.13295E1,6.8217126E2,6.6712156E5,3.509268E2,3.9352628E2,2.146114E1,4.3283794E1,1.6009707E3,6.9697815E1,3.683616E2,1.4743204E0,1.0261457E0,2.238627E0,1.1856811E2,1.2410972E0,1.680075E1,2.4722643E0,5.3966336E0,1.4223031E4,6.724397E4,1.3735551E2,1.4080847E4,3.0397234E4,4.3631772E2,5.574356E1,1.2099506E3,4.4044716E1,8.49425E0,1.076597E1,1.4110903E3,8.509593E1,4.301508E1,2.9081643E3,3.4706615E1,2.662288E1,5.9957214E2,8.259912E1,6.670134E5,1.081851E2,3.495535E2,1.3733029E0,3.457345E2,4.7791775E1,4.214313E1,1.1406655E0,1.876422E1,5.0933598E1,1.4248799E0,1.5375871E1,3.1313984E0,1.42199E4],"tree_param":{"num_deleted":"0","num_feature":"77","num_nodes":"89","size_leaf_vector":"1"}},{"base_weights":[-5.131788E-1,-5.189238E-1,-4.4011095E-1,-5.191891E-1,-4.476693E-1,-6.529782E-2,-1.5615244E-1,-5.198982E-1,-4.9951765E-1,-5.1347244E-1,7.10455E-1,-2.4156828E-1,1.2724863E0,-1.5624705E-1,-5.159413E-1,-1.5623656E-1,-4.6644726E-1,-1.5592149E-1,-1.908119E-1,1.6624459E0,-1.464654E-1,-5.1815885E-1,5.8978945E-1,1.448967E0,-1.4898406E-1,-4.244059E-1,-5.181402E-1,-1.5607654E-1,-4.3016654E-1,-1.4059024E-1,3.608086E-1,-1.0831794E-1,5.9888726E-1,-1.5593418E-1,-2.9510063E-1,1.6265526E0,-4.750914E-1,-1.10828355E-1,1.5114372E0,-3.4654424E-2,-1.5589544E-1,-1.5617912E-1,-1.4708172E-1,4.1130972E-1,-1.4346926E-1,2.1337299E-1,-1.4102668E-1,4.5548144E-1,1.6504556E0,9.247114E-2,-1.5127967E-1,-1.2919739E-1,1.2452561E-1,4.2432144E-1,5.8040243E-1],"categories":[],"categories_nodes":[],"categories_segments":[],"categories_sizes":[],"default_left":[0,0,0,0,0,0,0,0,0,0,0,0,0,0,0,0,0,0,0,0,0,0,0,0,0,0,0,0,0,0,0,0,0,0,0,0,0,0,0,0,0,0,0,0,0,0,0,0,0,0,0,0,0,0,0],"id":16,"left_children":[1,3,5,7,9,11,-1,13,15,17,19,21,23,-1,25,-1,27,-1,29,31,-1,33,35,37,-1,39,41,-1,43,-1,-1,-1,-1,-1,45,47,49,51,53,-1,-1,-1,-1,-1,-1,-1,-1,-1,-1,-1,-1,-1,-1,-1,-1],"loss_changes":[5.963672E1,2.2734375E0,3.1345227E2,1.578125E0,3.8300316E1,4.3384573E2,0E0,1.953125E-1,2.9986572E0,8.5427856E-1,3.1830338E1,3.7403418E2,6.759592E1,0E0,4.651367E0,0E0,3.3162231E0,0E0,4.6533937E0,1.1108658E1,0E0,2.8793335E-1,4.4923898E2,1.9171112E1,0E0,1.6803734E1,1.3618164E0,0E0,9.492146E1,0E0,0E0,0E0,0E0,0E0,2.2925267E0,7.810181E1,4.752556E0,1.5986922E0,4.9673157E0,0E0,0E0,0E0,0E0,0E0,0E0,0E0,0E0,0E0,0E0,0E0,0E0,0E0,0E0,0E0,0E0],"parents":[2147483647,0,0,1,1,2,2,3,3,4,4,5,5,7,7,8,8,9,9,10,10,11,11,12,12,14,14,16,16,18,18,19,19,21,21,22,22,23,23,25,25,26,26,28,28,34,34,35,35,36,36,37,37,38,38],"right_children":[2,4,6,8,10,12,-1,14,16,18,20,22,24,-1,26,-1,28,-1,30,32,-1,34,36,38,-1,40,42,-1,44,-1,-1,-1,-1,-1,46,48,50,52,54,-1,-1,-1,-1,-1,-1,-1,-1,-1,-1,-1,-1,-1,-1,-1,-1],"split_conditions":[4.88E2,1.8467E4,5.6552E5,2.0408164E4,1.9115957E3,2.5065698E5,-1.5615244E-1,2.37E2,9E0,1.6643635E3,2.78712E5,3.846556E4,7.65E2,-1.5624705E-1,2.43E2,-1.5623656E-1,2.37E2,-1.5592149E-1,3.9437065E1,2E0,-1.464654E-1,3.6028074E4,1.43789E5,4.1569218E1,-1.4898406E-1,1E0,9.6774195E4,-1.5607654E-1,2.43E2,-1.4059024E-1,3.608086E-1,-1.0831794E-1,5.9888726E-1,-1.5593418E-1,1.04E2,6.1304035E4,1.66425E5,3E0,6.960449E3,-3.4654424E-2,-1.5589544E-1,-1.5617912E-1,-1.4708172E-1,4.1130972E-1,-1.4346926E-1,2.1337299E-1,-1.4102668E-1,4.5548144E-1,1.6504556E0,9.247114E-2,-1.5127967E-1,-1.2919739E-1,1.2452561E-1,4.2432144E-1,5.8040243E-1],"split_indices":[29,4,18,37,41,17,0,66,52,41,1,27,19,0,66,0,65,0,37,3,0,27,1,27,0,51,14,0,65,0,0,0,0,0,34,22,1,3,22,0,0,0,0,0,0,0,0,0,0,0,0,0,0,0,0],"split_type":[0,0,0,0,0,0,0,0,0,0,0,0,0,0,0,0,0,0,0,0,0,0,0,0,0,0,0,0,0,0,0,0,0,0,0,0,0,0,0,0,0,0,0,0,0,0,0,0,0,0,0,0,0,0,0],"sum_hessian":[1.4262352E5,1.3222142E5,1.0402104E4,1.3172462E5,4.9678784E2,1.8374924E3,8.564611E3,1.2711746E5,4.607168E3,4.706053E2,2.6182549E1,1.6242905E3,2.1320197E2,1.0291936E5,2.4198104E4,2.794806E3,1.8123619E3,4.6104144E2,9.563861E0,1.4377208E1,1.1805341E1,1.2190819E3,4.0520865E2,1.940273E2,1.9174677E1,5.7219745E2,2.3625906E4,7.2450757E2,1.0878544E3,8.527452E0,1.0364082E0,2.0245368E0,1.2352671E1,1.208962E3,1.0119804E1,2.050477E2,2.0016095E2,7.441791E0,1.8658551E2,1.3537505E2,4.368224E2,2.1695516E4,1.9303915E3,2.7559084E1,1.0602953E3,1.0450845E0,9.074719E0,2.0082764E2,4.2200637E0,6.843626E0,1.9331732E2,4.740204E0,2.701587E0,1.5531866E2,3.126684E1],"tree_param":{"num_deleted":"0","num_feature":"77","num_nodes":"55","size_leaf_vector":"1"}},{"base_weights":[-6.910645E-2,5.406851E-1,-1.5624762E-1,-5.1452804E-1,1.1196241E0,-5.158877E-1,1.8927325E0,-5.081131E-1,1.1277591E0,-5.1802355E-1,-4.3380457E-1,2.4893432E0,-4.0189368E-1,-1.5628883E-1,2.247179E-1,1.1322227E0,-1.5550423E-1,-1.56137E-1,-5.0977254E-1,-4.9140373E-1,2.5584084E-1,7.1142934E-2,-1.4310294E-1,1.1313839E0,4.067471E0,-1.541963E-1,-7.6293536E-2,-1.5189135E-1,6.918221E-2,6.2093884E-1,-1.5259583E-1,3.3962855E-1,-2.1386336E-1,1.8723118E0,2.987575E-1],"categories":[],"categories_nodes":[],"categories_segments":[],"categories_sizes":[],"default_left":[0,0,0,0,0,0,0,0,0,0,0,0,0,0,0,0,0,0,0,0,0,0,0,0,0,0,0,0,0,0,0,0,0,0,0],"id":17,"left_children":[1,3,-1,5,7,9,11,13,15,17,19,-1,21,-1,-1,23,-1,-1,25,27,29,-1,-1,31,33,-1,-1,-1,-1,-1,-1,-1,-1,-1,-1],"loss_changes":[5.0942938E4,4.807915E4,0E0,9.223877E1,6.734922E2,4.6606445E0,2.3781451E2,4.483803E0,3.7213672E2,2.8027344E-1,2.8443909E1,0E0,7.227335E-1,0E0,0E0,1.1957031E2,0E0,0E0,6.5809326E0,7.1989136E0,7.816869E1,0E0,0E0,6.693359E1,8.740465E1,0E0,0E0,0E0,0E0,0E0,0E0,0E0,0E0,0E0,0E0],"parents":[2147483647,0,0,1,1,3,3,4,4,5,5,6,6,7,7,8,8,9,9,10,10,12,12,15,15,18,18,19,19,20,20,23,23,24,24],"right_children":[2,4,-1,6,8,10,12,14,16,18,20,-1,22,-1,-1,24,-1,-1,26,28,30,-1,-1,32,34,-1,-1,-1,-1,-1,-1,-1,-1,-1,-1],"split_conditions":[2.3E1,2E1,-1.5624762E-1,1.3344182E3,2.56E2,1.8E1,1.376E3,4.38E3,2.095815E6,1.2E1,3.7807553E5,2.4893432E0,3.4942307E2,-1.5628883E-1,2.247179E-1,8E0,-1.5550423E-1,-1.56137E-1,6.4102563E3,1.4492754E4,1E0,7.1142934E-2,-1.4310294E-1,8.028E3,3.7E1,-1.541963E-1,-7.6293536E-2,-1.5189135E-1,6.918221E-2,6.2093884E-1,-1.5259583E-1,3.3962855E-1,-2.1386336E-1,1.8723118E0,2.987575E-1],"split_indices":[6,4,0,12,65,4,39,10,25,4,22,0,52,0,0,3,0,0,37,37,3,0,0,19,4,0,0,0,0,0,0,0,0,0,0],"split_type":[0,0,0,0,0,0,0,0,0,0,0,0,0,0,0,0,0,0,0,0,0,0,0,0,0,0,0,0,0,0,0,0,0,0,0],"sum_hessian":[1.8493942E5,7.869969E4,1.06239734E5,2.788136E4,5.081833E4,2.7866406E4,1.4953972E1,2.5240443E2,5.0565926E4,2.7154514E4,7.1189166E2,3.2542017E0,1.1699771E1,2.5043036E2,1.9740647E0,5.042949E4,1.3643503E2,2.0922654E4,6.23186E3,6.5728284E2,5.460879E1,1.0037264E0,1.0696044E1,5.0416465E4,1.3022588E1,6.1297075E3,1.021524E2,6.442849E2,1.299794E1,1.5684922E1,3.892387E1,5.0397418E4,1.9048708E1,7.021859E0,6.000729E0],"tree_param":{"num_deleted":"0","num_feature":"77","num_nodes":"35","size_leaf_vector":"1"}},{"base_weights":[-4.7286925E-1,-4.835415E-1,6.471312E-1,-5.058741E-1,-7.026804E-2,-1.5763468E-1,1.2859713E0,-5.075847E-1,6.1314486E-2,1.1282934E0,-5.1945055E-1,-1.5311971E-1,1.3552743E0,-5.1895356E-1,-4.2507896E-1,-1.5576944E-1,3.4858093E-1,-1.24894E-1,1.1315368E0,1.1586572E-1,-1.5621953E-1,4.0745986E-1,-9.7428344E-2,-5.201845E-1,-2.6846114E-1,7.3584193E-1,-5.20527E-1,-9.64663E-2,3.3985713E-1,-1.3932924E-1,1.6069803E0,-1.54836E-1,-1.5622804E-1,6.6721804E-2,-1.5620004E-1,-1.4779896E-1,4.6765453E-1,-1.5617639E-1,3.5818473E-2,6.2897044E-1,6.460583E-2],"categories":[],"categories_nodes":[],"categories_segments":[],"categories_sizes":[],"default_left":[0,0,0,0,0,0,0,0,0,0,0,0,0,0,0,0,0,0,0,0,0,0,0,0,0,0,0,0,0,0,0,0,0,0,0,0,0,0,0,0,0],"id":18,"left_children":[1,3,5,7,9,-1,11,13,15,17,19,-1,21,23,25,-1,-1,-1,27,29,-1,-1,-1,31,33,35,37,-1,-1,-1,39,-1,-1,-1,-1,-1,-1,-1,-1,-1,-1],"loss_changes":[1.7402832E3,1.3308047E3,1.0302461E3,1.3276172E2,3.9811685E3,0E0,1.1149036E2,1.2771484E2,2.6400146E2,1.0570801E1,4.4387207E0,0E0,4.6538086E0,3.6820312E1,1.8313093E3,0E0,0E0,0E0,4.223633E0,1.0821519E1,0E0,0E0,0E0,1.171875E-2,7.293718E1,1.2703903E3,6.567383E-1,0E0,0E0,0E0,1.9236946E0,0E0,0E0,0E0,0E0,0E0,0E0,0E0,0E0,0E0,0E0],"parents":[2147483647,0,0,1,1,2,2,3,3,4,4,6,6,7,7,8,8,9,9,10,10,12,12,13,13,14,14,18,18,19,19,23,23,24,24,25,25,26,26,30,30],"right_children":[2,4,6,8,10,-1,12,14,16,18,20,-1,22,24,26,-1,-1,-1,28,30,-1,-1,-1,32,34,36,38,-1,-1,-1,40,-1,-1,-1,-1,-1,-1,-1,-1,-1,-1],"split_conditions":[5.133474E6,1.1632E4,5.019806E6,3.52E7,9E0,-1.5763468E-1,6.4E1,9.775294E2,1.45E2,2.651417E6,1E1,-1.5311971E-1,6E0,9.99748E5,3.576E3,-1.5576944E-1,3.4858093E-1,-1.24894E-1,1.2815E4,7.410856E6,-1.5621953E-1,4.0745986E-1,-9.7428344E-2,3.0293169E-2,1.1154186E-1,5.000461E6,7.008861E6,-9.64663E-2,3.3985713E-1,-1.3932924E-1,6.779568E6,-1.54836E-1,-1.5622804E-1,6.6721804E-2,-1.5620004E-1,-1.4779896E-1,4.6765453E-1,-1.5617639E-1,3.5818473E-2,6.2897044E-1,6.460583E-2],"split_indices":[19,5,73,16,3,0,34,13,6,25,3,0,4,19,5,0,0,0,65,25,0,0,0,37,14,28,71,0,0,0,76,0,0,0,0,0,0,0,0,0,0],"split_type":[0,0,0,0,0,0,0,0,0,0,0,0,0,0,0,0,0,0,0,0,0,0,0,0,0,0,0,0,0,0,0,0,0,0,0,0,0,0,0,0,0],"sum_hessian":[1.4556728E5,1.4419386E5,1.3734259E3,1.3680112E5,7.392729E3,4.8443362E2,8.8899225E2,1.3638989E5,4.1122845E2,2.0148795E3,5.3778496E3,3.2786404E1,8.562058E2,1.1986744E5,1.6522463E4,2.6956763E2,1.4166081E2,3.9553041E0,2.0109242E3,1.0643732E1,5.367206E3,8.549089E2,1.2969464E0,1.1928022E5,5.8722034E2,1.2547242E3,1.5267737E4,1.6051413E0,2.009319E3,8.157583E0,2.4861488E0,1.490781E4,1.0437241E5,1.9934804E2,3.878723E2,5.035197E2,7.512045E2,1.5266472E4,1.2664688E0,1.4644006E0,1.0217482E0],"tree_param":{"num_deleted":"0","num_feature":"77","num_nodes":"41","size_leaf_vector":"1"}},{"base_weights":[4.615374E-2,-4.2741054E-1,9.8683023E-1,-4.6634203E-1,7.473402E-1,1.1195956E0,-5.1765966E-1,-1.1534318E-1,-1.561586E-1,-4.5128417E-1,1.0406623E0,-5.1949644E-1,1.1311711E0,-1.5624858E-1,3.108421E-1,-3.7231842E-1,8.61395E-1,-5.072947E-1,6.1637003E-2,1.095758E0,-2.7329704E-1,-1.5708843E-1,-1.04528E-1,1.6756603E0,1.129751E0,-1.564534E-1,-1.4449292E-1,1.2790664E0,-5.680705E-1,-5.097129E-1,1.4235139E-1,-1.5388721E-1,1.789434E0,1.826168E-1,1.1407622E0,-1.5576057E-1,4.3107942E-1,-1.2428155E-1,1.927733E-1,7.4156485E0,4.2859164E-1,1.3072985E0,1.1284704E0,2.548236E-1,-1.419505E-1,3.636921E-1,1.9685237E0,-2.3274036E-1,-1.5666509E-1,-1.5329722E-1,-5.2811902E-2,-9.572541E-2,1.94602E-1,8.301826E-1,-1.4436556E-1,4.644012E-1,-1.5557757E-1,3.4251934E-1,-1.8293794E-2,2.5047052E0,4.649659E-1,1.0623604E0,3.3815706E-1,-1.2233092E-1,3.3857065E-1],"categories":[],"categories_nodes":[],"categories_segments":[],"categories_sizes":[],"default_left":[0,0,0,0,0,0,0,0,0,0,0,0,0,0,0,0,0,0,0,0,0,0,0,0,0,0,0,0,0,0,0,0,0,0,0,0,0,0,0,0,0,0,0,0,0,0,0,0,0,0,0,0,0,0,0,0,0,0,0,0,0,0,0,0,0],"id":19,"left_children":[1,3,5,7,9,11,13,15,-1,17,19,21,23,-1,-1,25,27,29,31,33,35,-1,37,39,41,-1,43,45,47,49,51,-1,53,55,57,-1,-1,-1,-1,59,-1,61,63,-1,-1,-1,-1,-1,-1,-1,-1,-1,-1,-1,-1,-1,-1,-1,-1,-1,-1,-1,-1,-1,-1],"loss_changes":[8.87599E4,6.06159E3,1.3327434E4,2.4397441E3,1.4952524E3,1.1638281E3,2.7182495E1,4.3065513E3,0E0,2.4065186E1,2.4759595E2,6.8356323E-1,4.51875E1,0E0,0E0,4.6162952E2,2.1345078E3,1.2575531E0,8.356818E1,1.345315E2,5.8897095E1,0E0,1.537713E0,2.1103256E2,1.23203125E1,0E0,1.7568019E3,9.675547E2,7.29895E0,2.3054504E-1,1.0431747E0,0E0,4.7957207E1,1.493879E2,3.708496E0,0E0,0E0,0E0,0E0,2.1062012E1,0E0,1.6842047E2,9.578125E0,0E0,0E0,0E0,0E0,0E0,0E0,0E0,0E0,0E0,0E0,0E0,0E0,0E0,0E0,0E0,0E0,0E0,0E0,0E0,0E0,0E0,0E0],"parents":[2147483647,0,0,1,1,2,2,3,3,4,4,5,5,6,6,7,7,9,9,10,10,11,11,12,12,15,15,16,16,17,17,18,18,19,19,20,20,22,22,23,23,24,24,26,26,27,27,28,28,29,29,30,30,32,32,33,33,34,34,39,39,41,41,42,42],"right_children":[2,4,6,8,10,12,14,16,-1,18,20,22,24,-1,-1,26,28,30,32,34,36,-1,38,40,42,-1,44,46,48,50,52,-1,54,56,58,-1,-1,-1,-1,60,-1,62,64,-1,-1,-1,-1,-1,-1,-1,-1,-1,-1,-1,-1,-1,-1,-1,-1,-1,-1,-1,-1,-1,-1],"split_conditions":[1.2991721E3,1E0,1.1601E4,3E0,1.73E2,1.1595E4,2.26E7,1.12E2,-1.561586E-1,9.71E2,2.37E2,1.8803384E3,1.4361926E3,-1.5624858E-1,3.108421E-1,6.4E1,2.99E2,1.41E2,4.653327E1,2.35E2,1.0315389E7,-1.5708843E-1,6.2E1,8.2E7,1.5477377E3,-1.564534E-1,2.84E2,4.3953335E6,4.56E3,1.96E2,1.8E2,-1.5388721E-1,1.2E1,1E0,3.6704E4,-1.5576057E-1,4.3107942E-1,-1.2428155E-1,1.927733E-1,3.65573E5,4.2859164E-1,6.87E7,2E1,2.548236E-1,-1.419505E-1,3.636921E-1,1.9685237E0,-2.3274036E-1,-1.5666509E-1,-1.5329722E-1,-5.2811902E-2,-9.572541E-2,1.94602E-1,8.301826E-1,-1.4436556E-1,4.644012E-1,-1.5557757E-1,3.4251934E-1,-1.8293794E-2,2.5047052E0,4.649659E-1,1.0623604E0,3.3815706E-1,-1.2233092E-1,3.3857065E-1],"split_indices":[13,43,5,52,21,5,27,34,0,29,66,12,13,0,0,34,65,24,37,66,1,0,8,20,13,0,65,74,21,29,1,0,5,3,24,0,0,0,0,25,0,73,4,0,0,0,0,0,0,0,0,0,0,0,0,0,0,0,0,0,0,0,0,0,0],"split_type":[0,0,0,0,0,0,0,0,0,0,0,0,0,0,0,0,0,0,0,0,0,0,0,0,0,0,0,0,0,0,0,0,0,0,0,0,0,0,0,0,0,0,0,0,0,0,0,0,0,0,0,0,0,0,0,0,0,0,0,0,0,0,0,0,0],"sum_hessian":[1.992477E5,1.3252916E5,6.671854E4,1.28278586E5,4.2505786E3,6.130855E4,5.4099883E3,1.7155465E4,1.1112312E5,8.355733E2,3.4150051E3,4.2962268E2,6.087893E4,5.399641E3,1.0347538E1,1.3582573E4,3.5728923E3,7.5332214E2,8.225115E1,3.2777324E3,1.3727266E2,4.2512808E2,4.494594E0,1.5530629E2,6.072362E4,8.206928E3,5.3756455E3,2.7650776E3,8.0781476E2,7.507431E2,2.5790553E0,6.2251858E1,1.9999298E1,1.5419304E2,3.1235396E3,1.2062503E2,1.664763E1,3.4922385E0,1.0023553E0,5.2105107E0,1.5009578E2,4.2751834E2,6.0296105E4,1.335512E3,4.0401335E3,2.7317844E3,3.329324E1,1.43192E2,6.6462274E2,7.4734973E2,3.3934164E0,1.5428127E0,1.0362425E0,1.3826356E1,6.172942E0,5.1908894E1,1.0228414E2,3.1210728E3,2.4666834E0,4.129993E0,1.080518E0,3.0504665E1,3.9701367E2,3.5920465E0,6.029251E4],"tree_param":{"num_deleted":"0","num_feature":"77","num_nodes":"65","size_leaf_vector":"1"}},{"base_weights":[-4.9506053E-1,-5.0870675E-1,9.112177E-1,-5.13091E-1,6.99853E-1,1.1361318E0,-1.5550567E-1,-5.1435876E-1,1.2401421E0,1.1096085E0,-1.550572E-1,1.1663159E0,1.4562914E-1,-5.153818E-1,-8.736724E-2,4.5873776E-1,-1.4674388E-1,-1.3704608E-1,3.4251344E-1,-3.808831E-2,3.539313E-1,3.1613168E-1,-3.8389695E-1,-5.164201E-1,-2.721906E-1,-4.3831956E-1,8.356955E-1,-1.446346E-1,3.3187085E-1,-1.523331E-1,3.5795498E-1,-1.5538912E-1,-1.326678E-1,-9.533436E-2,2.41443E0,-1.4087462E-1,2.913287E-1,8.105573E-1,-1.5591873E-1],"categories":[],"categories_nodes":[],"categories_segments":[],"categories_sizes":[],"default_left":[0,0,0,0,0,0,0,0,0,0,0,0,0,0,0,0,0,0,0,0,0,0,0,0,0,0,0,0,0,0,0,0,0,0,0,0,0,0,0],"id":20,"left_children":[1,3,5,7,9,11,-1,13,15,17,-1,19,21,23,25,-1,-1,-1,-1,27,-1,-1,29,31,33,35,37,-1,-1,-1,-1,-1,-1,-1,-1,-1,-1,-1,-1],"loss_changes":[2.7607812E3,7.551953E2,4.4517603E2,3.16125E2,2.575008E2,3.5559692E1,0E0,6.1914062E1,5.2149323E1,1.992389E1,0E0,1.8836304E1,1.7949032E1,3.5585938E1,1.1058293E2,0E0,0E0,0E0,0E0,7.5350533E0,0E0,0E0,5.2515273E0,1.59140625E1,2.3155408E2,1.1346348E1,2.3933871E2,0E0,0E0,0E0,0E0,0E0,0E0,0E0,0E0,0E0,0E0,0E0,0E0],"parents":[2147483647,0,0,1,1,2,2,3,3,4,4,5,5,7,7,8,8,9,9,11,11,12,12,13,13,14,14,19,19,22,22,23,23,24,24,25,25,26,26],"right_children":[2,4,6,8,10,12,-1,14,16,18,-1,20,22,24,26,-1,-1,-1,-1,28,-1,-1,30,32,34,36,38,-1,-1,-1,-1,-1,-1,-1,-1,-1,-1,-1,-1],"split_conditions":[6.568163E6,5E7,2.0492819E-1,3.56E2,6E0,7.015819E6,-1.5550567E-1,3.8372825E6,8.07E2,2.48E2,-1.550572E-1,1.19E7,6.3255664E7,1.55E2,2.52E2,4.5873776E-1,-1.4674388E-1,-1.3704608E-1,3.4251344E-1,9.238986E7,3.539313E-1,3.1613168E-1,1.77E7,1.01E7,3.5199033E2,7.26E7,5.45E2,-1.446346E-1,3.3187085E-1,-1.523331E-1,3.5795498E-1,-1.5538912E-1,-1.326678E-1,-9.533436E-2,2.41443E0,-1.4087462E-1,2.913287E-1,8.105573E-1,-1.5591873E-1],"split_indices":[69,27,15,38,5,72,0,70,4,6,0,22,1,7,8,0,0,0,0,1,0,0,17,24,13,28,39,0,0,0,0,0,0,0,0,0,0,0,0],"split_type":[0,0,0,0,0,0,0,0,0,0,0,0,0,0,0,0,0,0,0,0,0,0,0,0,0,0,0,0,0,0,0,0,0,0,0,0,0,0,0],"sum_hessian":[1.4383766E5,1.4245592E5,1.3817219E3,1.4194158E5,5.143452E2,1.1940651E3,1.876568E2,1.4183972E5,1.0185704E2,3.848321E2,1.2951312E2,1.1585813E3,3.5483723E1,1.415005E5,3.392262E2,8.737195E1,1.4485093E1,7.462808E0,3.7736926E2,1.2779904E1,1.1458014E3,1.2704807E1,2.2778915E1,1.4089781E5,6.02692E2,2.461602E2,9.3066E1,9.624171E0,3.1557336E0,2.1748585E1,1.0303297E0,1.3802028E5,2.8775198E3,6.0036414E2,2.327856E0,2.4147092E2,4.6892896E0,3.8737904E1,5.43281E1],"tree_param":{"num_deleted":"0","num_feature":"77","num_nodes":"39","size_leaf_vector":"1"}},{"base_weights":[-4.9531412E-1,-5.033029E-1,7.872836E-1,-5.0826013E-1,3.9683363E-1,-1.5545212E-1,1.1169063E0,-5.158081E-1,-5.217099E-2,-5.168108E-1,1.1399302E0,3.4268272E-1,-1.4517517E-1,-5.160662E-1,1.1118202E0,-1.5567762E-1,7.0222336E-1,-1.5588354E-1,-1.07175395E-1,3.4313267E-1,4.7090452E-2,-5.168108E-1,-7.692057E-2,-1.1577883E-1,4.0185294E-1,-1.5473054E-1,1.1135169E0,6.962718E-2,-9.78001E-2,-1.5552998E-1,-1.422964E-1,4.9386182E-1,-1.4924864E-1,-1.2280849E-1,3.4201074E-1],"categories":[],"categories_nodes":[],"categories_segments":[],"categories_sizes":[],"default_left":[0,0,0,0,0,0,0,0,0,0,0,0,0,0,0,0,0,0,0,0,0,0,0,0,0,0,0,0,0,0,0,0,0,0,0],"id":21,"left_children":[1,3,5,7,9,-1,11,13,15,17,19,-1,-1,21,23,-1,25,-1,27,-1,-1,29,31,-1,-1,-1,33,-1,-1,-1,-1,-1,-1,-1,-1],"loss_changes":[1.4753203E3,6.385469E2,3.8416315E2,4.8976172E2,5.3292914E2,0E0,2.9469727E1,5.9371094E1,8.1632764E2,3.4862518E-1,1.4560547E0,0E0,0E0,4.5710938E1,8.192564E0,0E0,4.444979E2,0E0,3.4685665E-1,0E0,0E0,9.386719E0,1.7331366E2,0E0,0E0,0E0,2.7232727E1,0E0,0E0,0E0,0E0,0E0,0E0,0E0,0E0],"parents":[2147483647,0,0,1,1,2,2,3,3,4,4,6,6,7,7,8,8,9,9,10,10,13,13,14,14,16,16,18,18,21,21,22,22,26,26],"right_children":[2,4,6,8,10,-1,12,14,16,18,20,-1,-1,22,24,-1,26,-1,28,-1,-1,30,32,-1,-1,-1,34,-1,-1,-1,-1,-1,-1,-1,-1],"split_conditions":[4.388405E6,5.77E7,1.64E7,5.63595E5,1E0,-1.5545212E-1,3.227E3,3.52E7,3.6E1,2E0,1.6E2,3.4268272E-1,-1.4517517E-1,5E7,1E0,-1.5567762E-1,9.654514E-1,-1.5588354E-1,1.1359651E8,3.4313267E-1,4.7090452E-2,1E0,4.925E1,-1.1577883E-1,4.0185294E-1,-1.5473054E-1,1.995608E6,6.962718E-2,-9.78001E-2,-1.5552998E-1,-1.422964E-1,4.9386182E-1,-1.4924864E-1,-1.2280849E-1,3.4201074E-1],"split_indices":[70,17,26,19,30,0,4,16,68,67,69,0,0,27,30,0,36,0,1,0,0,30,52,0,0,0,1,0,0,0,0,0,0,0,0],"split_type":[0,0,0,0,0,0,0,0,0,0,0,0,0,0,0,0,0,0,0,0,0,0,0,0,0,0,0,0,0,0,0,0,0,0,0],"sum_hessian":[1.4394536E5,1.4305495E5,8.9041766E2,1.4227186E5,7.830912E2,1.7938771E2,7.110299E2,1.3995555E5,2.3163079E3,3.513758E2,4.317154E2,7.002195E2,1.0810455E1,1.3993403E5,2.1507668E1,1.4311484E3,8.851595E2,3.4872284E2,2.6529582E0,4.2987015E2,1.8452554E0,1.3969702E5,2.3702094E2,2.7464485E0,1.8761219E1,2.2338377E2,6.617757E2,1.0164431E0,1.6365151E0,1.3454817E5,5.148849E3,4.592963E1,1.9109131E2,1.1079536E1,6.5069617E2],"tree_param":{"num_deleted":"0","num_feature":"77","num_nodes":"35","size_leaf_vector":"1"}},{"base_weights":[-4.9383768E-1,-5.1106757E-1,-2.676463E-1,-1.5620314E-1,-3.0387297E-1,1.1528205E0,-1.5623237E-1,9.815842E-1,-1.5610674E-1,1.138672E0,1.5181615E0,-1.5518352E-1,1.1452007E0,9.040785E-2,3.4181327E-1,4.636119E-1,4.227648E-2,1.1497048E0,-1.0856336E-1,-1.4748394E-1,3.4600908E-1],"categories":[],"categories_nodes":[],"categories_segments":[],"categories_sizes":[],"default_left":[0,0,0,0,0,0,0,0,0,0,0,0,0,0,0,0,0,0,0,0,0],"id":22,"left_children":[1,3,5,-1,7,9,-1,11,-1,13,15,-1,17,-1,-1,-1,-1,19,-1,-1,-1],"loss_changes":[5.6202344E2,2.6671094E2,3.6724731E3,0E0,1.6544086E3,6.256836E0,0E0,2.1075873E2,0E0,5.377197E-1,1.8283463E0,0E0,5.6627197E0,0E0,0E0,0E0,0E0,5.19635E0,0E0,0E0,0E0],"parents":[2147483647,0,0,1,1,2,2,4,4,5,5,7,7,9,9,10,10,12,12,17,17],"right_children":[2,4,6,-1,8,10,-1,12,-1,14,16,-1,18,-1,-1,-1,-1,20,-1,-1,-1],"split_conditions":[4.88E2,1E0,4.9E1,-1.5620314E-1,7.142857E0,3.1E1,-1.5623237E-1,6.888889E0,-1.5610674E-1,7.7781744E0,4.4260653E5,-1.5518352E-1,8E0,9.040785E-2,3.4181327E-1,4.636119E-1,4.227648E-2,4.4E1,-1.0856336E-1,-1.4748394E-1,3.4600908E-1],"split_indices":[35,30,39,0,8,6,0,8,0,9,16,0,66,0,0,0,0,34,0,0,0],"split_type":[0,0,0,0,0,0,0,0,0,0,0,0,0,0,0,0,0,0,0,0,0],"sum_hessian":[1.4424464E5,1.3403352E5,1.021112E4,1.2809121E5,5.9423013E3,1.5438759E3,8.667244E3,8.559868E2,5.0863145E3,1.4902786E3,5.3597313E1,8.403111E1,7.719557E2,1.615067E0,1.4886635E3,5.2439144E1,1.1581687E0,7.6989197E2,2.0637445E0,1.4157658E0,7.684762E2],"tree_param":{"num_deleted":"0","num_feature":"77","num_nodes":"21","size_leaf_vector":"1"}},{"base_weights":[-5.2081466E-1,-1.5626271E-1,-3.9914727E-1,-1.543774E-1,1.6665981E0,5.976537E-2,6.195085E-1],"categories":[],"categories_nodes":[],"categories_segments":[],"categories_sizes":[],"default_left":[0,0,0,0,0,0,0],"id":23,"left_children":[1,-1,3,-1,5,-1,-1],"loss_changes":[8.4765625E-1,0E0,1.8892635E1,0E0,2.0666761E0,0E0,0E0],"parents":[2147483647,0,0,2,2,4,4],"right_children":[2,-1,4,-1,6,-1,-1],"split_conditions":[1.5404E4,-1.5626271E-1,2.177345E3,-1.543774E-1,6.057035E7,5.976537E-2,6.195085E-1],"split_indices":[34,0,13,0,1,0,0],"split_type":[0,0,0,0,0,0,0],"sum_hessian":[1.4228598E5,1.4221136E5,7.462548E1,7.138692E1,3.238561E0,1.0118865E0,2.2266743E0],"tree_param":{"num_deleted":"0","num_feature":"77","num_nodes":"7","size_leaf_vector":"1"}},{"base_weights":[-5.206738E-1,-1.562207E-1,-3.96371E-1,7.772899E-1,-1.5446198E-1],"categories":[],"categories_nodes":[],"categories_segments":[],"categories_sizes":[],"default_left":[0,0,0,0,0],"id":24,"left_children":[1,-1,3,-1,-1],"loss_changes":[8.8671875E-1,0E0,2.7861343E1,0E0,0E0],"parents":[2147483647,0,0,2,2],"right_children":[2,-1,4,-1,-1],"split_conditions":[2.1252E4,-1.562207E-1,4.9497476E0,7.772899E-1,-1.5446198E-1],"split_indices":[35,0,13,0,0],"split_type":[0,0,0,0,0],"sum_hessian":[1.4228906E5,1.4221512E5,7.393463E1,2.0248814E0,7.190975E1],"tree_param":{"num_deleted":"0","num_feature":"77","num_nodes":"5","size_leaf_vector":"1"}},{"base_weights":[-5.1041913E-1,-4.4094E-1,-5.198088E-1,-4.6967185E-1,1.5407752E0,-4.213028E-1,-5.200107E-1,-4.7994888E-1,1.2250683E0,4.934684E-1,-1.4403331E-1,-1.5567768E-1,4.0930372E-1,-1.561587E-1,-5.104853E-1,-4.9237224E-1,2.6126483E-1,-1.4659247E-1,1.5049338E0,5.797937E-1,-1.4843835E-1,1.381046E0,-5.171424E-1,-5.2064246E-1,-3.2822597E-1,-1.5573949E-1,1.5567653E0,4.9250036E-1,3.4336218E-1,-9.830978E-2,4.5916462E-1,-1.5611911E-1,-1.3094442E-1,-1.5621409E-1,5.7400398E-2,-1.4654206E-1,2.4812717E0,4.914348E-1,-1.246319E-1,4.8562795E-1,-1.539588E-1],"categories":[],"categories_nodes":[],"categories_segments":[],"categories_sizes":[],"default_left":[0,0,0,0,0,0,0,0,0,0,0,0,0,0,0,0,0,0,0,0,0,0,0,0,0,0,0,0,0,0,0,0,0,0,0,0,0,0,0,0,0],"id":25,"left_children":[1,3,5,7,9,11,13,15,17,-1,-1,-1,19,-1,21,23,25,-1,27,-1,-1,29,31,33,35,-1,37,-1,-1,-1,-1,-1,39,-1,-1,-1,-1,-1,-1,-1,-1],"loss_changes":[9.291016E1,9.68897E2,2.28125E0,2.9252368E2,5.1970886E1,2.1496922E1,3.515625E-1,1.5355273E2,4.932582E1,0E0,0E0,0E0,3.974746E1,0E0,8.2917725E1,7.587256E1,2.7914597E2,0E0,2.424759E0,0E0,0E0,6.419903E0,8.109375E0,8.078613E-1,3.3254407E3,0E0,1.732579E1,0E0,0E0,0E0,0E0,0E0,3.8088436E1,0E0,0E0,0E0,0E0,0E0,0E0,0E0,0E0],"parents":[2147483647,0,0,1,1,2,2,3,3,4,4,5,5,6,6,7,7,8,8,12,12,14,14,15,15,16,16,18,18,21,21,22,22,23,23,24,24,26,26,32,32],"right_children":[2,4,6,8,10,12,14,16,18,-1,-1,-1,20,-1,22,24,26,-1,28,-1,-1,30,32,34,36,-1,38,-1,-1,-1,-1,-1,40,-1,-1,-1,-1,-1,-1,-1,-1],"split_conditions":[3.4285715E0,2E0,2E0,1.55E7,4.8E1,1.32E2,1.0295E3,7.2312363E3,2.73404E5,4.934684E-1,-1.4403331E-1,-1.5567768E-1,1.4E2,-1.561587E-1,2E1,1.04E2,1E0,-1.4659247E-1,5.751077E7,5.797937E-1,-1.4843835E-1,2E0,2.1052632E3,1.06E8,4.5814816E2,-1.5573949E-1,4.4E1,4.9250036E-1,3.4336218E-1,-9.830978E-2,4.5916462E-1,-1.5611911E-1,1.0854546E3,-1.5621409E-1,5.7400398E-2,-1.4654206E-1,2.4812717E0,4.914348E-1,-1.246319E-1,4.8562795E-1,-1.539588E-1],"split_indices":[40,38,8,29,34,34,52,14,24,0,0,0,34,0,4,34,46,0,1,0,0,2,37,25,37,0,34,0,0,0,0,0,52,0,0,0,0,0,0,0,0],"split_type":[0,0,0,0,0,0,0,0,0,0,0,0,0,0,0,0,0,0,0,0,0,0,0,0,0,0,0,0,0,0,0,0,0,0,0,0,0,0,0,0,0],"sum_hessian":[1.4276867E5,1.7002904E4,1.2576577E5,1.6760664E4,2.4224098E2,2.614929E2,1.2550428E5,1.6660352E4,1.0031276E2,2.3054878E2,1.16922E1,2.3432721E2,2.7165678E1,1.1897713E5,6.527148E3,1.6386043E4,2.743083E2,1.3977552E1,8.6335205E1,9.694119E0,1.7471558E1,2.2167233E1,6.5049805E3,1.3976719E4,2.4093235E3,1.7156099E2,1.0274732E2,6.0011482E1,2.6323723E1,1.6875378E0,2.0479696E1,6.4502744E3,5.470601E1,1.3975591E4,1.1281853E0,2.366172E3,4.3151173E1,9.883972E1,3.9076009E0,9.228592E0,4.5477417E1],"tree_param":{"num_deleted":"0","num_feature":"77","num_nodes":"41","size_leaf_vector":"1"}},{"base_weights":[-5.0606287E-1,-5.192576E-1,-6.765131E-2,-5.083553E-1,-1.5614755E-1,1.1153492E0,-5.172189E-1,-4.870229E-1,-5.1982015E-1,1.140329E0,-1.4962523E-1,-2.4980097E-1,-1.5620226E-1,-1.5583172E-1,5.8458453E-1,-1.5637854E-1,-4.8400116E-1,-1.05521664E-1,3.429727E-1,1.4334517E0,-1.536786E-1,-4.8319703E-1,1.4416965E0,9.7885504E-2,-1.5626942E-1,6.6439456E-1,-9.979831E-2,4.4859618E-2,-1.4933297E-1,-1.2338478E-1,5.339491E-1,7.024446E-1,-1.4810328E-1],"categories":[],"categories_nodes":[],"categories_segments":[],"categories_sizes":[],"default_left":[0,0,0,0,0,0,0,0,0,0,0,0,0,0,0,0,0,0,0,0,0,0,0,0,0,0,0,0,0,0,0,0,0],"id":26,"left_children":[1,3,5,7,-1,9,11,13,15,17,-1,19,-1,-1,21,-1,23,-1,-1,25,-1,27,29,31,-1,-1,-1,-1,-1,-1,-1,-1,-1],"loss_changes":[8.289961E2,1.609375E0,2.2281377E3,3.2175293E0,0E0,4.7085938E1,2.6748657E0,1.7318225E2,2.2387695E-1,5.3415527E0,0E0,1.8691126E1,0E0,0E0,1.3486292E2,0E0,8.006248E0,0E0,0E0,8.664465E0,0E0,6.8350697E-1,5.184091E1,3.1597166E1,0E0,0E0,0E0,0E0,0E0,0E0,0E0,0E0,0E0],"parents":[2147483647,0,0,1,1,2,2,3,3,5,5,6,6,7,7,8,8,9,9,11,11,14,14,16,16,19,19,21,21,22,22,23,23],"right_children":[2,4,6,8,-1,10,12,14,16,18,-1,20,-1,-1,22,-1,24,-1,-1,26,-1,28,30,32,-1,-1,-1,-1,-1,-1,-1,-1,-1],"split_conditions":[1E3,1.1154186E-1,9.52E1,2.62E2,-1.5614755E-1,2.2920676E7,5.705E3,2.58E2,6.8E1,2.6205375E5,-1.4962523E-1,2.49E2,-1.5620226E-1,-1.5583172E-1,1.1512779E2,-1.5637854E-1,7.6E1,-1.05521664E-1,3.429727E-1,4.382E3,-1.536786E-1,3E0,2.4E1,3.04E3,-1.5626942E-1,6.6439456E-1,-9.979831E-2,4.4859618E-2,-1.4933297E-1,-1.2338478E-1,5.339491E-1,7.024446E-1,-1.4810328E-1],"split_indices":[35,14,40,65,0,1,5,65,35,26,0,66,0,0,37,0,35,0,0,4,0,16,68,1,0,0,0,0,0,0,0,0,0],"split_type":[0,0,0,0,0,0,0,0,0,0,0,0,0,0,0,0,0,0,0,0,0,0,0,0,0,0,0,0,0,0,0,0,0],"sum_hessian":[1.4331347E5,1.3912606E5,4.1874146E3,1.4190446E4,1.2493561E5,1.1526993E3,3.0347153E3,4.975728E3,9.214719E3,1.135421E3,1.7278254E1,3.9645775E1,2.9950696E3,4.830132E3,1.4559644E2,8.845187E3,3.6953198E2,1.9791746E0,1.1334419E3,4.746063E0,3.489971E1,6.5025085E1,8.057135E1,2.193593E1,3.4759604E2,3.1144807E0,1.6315826E0,1.2560987E0,6.376899E1,1.2400424E1,6.817092E1,3.959766E0,1.7976164E1],"tree_param":{"num_deleted":"0","num_feature":"77","num_nodes":"33","size_leaf_vector":"1"}},{"base_weights":[-5.128873E-1,-5.193812E-1,-3.728828E-1,-5.1973826E-1,-3.0185205E-1,4.5681283E-1,-1.5627764E-1,-5.134287E-1,-5.203016E-1,-1.5565072E-1,1.7426716E0,1.3091115E0,-5.194971E-1,-1.5628023E-1,-5.011511E-1,-1.5623908E-1,-5.132912E-1,5.5961835E-1,-8.291873E-2,-4.758457E-1,1.6683059E0,-2.7557644E-1,-1.5652545E-1,-5.0809646E-1,-3.77621E-1,-1.5624514E-1,-4.7810215E-1,-1.561108E-1,3.2741565E-1,1.7304581E0,-1.5039732E-1,-5.0157808E-2,-1.164213E-1,-1.4211681E-1,-1.5613799E-1,3.2591754E-1,-1.5558031E-1,3.2792506E-1,-1.4960316E-1,3.6444908E-1,-1.1465238E-1,-1.4090131E-1,5.258787E-1,6.8630524E-2,-8.524791E-2],"categories":[],"categories_nodes":[],"categories_segments":[],"categories_sizes":[],"default_left":[0,0,0,0,0,0,0,0,0,0,0,0,0,0,0,0,0,0,0,0,0,0,0,0,0,0,0,0,0,0,0,0,0,0,0,0,0,0,0,0,0,0,0,0,0],"id":27,"left_children":[1,3,5,7,9,11,-1,13,15,-1,17,19,21,-1,23,-1,25,-1,-1,27,29,31,-1,33,35,-1,37,-1,39,41,-1,43,-1,-1,-1,-1,-1,-1,-1,-1,-1,-1,-1,-1,-1],"loss_changes":[1.295E2,1.0433594E1,7.7738074E2,2.1875E-1,1.0105289E2,7.9827136E2,0E0,7.734375E-1,1.640625E-1,0E0,5.93943E0,3.2909027E2,1.0227966E-1,0E0,3.4865723E0,0E0,1.9519043E0,0E0,0E0,3.2660255E0,5.8378418E1,1.381948E-1,0E0,1.4771729E0,4.8470848E1,0E0,4.8270905E1,0E0,3.7132714E0,2.1332275E1,0E0,2.7505764E-1,0E0,0E0,0E0,0E0,0E0,0E0,0E0,0E0,0E0,0E0,0E0,0E0,0E0],"parents":[2147483647,0,0,1,1,2,2,3,3,4,4,5,5,7,7,8,8,10,10,11,11,12,12,14,14,16,16,19,19,20,20,21,21,23,23,24,24,26,26,28,28,29,29,31,31],"right_children":[2,4,6,8,10,12,-1,14,16,-1,18,20,22,-1,24,-1,26,-1,-1,28,30,32,-1,34,36,-1,38,-1,40,42,-1,44,-1,-1,-1,-1,-1,-1,-1,-1,-1,-1,-1,-1,-1],"split_conditions":[2.896E4,6.204E3,2.92E4,1.23E2,5.58E2,1.85E3,-1.5627764E-1,2.8E1,8.46E2,-1.5565072E-1,4.1990092E7,5.58E2,4.472E3,-1.5628023E-1,1.305E3,-1.5623908E-1,9.5333336E1,5.5961835E-1,-8.291873E-2,4.8E2,6.026986E6,6.026986E6,-1.5652545E-1,2.37E2,1.452E3,-1.5624514E-1,3.85E2,-1.561108E-1,5.947511E6,8.2127225E5,-1.5039732E-1,7.8E1,-1.164213E-1,-1.4211681E-1,-1.5613799E-1,3.2591754E-1,-1.5558031E-1,3.2792506E-1,-1.4960316E-1,3.6444908E-1,-1.1465238E-1,-1.4090131E-1,5.258787E-1,6.8630524E-2,-8.524791E-2],"split_indices":[66,34,66,1,24,24,0,35,29,0,1,24,24,0,65,0,8,0,0,24,1,1,0,66,65,0,4,0,1,22,0,19,0,0,0,0,0,0,0,0,0,0,0,0,0],"split_type":[0,0,0,0,0,0,0,0,0,0,0,0,0,0,0,0,0,0,0,0,0,0,0,0,0,0,0,0,0,0,0,0,0,0,0,0,0,0,0,0,0,0,0,0,0],"sum_hessian":[1.4265012E5,1.3632417E5,6.3259604E3,1.3609942E5,2.2474919E2,9.5751935E2,5.368441E3,1.1230205E4,1.2486922E5,2.0385992E2,2.0889261E1,5.1104587E2,4.464735E2,6.9438965E3,4.286309E3,1.16560195E5,8.309022E3,1.9764074E1,1.1251872E0,8.555746E1,4.254884E2,5.217264E0,4.4125623E2,4.0551953E3,2.3111363E2,6.8336885E3,1.4753344E3,8.139787E1,4.159585E0,4.1383588E2,1.165252E1,2.2182207E0,2.9990435E0,1.0831295E3,2.972066E3,1.9711607E1,2.1140202E2,1.8396328E1,1.456938E3,1.531843E0,2.627742E0,3.982758E0,4.0985312E2,1.0221732E0,1.1960475E0],"tree_param":{"num_deleted":"0","num_feature":"77","num_nodes":"45","size_leaf_vector":"1"}},{"base_weights":[-5.207502E-1],"categories":[],"categories_nodes":[],"categories_segments":[],"categories_sizes":[],"default_left":[0],"id":28,"left_children":[-1],"loss_changes":[0E0],"parents":[2147483647],"right_children":[-1],"split_conditions":[-1.5622507E-1],"split_indices":[0],"split_type":[0],"sum_hessian":[1.4228703E5],"tree_param":{"num_deleted":"0","num_feature":"77","num_nodes":"1","size_leaf_vector":"1"}},{"base_weights":[-5.1721424E-1,-5.205798E-1,-4.4227144E-1,-1.562019E-1,-4.581616E-1,1.1488891E-1,-1.5627764E-1,-1.5563753E-1,1.8610711E0,-4.7971246E-1,1.231E0,9.7634137E-1,-1.1006072E-1,-2.8175777E-1,-1.5647331E-1,1.5440693E0,-1.5308167E-1,-5.023444E-1,7.359233E-1,1.6584272E0,-1.4616828E-1,-1.5464292E-1,-4.2965345E-2,4.1603485E-1,-1.3591938E-1,5.518477E-1,2.9984465E-1],"categories":[],"categories_nodes":[],"categories_segments":[],"categories_sizes":[],"default_left":[0,0,0,0,0,0,0,0,0,0,0,0,0,0,0,0,0,0,0,0,0,0,0,0,0,0,0],"id":29,"left_children":[1,3,5,-1,7,9,-1,-1,11,13,15,-1,-1,17,-1,19,-1,21,23,25,-1,-1,-1,-1,-1,-1,-1],"loss_changes":[3.5691406E1,5.5078125E-1,2.6857312E2,0E0,3.0709068E1,5.041582E2,0E0,0E0,1.8599936E1,3.9617462E0,1.4471487E2,0E0,0E0,2.0286648E1,0E0,5.284961E1,0E0,2.7285767E-1,1.3173233E1,2.3493652E1,0E0,0E0,0E0,0E0,0E0,0E0,0E0],"parents":[2147483647,0,0,1,1,2,2,4,4,5,5,8,8,9,9,10,10,13,13,15,15,17,17,18,18,19,19],"right_children":[2,4,6,-1,8,10,-1,-1,12,14,16,-1,-1,18,-1,20,-1,22,24,26,-1,-1,-1,-1,-1,-1,-1],"split_conditions":[2.896E4,6.204E3,2.92E4,-1.562019E-1,5.257932E5,9E1,-1.5627764E-1,-1.5563753E-1,7.317804E7,9.84E2,6.593E3,9.7634137E-1,-1.1006072E-1,5.58E2,-1.5647331E-1,6E0,-1.5308167E-1,4.19E2,6.026986E6,5.671336E6,-1.4616828E-1,-1.5464292E-1,-4.2965345E-2,4.1603485E-1,-1.3591938E-1,5.518477E-1,2.9984465E-1],"split_indices":[66,34,66,0,26,19,0,0,1,24,24,0,0,24,0,4,0,24,1,18,0,0,0,0,0,0,0],"split_type":[0,0,0,0,0,0,0,0,0,0,0,0,0,0,0,0,0,0,0,0,0,0,0,0,0,0,0],"sum_hessian":[1.4241067E5,1.3628442E5,6.126236E3,1.360739E5,2.105241E2,7.577951E2,5.368441E3,2.0591725E2,4.606849E0,4.9477628E2,2.6301886E2,2.5507832E0,2.056066E0,8.7722176E1,4.070541E2,2.2303235E2,3.9986496E1,7.2511406E1,1.521077E1,2.1131908E2,1.1713277E1,6.953345E1,2.9779584E0,9.7223425E0,5.488427E0,1.6436363E2,4.6955437E1],"tree_param":{"num_deleted":"0","num_feature":"77","num_nodes":"27","size_leaf_vector":"1"}},{"base_weights":[8.5163426E-1,8.7117624E-1,-4.5461866E-1,8.207054E-1,8.801432E-1,6.1599076E-1,-5.0085E-1,8.4415853E-1,1.6135092E-1,8.8128954E-1,5.65785E-1,8.9477676E-1,-3.0025977E-1,-5.1438326E-1,8.7819195E-1,8.536195E-1,1.968335E-1,9.6708536E-1,-3.798575E-1,8.806487E-1,1.0874966E0,-5.9048885E-1,8.6048394E-1,9.0584284E-1,-3.3295164E-1,-1.5457785E-1,6.723216E-1,-5.151729E-1,2.6285407E-1,-1.0797221E-1,2.7029854E-1,8.8484335E-1,8.077315E-1,9.2797786E-1,-1.3779925E-1,5.4824084E-1,9.957478E-1,9.5349413E-1,-4.6401736E-1,8.809652E-1,6.432017E-1,5.988808E-2,1.1185156E0,-7.041069E-1,-1.5549865E-1,9.633047E-1,-4.954823E-1,2.7243474E-1,6.205403E-2,3.800575E-2,-1.5734531E-1,8.420603E-1,-1.12485155E-1,2.3451808E-1,-5.1587564E-1,2.6467025E-1,4.265334E-1,1.8989828E-1,2.6415277E-1,2.6785055E-1,3.3127275E-1,-1.6406617E-1,1.2679766E-1,2.7017874E-1,-7.617547E-2,3.004688E-1,-1.9984283E-1,5.570619E-1,1.8439077E-1,-1.4496191E-1,5.497292E-1,-1.6282418E-1,2.6430312E-1,2.6851934E-1,-1.6180804E-1,3.015924E-1,-1.6387294E-1,3.3748958E-1,2.854415E-1,-1.4305955E-1,-2.1774225E-1,3.1087562E-1,2.6615626E-1,2.0775096E-1,-1.5829292E-1,-1.1136063E-3,2.6837546E-1,-4.667735E-2,-1.5478826E-1],"categories":[],"categories_nodes":[],"categories_segments":[],"categories_sizes":[],"default_left":[0,0,0,0,0,0,0,0,0,0,0,0,0,0,0,0,0,0,0,0,0,0,0,0,0,0,0,0,0,0,0,0,0,0,0,0,0,0,0,0,0,0,0,0,0,0,0,0,0,0,0,0,0,0,0,0,0,0,0,0,0,0,0,0,0,0,0,0,0,0,0,0,0,0,0,0,0,0,0,0,0,0,0,0,0,0,0,0,0],"id":30,"left_children":[1,3,5,7,9,11,13,15,17,19,21,23,25,27,29,31,33,35,37,39,41,43,45,47,49,-1,51,53,-1,-1,-1,55,57,59,61,63,65,67,69,71,73,75,77,79,-1,81,83,-1,-1,-1,-1,85,-1,-1,87,-1,-1,-1,-1,-1,-1,-1,-1,-1,-1,-1,-1,-1,-1,-1,-1,-1,-1,-1,-1,-1,-1,-1,-1,-1,-1,-1,-1,-1,-1,-1,-1,-1,-1],"loss_changes":[2.0419E4,3.560625E2,5.83907E2,1.8386875E3,2.40625E2,1.25057495E2,2.1140479E2,7.030625E2,1.781967E3,8.715625E1,8.299647E2,5.3938904E0,2.4334091E1,1.2742676E1,3.4359818E0,1.6142969E2,4.0513577E2,1.916504E1,2.7477267E2,4.9375E1,6.564453E1,3.693283E0,2.7098303E2,4.02771E-1,4.2557806E-1,0E0,4.084667E0,1.0601074E1,0E0,0E0,0E0,9.308984E1,5.8234375E2,2.234436E0,2.6079935E2,3.0580925E1,1.5505493E1,4.339035E1,1.0224786E2,4.3125E1,2.6514355E2,3.576948E1,1.0854492E0,5.8823395E-1,0E0,9.096313E0,5.6154594E0,0E0,0E0,0E0,0E0,8.275175E-1,0E0,0E0,2.6245117E-1,0E0,0E0,0E0,0E0,0E0,0E0,0E0,0E0,0E0,0E0,0E0,0E0,0E0,0E0,0E0,0E0,0E0,0E0,0E0,0E0,0E0,0E0,0E0,0E0,0E0,0E0,0E0,0E0,0E0,0E0,0E0,0E0,0E0,0E0],"parents":[2147483647,0,0,1,1,2,2,3,3,4,4,5,5,6,6,7,7,8,8,9,9,10,10,11,11,12,12,13,13,14,14,15,15,16,16,17,17,18,18,19,19,20,20,21,21,22,22,23,23,24,24,26,26,27,27,31,31,32,32,33,33,34,34,35,35,36,36,37,37,38,38,39,39,40,40,41,41,42,42,43,43,45,45,46,46,51,51,54,54],"right_children":[2,4,6,8,10,12,14,16,18,20,22,24,26,28,30,32,34,36,38,40,42,44,46,48,50,-1,52,54,-1,-1,-1,56,58,60,62,64,66,68,70,72,74,76,78,80,-1,82,84,-1,-1,-1,-1,86,-1,-1,88,-1,-1,-1,-1,-1,-1,-1,-1,-1,-1,-1,-1,-1,-1,-1,-1,-1,-1,-1,-1,-1,-1,-1,-1,-1,-1,-1,-1,-1,-1,-1,-1,-1,-1],"split_conditions":[1.7293801E3,8E0,6.256071E2,3E0,1.2991721E3,1.5559888E6,1.4021E4,1.38E7,7E0,5.133474E6,2.99E2,1.1595E4,5E0,2.43E2,3.51E2,1.7E2,6.4E1,1.5051E4,3.827234E4,4.388405E6,2.35E2,1.4361926E3,2E0,2.03E3,1.143E3,-1.5457785E-1,1.3344182E3,1.24E2,2.6285407E-1,-1.0797221E-1,2.7029854E-1,1E0,1.151E3,5.88E7,3.1366E4,2.857E3,2.34E7,2.56E2,6.593E3,6E0,1.64E7,9.8E1,5.019806E6,2.35E2,-1.5549865E-1,1.4361926E3,6.888889E0,2.7243474E-1,6.205403E-2,3.800575E-2,-1.5734531E-1,8E2,-1.12485155E-1,2.3451808E-1,1.1595E4,2.6467025E-1,4.265334E-1,1.8989828E-1,2.6415277E-1,2.6785055E-1,3.3127275E-1,-1.6406617E-1,1.2679766E-1,2.7017874E-1,-7.617547E-2,3.004688E-1,-1.9984283E-1,5.570619E-1,1.8439077E-1,-1.4496191E-1,5.497292E-1,-1.6282418E-1,2.6430312E-1,2.6851934E-1,-1.6180804E-1,3.015924E-1,-1.6387294E-1,3.3748958E-1,2.854415E-1,-1.4305955E-1,-2.1774225E-1,3.1087562E-1,2.6615626E-1,2.0775096E-1,-1.5829292E-1,-1.1136063E-3,2.6837546E-1,-4.667735E-2,-1.5478826E-1],"split_indices":[13,52,40,67,13,26,5,73,52,19,65,5,3,66,65,23,34,23,22,70,65,13,51,4,4,0,12,66,0,0,0,30,24,73,72,21,17,65,24,40,26,4,73,66,0,13,8,0,0,0,0,72,0,0,5,0,0,0,0,0,0,0,0,0,0,0,0,0,0,0,0,0,0,0,0,0,0,0,0,0,0,0,0,0,0,0,0,0,0],"split_type":[0,0,0,0,0,0,0,0,0,0,0,0,0,0,0,0,0,0,0,0,0,0,0,0,0,0,0,0,0,0,0,0,0,0,0,0,0,0,0,0,0,0,0,0,0,0,0,0,0,0,0,0,0,0,0,0,0,0,0,0,0,0,0,0,0,0,0,0,0,0,0,0,0,0,0,0,0,0,0,0,0,0,0,0,0,0,0,0,0],"sum_hessian":[7.9989006E5,7.881002E5,1.1789883E4,1.18909336E5,6.691908E5,4.875292E2,1.1302354E4,1.1482476E5,4.084579E3,6.667576E5,2.4331895E3,3.7381314E2,1.13716064E2,1.1193137E4,1.0921669E2,1.131704E5,1.6543579E3,1.6408883E3,2.443691E3,6.646971E5,2.0605127E3,4.9398764E2,1.9392019E3,3.7073373E2,3.079409E0,9.351399E1,2.0202074E1,1.1187414E4,5.7233253E0,1.7078075E0,1.0750888E2,6.7334945E4,4.5835453E4,5.1887866E2,1.1354792E3,1.06386566E2,1.5345017E3,1.4447244E2,2.2992185E3,6.6380956E5,8.8759106E2,6.0461353E1,2.0000514E3,1.8847331E2,3.0551434E2,1.8027888E3,1.3641304E2,3.6923392E2,1.4998056E0,1.0053508E0,2.074058E0,1.7553074E1,2.6490006E0,5.4572105E0,1.1181956E4,6.701194E4,3.230029E2,1.3480018E4,3.2355438E4,4.3768134E2,8.119733E1,6.563918E2,4.7908746E2,7.3832375E1,3.2554188E1,1.5295474E3,4.9544115E0,3.818729E1,1.0628516E2,2.2809487E3,1.8269855E1,2.0672941E1,6.637889E5,7.319443E2,1.556468E2,2.3362646E1,3.709871E1,1.9201796E3,7.987182E1,1.8432152E1,1.7004115E2,9.14122E2,8.886668E2,3.0543897E0,1.3335866E2,1.0806885E0,1.6472385E1,3.074023E0,1.1178883E4],"tree_param":{"num_deleted":"0","num_feature":"77","num_nodes":"89","size_leaf_vector":"1"}},{"base_weights":[-5.0677407E-1,-5.137217E-1,-4.2032838E-1,-5.140302E-1,-4.3215388E-1,-2.481487E-2,-1.5469125E-1,-5.151505E-1,-4.94368E-1,-5.0954485E-1,5.7351196E-1,-5.0956404E-1,3.921555E-1,-1.5482979E-1,-5.1076704E-1,-1.5482666E-1,-4.5859185E-1,-1.5443757E-1,-1.9455077E-1,1.2174468E0,-1.435943E-1,-1.5474142E-1,-1.5775639E-1,8.3536905E-1,-4.5096177E-1,-3.833781E-1,-5.1381904E-1,-1.5470771E-1,-4.15085E-1,2.172936E-1,-1.3234288E-1,-1.03595115E-1,1.4130911E0,5.308356E-1,-1.432942E-1,1.0090224E0,-1.5313742E-1,6.0612005E-1,-5.014201E-1,6.530112E-2,-1.5472439E-1,-1.462787E-1,-1.5482095E-1,3.9248297E-1,-1.4182031E-1,5.5339044E-1,2.9653805E-1,-1.5054256E-1,3.3368698E-1,-1.2763017E-1,3.4764877E-1,-9.070556E-2,-1.5323125E-1],"categories":[],"categories_nodes":[],"categories_segments":[],"categories_sizes":[],"default_left":[0,0,0,0,0,0,0,0,0,0,0,0,0,0,0,0,0,0,0,0,0,0,0,0,0,0,0,0,0,0,0,0,0,0,0,0,0,0,0,0,0,0,0,0,0,0,0,0,0,0,0,0,0],"id":31,"left_children":[1,3,5,7,9,11,-1,13,15,17,19,21,23,-1,25,-1,27,-1,29,31,-1,-1,33,35,37,39,41,-1,43,-1,-1,-1,45,-1,-1,47,-1,49,51,-1,-1,-1,-1,-1,-1,-1,-1,-1,-1,-1,-1,-1,-1],"loss_changes":[6.738281E1,2.4023438E0,3.158275E2,2.03125E0,3.1335968E1,3.2926678E2,0E0,1.4453125E-1,4.1295166E0,5.1286316E-1,2.0211937E1,1.5724182E0,3.2763373E2,0E0,6.632324E0,0E0,5.0815125E0,0E0,2.0607262E0,6.069296E0,0E0,0E0,9.82735E0,1.3474847E2,1.6433521E1,3.3121094E1,7.602539E-1,0E0,1.213248E2,0E0,0E0,0E0,1.1855812E0,0E0,0E0,7.998169E1,0E0,8.6060915E0,3.8384247E-1,0E0,0E0,0E0,0E0,0E0,0E0,0E0,0E0,0E0,0E0,0E0,0E0,0E0,0E0],"parents":[2147483647,0,0,1,1,2,2,3,3,4,4,5,5,7,7,8,8,9,9,10,10,11,11,12,12,14,14,16,16,18,18,19,19,22,22,23,23,24,24,25,25,26,26,28,28,32,32,35,35,37,37,38,38],"right_children":[2,4,6,8,10,12,-1,14,16,18,20,22,24,-1,26,-1,28,-1,30,32,-1,-1,34,36,38,40,42,-1,44,-1,-1,-1,46,-1,-1,48,-1,50,52,-1,-1,-1,-1,-1,-1,-1,-1,-1,-1,-1,-1,-1,-1],"split_conditions":[4.88E2,1.8467E4,5.6552E5,1.5151516E4,1.8504967E3,5.8344E4,-1.5469125E-1,2.37E2,9E0,1.6643635E3,2.78712E5,3.0349902E4,4.925E1,-1.5482979E-1,2.43E2,-1.5482666E-1,2.37E2,-1.5443757E-1,1.366E3,2E0,-1.435943E-1,-1.5474142E-1,2.0374312E4,7.65E2,1.01256E5,3.6166668E1,2.8E1,-1.5470771E-1,2.38E2,2.172936E-1,-1.3234288E-1,-1.03595115E-1,5E1,5.308356E-1,-1.432942E-1,3E0,-1.5313742E-1,3.0767373E4,1.2903E5,6.530112E-2,-1.5472439E-1,-1.462787E-1,-1.5482095E-1,3.9248297E-1,-1.4182031E-1,5.5339044E-1,2.9653805E-1,-1.5054256E-1,3.3368698E-1,-1.2763017E-1,3.4764877E-1,-9.070556E-2,-1.5323125E-1],"split_indices":[29,4,18,37,41,23,0,66,52,41,1,22,52,0,66,0,65,0,5,3,0,0,21,19,1,40,34,0,65,0,0,0,3,0,0,3,0,27,1,0,0,0,0,0,0,0,0,0,0,0,0,0,0],"split_type":[0,0,0,0,0,0,0,0,0,0,0,0,0,0,0,0,0,0,0,0,0,0,0,0,0,0,0,0,0,0,0,0,0,0,0,0,0,0,0,0,0,0,0,0,0,0,0,0,0,0,0,0,0],"sum_hessian":[1.125546E5,1.04177E5,8.377606E3,1.03779125E5,3.978686E2,1.6270284E3,6.7505776E3,9.8161266E4,5.6178604E3,3.6989655E2,2.7972052E1,7.522628E2,8.747656E2,8.059852E4,1.7562744E4,3.4872253E3,2.1306353E3,3.6321198E2,6.6845613E0,1.7254803E1,1.0717248E1,7.386931E2,1.3569709E1,5.7336554E2,3.0140012E2,4.1388855E2,1.7148855E4,9.166828E2,1.2139524E3,1.0044491E0,5.680112E0,1.8346883E0,1.5420115E1,1.2866657E0,1.2283044E1,5.080603E2,6.530523E1,1.3229759E1,2.8817035E2,7.458374E1,3.393048E2,1.3727422E3,1.5776113E4,3.8592083E1,1.1753602E3,5.9892616E0,9.430854E0,3.2258007E1,4.758023E2,4.6958637E0,8.5338955E0,1.4424313E1,2.7374603E2],"tree_param":{"num_deleted":"0","num_feature":"77","num_nodes":"53","size_leaf_vector":"1"}},{"base_weights":[-6.411011E-2,4.557043E-1,-1.5482913E-1,-5.082821E-1,8.768301E-1,-5.0981337E-1,7.074432E-1,-5.015703E-1,8.823473E-1,-5.124783E-1,-4.106401E-1,1.2894595E0,-3.750865E-1,-1.5473323E-1,1.855341E-1,8.8534087E-1,-1.5377001E-1,-1.5466997E-1,-5.019951E-1,-4.6811736E-1,4.2584154E-1,4.3235266E-1,-1.23878635E-1,7.0514806E-2,-1.390245E-1,8.8588375E-1,-7.1839374E-1,-1.5224525E-1,-6.43799E-2,-1.4569302E-1,7.5468644E-2,6.764276E-1,-1.4905082E-1,2.6590756E-1,-1.5322937E-1,-2.3522443E-1,-1.2796082E-1],"categories":[],"categories_nodes":[],"categories_segments":[],"categories_sizes":[],"default_left":[0,0,0,0,0,0,0,0,0,0,0,0,0,0,0,0,0,0,0,0,0,0,0,0,0,0,0,0,0,0,0,0,0,0,0,0,0],"id":32,"left_children":[1,3,-1,5,7,9,11,13,15,17,19,21,23,-1,-1,25,-1,-1,27,29,31,-1,-1,-1,-1,33,35,-1,-1,-1,-1,-1,-1,-1,-1,-1,-1],"loss_changes":[3.671231E4,2.950364E4,0E0,4.1496094E1,3.8509766E2,5.6220703E0,1.8260984E1,3.5377197E0,2.1082422E2,4.3701172E-1,2.8207321E1,5.392729E0,6.823635E-1,0E0,0E0,4.4398438E1,0E0,0E0,7.664551E0,7.0034485E0,6.520892E1,0E0,0E0,0E0,0E0,3.3773438E1,2.248764E-3,0E0,0E0,0E0,0E0,0E0,0E0,0E0,0E0,0E0,0E0],"parents":[2147483647,0,0,1,1,3,3,4,4,5,5,6,6,7,7,8,8,9,9,10,10,11,11,12,12,15,15,18,18,19,19,20,20,25,25,26,26],"right_children":[2,4,-1,6,8,10,12,14,16,18,20,22,24,-1,-1,26,-1,-1,28,30,32,-1,-1,-1,-1,34,36,-1,-1,-1,-1,-1,-1,-1,-1,-1,-1],"split_conditions":[2.3E1,2E1,-1.5482913E-1,1.3344182E3,2.56E2,1.8E1,1.376E3,4.38E3,2.095815E6,1.2E1,2.2707922E6,1.2903E5,3.4942307E2,-1.5473323E-1,1.855341E-1,8.028E3,-1.5377001E-1,-1.5466997E-1,5.899705E3,1.4492754E4,1E0,4.3235266E-1,-1.23878635E-1,7.0514806E-2,-1.390245E-1,2.35E2,7E0,-1.5224525E-1,-6.43799E-2,-1.4569302E-1,7.5468644E-2,6.764276E-1,-1.4905082E-1,2.6590756E-1,-1.5322937E-1,-2.3522443E-1,-1.2796082E-1],"split_indices":[6,4,0,12,65,4,39,10,25,4,22,1,52,0,0,19,0,0,37,37,3,0,0,0,0,66,2,0,0,0,0,0,0,0,0,0,0],"split_type":[0,0,0,0,0,0,0,0,0,0,0,0,0,0,0,0,0,0,0,0,0,0,0,0,0,0,0,0,0,0,0,0,0,0,0,0,0],"sum_hessian":[1.5625428E5,7.267421E4,8.358008E4,2.209561E4,5.0578598E4,2.2068393E4,2.7215744E1,2.0128148E2,5.0377316E4,2.1486848E4,5.815447E2,1.7575315E1,9.6404295E0,1.99293E2,1.9884809E0,5.02698E4,1.0751708E2,1.6560236E4,4.926612E3,5.4456616E2,3.6978455E1,1.627806E1,1.2972536E0,1.0090761E0,8.631353E0,5.025324E4,1.6562E1,4.833529E3,9.308262E1,5.319374E2,1.262883E1,1.1915676E1,2.506278E1,5.0236527E4,1.6711067E1,1.2142583E1,4.4194174E0],"tree_param":{"num_deleted":"0","num_feature":"77","num_nodes":"37","size_leaf_vector":"1"}},{"base_weights":[-4.6388817E-1,-4.755216E-1,5.323143E-1,-4.992405E-1,-6.515669E-2,-1.5585105E-1,9.646323E-1,-5.1148343E-1,-4.1064003E-1,8.8216215E-1,-5.1441723E-1,-1.5052743E-1,1.0074763E0,-5.1365596E-1,6.410458E-2,3.984945E-1,-4.9814534E-1,-1.187547E-1,8.84432E-1,1.4172794E-1,-1.5479699E-1,1.0095414E0,-9.295547E-2,-5.152096E-1,-2.2043352E-1,-1.542002E-1,2.748086E-1,-1.5517858E-1,9.5335126E-1,-3.4419674E-1,-5.157363E-1,-8.953199E-2,2.6561457E-1,1.1722344E0,-1.355799E-1,3.3751094E-1,2.9815602E-1,-1.5461487E-1,-1.483127E-1,-1.5482442E-1,9.406991E-2,3.0108723E-1,-1.8881266E-1,-1.453928E-1,4.8889488E-1,-1.5480466E-1,-1.06113024E-1,4.0333375E-2,4.613883E-1],"categories":[],"categories_nodes":[],"categories_segments":[],"categories_sizes":[],"default_left":[0,0,0,0,0,0,0,0,0,0,0,0,0,0,0,0,0,0,0,0,0,0,0,0,0,0,0,0,0,0,0,0,0,0,0,0,0,0,0,0,0,0,0,0,0,0,0,0,0],"id":33,"left_children":[1,3,5,7,9,-1,11,13,15,17,19,-1,21,23,25,27,29,-1,31,33,-1,35,-1,37,39,-1,-1,-1,41,43,45,-1,-1,47,-1,-1,-1,-1,-1,-1,-1,-1,-1,-1,-1,-1,-1,-1,-1],"loss_changes":[1.3402012E3,1.1123555E3,6.075823E2,1.16984375E2,2.6586528E3,0E0,5.9971863E1,1.1873047E2,9.292715E2,6.1795654E0,4.4455566E0,0E0,2.8154907E0,4.2964844E1,1.7669476E2,6.5146204E2,3.1890625E1,0E0,2.5184326E0,7.208254E0,0E0,5.466919E-1,0E0,8.59375E-2,7.912158E1,0E0,0E0,0E0,6.413721E1,3.382588E2,2.9858398E-1,0E0,0E0,1.4133143E0,0E0,0E0,0E0,0E0,0E0,0E0,0E0,0E0,0E0,0E0,0E0,0E0,0E0,0E0,0E0],"parents":[2147483647,0,0,1,1,2,2,3,3,4,4,6,6,7,7,8,8,9,9,10,10,12,12,13,13,14,14,15,15,16,16,18,18,19,19,21,21,23,23,24,24,28,28,29,29,30,30,33,33],"right_children":[2,4,6,8,10,-1,12,14,16,18,20,-1,22,24,26,28,30,-1,32,34,-1,36,-1,38,40,-1,-1,-1,42,44,46,-1,-1,48,-1,-1,-1,-1,-1,-1,-1,-1,-1,-1,-1,-1,-1,-1,-1],"split_conditions":[5.133474E6,1.1632E4,5.019806E6,2.342777E6,9E0,-1.5585105E-1,6.4E1,3.52E7,7.445812E6,2.651417E6,1E1,-1.5052743E-1,6E0,9.99748E5,1.45E2,1.971E3,6E0,-1.187547E-1,1.2815E4,1.3344182E3,-1.5479699E-1,1.5404472E7,-9.295547E-2,1.3330792E6,3.1E1,-1.542002E-1,2.748086E-1,-1.5517858E-1,4.242E3,2.0559445E2,5.4357415E6,-8.953199E-2,2.6561457E-1,2E0,-1.355799E-1,3.3751094E-1,2.9815602E-1,-1.5461487E-1,-1.483127E-1,-1.5482442E-1,9.406991E-2,3.0108723E-1,-1.8881266E-1,-1.453928E-1,4.8889488E-1,-1.5480466E-1,-1.06113024E-1,4.0333375E-2,4.613883E-1],"split_indices":[19,5,73,27,3,0,34,16,18,25,3,0,4,19,6,10,3,0,65,12,0,1,0,27,68,0,0,0,5,14,70,0,0,69,0,0,0,0,0,0,0,0,0,0,0,0,0,0,0],"split_type":[0,0,0,0,0,0,0,0,0,0,0,0,0,0,0,0,0,0,0,0,0,0,0,0,0,0,0,0,0,0,0,0,0,0,0,0,0,0,0,0,0,0,0,0,0,0,0,0,0],"sum_hessian":[1.1561878E5,1.1428471E5,1.3340668E3,1.0803984E5,6.2448706E3,3.885452E2,9.455216E2,9.491901E4,1.3120834E4,2.0085797E3,4.236291E3,2.6537338E1,9.1898425E2,9.4562195E4,3.568138E2,1.2801481E3,1.1840686E4,3.2536495E0,2.005326E3,9.916629E0,4.2263745E3,9.177792E2,1.205099E0,9.4063055E4,4.99138E2,2.1280415E2,1.4400964E2,4.8302054E2,7.971275E2,1.2163389E3,1.0624347E4,1.3576467E0,2.0039684E3,3.2684696E0,6.6481595E0,1.0129928E2,8.1647986E2,9.326353E4,7.995204E2,3.2129E2,1.7784798E2,7.729421E2,2.418542E1,1.1362456E3,8.0093285E1,1.0603886E4,2.046064E1,1.2080635E0,2.060406E0],"tree_param":{"num_deleted":"0","num_feature":"77","num_nodes":"49","size_leaf_vector":"1"}},{"base_weights":[4.277258E-2,-4.1287005E-1,7.862559E-1,-4.542113E-1,6.2407106E-1,8.769315E-1,-5.1261467E-1,-9.448712E-2,-5.157229E-1,-4.3331707E-1,8.3294994E-1,-5.135696E-1,8.8484746E-1,-1.5482198E-1,2.4735087E-1,-3.3885124E-1,6.6465294E-1,-1.5477058E-1,-4.9783102E-1,-5.007164E-1,6.889663E-2,8.7305075E-1,-2.6757222E-1,-1.5553653E-1,-9.911854E-2,1.1758398E0,8.8394237E-1,-1.549942E-1,-1.00353226E-1,9.3538356E-1,-5.52291E-1,-5.1328766E-1,2.211122E0,-1.5109773E-1,1.3035043E-1,-1.5517208E-1,1.127032E0,1.6803646E-1,9.076165E-1,-1.5444015E-1,3.0910036E-1,1.7853406E-1,-1.21501714E-1,4.3018642E-1,1.1283901E0,-1.1813368E-1,8.84015E-1,1.9056036E-1,-1.413151E-1,2.9382282E-1,-1.5848605E-1,-2.1175447E-1,-1.5491085E-1,-1.5463457E-1,-1.0261307E-1,9.693375E-1,-9.154556E-2,-9.5093034E-2,1.864253E-1,6.803851E-1,-1.4714438E-1,2.9860246E-1,-1.5406679E-1,2.7253225E-1,-2.799091E-2,3.4386212E-1,2.3679012E-1,2.933943E-1,2.6498654E-1],"categories":[],"categories_nodes":[],"categories_segments":[],"categories_sizes":[],"default_left":[0,0,0,0,0,0,0,0,0,0,0,0,0,0,0,0,0,0,0,0,0,0,0,0,0,0,0,0,0,0,0,0,0,0,0,0,0,0,0,0,0,0,0,0,0,0,0,0,0,0,0,0,0,0,0,0,0,0,0,0,0,0,0,0,0,0,0,0,0],"id":34,"left_children":[1,3,5,7,9,11,13,15,17,19,21,23,25,-1,-1,27,29,-1,31,33,35,37,39,-1,41,43,45,-1,47,49,51,53,55,-1,57,-1,59,61,63,-1,-1,-1,-1,-1,65,-1,67,-1,-1,-1,-1,-1,-1,-1,-1,-1,-1,-1,-1,-1,-1,-1,-1,-1,-1,-1,-1,-1,-1],"loss_changes":[5.8185418E4,4.5655195E3,7.687043E3,2.2660332E3,9.022439E2,6.7196094E2,2.0123657E1,2.774668E3,2.5390625E-2,2.2856743E1,1.5072998E2,6.4914703E-1,1.4941406E1,0E0,0E0,4.7973865E2,1.2005214E3,0E0,3.861525E1,1.1698151E0,5.060821E1,8.003467E1,3.9246407E1,0E0,1.3595295E0,6.4860535E-1,5.9609375E0,0E0,1.3182886E3,1.9253516E2,3.295166E0,1.5333557E-1,1.4503872E1,0E0,9.776861E-1,0E0,5.475409E1,8.792191E1,2.6726074E0,0E0,0E0,0E0,0E0,0E0,6.813049E-2,0E0,3.265625E0,0E0,0E0,0E0,0E0,0E0,0E0,0E0,0E0,0E0,0E0,0E0,0E0,0E0,0E0,0E0,0E0,0E0,0E0,0E0,0E0,0E0,0E0],"parents":[2147483647,0,0,1,1,2,2,3,3,4,4,5,5,6,6,7,7,8,8,9,9,10,10,11,11,12,12,15,15,16,16,18,18,19,19,20,20,21,21,22,22,24,24,25,25,26,26,28,28,29,29,30,30,31,31,32,32,34,34,36,36,37,37,38,38,44,44,46,46],"right_children":[2,4,6,8,10,12,14,16,18,20,22,24,26,-1,-1,28,30,-1,32,34,36,38,40,-1,42,44,46,-1,48,50,52,54,56,-1,58,-1,60,62,64,-1,-1,-1,-1,-1,66,-1,68,-1,-1,-1,-1,-1,-1,-1,-1,-1,-1,-1,-1,-1,-1,-1,-1,-1,-1,-1,-1,-1,-1],"split_conditions":[1.2991721E3,1E0,1.1601E4,3E0,1.73E2,1.1595E4,2.26E7,1.12E2,1.0831536E3,1.96E2,2.37E2,1.8803384E3,1.4361926E3,-1.5482198E-1,2.4735087E-1,6.4E1,2.99E2,-1.5477058E-1,7.93E7,1.41E2,1.8E2,2.35E2,1.0315389E7,-1.5553653E-1,5.383218E1,8.22E7,2E1,-1.549942E-1,2.99E2,3E0,4.56E3,2E0,3.563E3,-1.5109773E-1,2.63E2,-1.5517208E-1,2.37E2,1E0,3.6704E4,-1.5444015E-1,3.0910036E-1,1.7853406E-1,-1.21501714E-1,4.3018642E-1,2.48E2,-1.1813368E-1,1.5477377E3,1.9056036E-1,-1.413151E-1,2.9382282E-1,-1.5848605E-1,-2.1175447E-1,-1.5491085E-1,-1.5463457E-1,-1.0261307E-1,9.693375E-1,-9.154556E-2,-9.5093034E-2,1.864253E-1,6.803851E-1,-1.4714438E-1,2.9860246E-1,-1.5406679E-1,2.7253225E-1,-2.799091E-2,3.4386212E-1,2.3679012E-1,2.933943E-1,2.6498654E-1],"split_indices":[13,43,5,52,21,5,27,34,13,29,66,12,13,0,0,34,65,0,75,24,66,66,1,0,15,73,4,0,65,3,21,51,69,0,1,0,66,3,24,0,0,0,0,0,24,0,13,0,0,0,0,0,0,0,0,0,0,0,0,0,0,0,0,0,0,0,0,0,0],"split_type":[0,0,0,0,0,0,0,0,0,0,0,0,0,0,0,0,0,0,0,0,0,0,0,0,0,0,0,0,0,0,0,0,0,0,0,0,0,0,0,0,0,0,0,0,0,0,0,0,0,0,0,0,0,0,0,0,0,0,0,0,0,0,0,0,0,0,0,0,0],"sum_hessian":[1.7175667E5,1.0649303E5,6.5263645E4,1.0241063E5,4.0823938E3,6.1005137E4,4.258509E3,1.4955033E4,8.74556E4,6.732399E2,3.409154E3,3.4496945E2,6.0660168E4,4.248135E3,1.037407E1,1.1313739E4,3.6412935E3,8.656147E4,8.941311E2,5.935816E2,7.965831E1,3.289498E3,1.1965597E2,3.4070233E2,4.2671056E0,1.8407008E2,6.0476098E4,6.481058E3,4.832681E3,2.9788313E3,6.6246216E2,8.8986426E2,4.266832E0,5.910275E2,2.5540552E0,5.159132E1,2.8066994E1,1.5401526E2,3.1354827E3,1.0101732E2,1.863865E1,1.0159054E0,3.2512002E0,2.4045862E1,1.6002422E2,3.130421E0,6.0472965E4,1.6191584E3,3.213523E3,2.8921685E3,8.666267E1,1.22054405E2,5.404078E2,8.7679034E2,1.3073968E1,2.83396E0,1.432872E0,1.5220714E0,1.0319839E0,1.622237E1,1.1844624E1,6.9363144E1,8.465211E1,3.1329949E3,2.4878092E0,1.4977429E2,1.0249924E1,4.5367313E2,6.0019293E4],"tree_param":{"num_deleted":"0","num_feature":"77","num_nodes":"69","size_leaf_vector":"1"}},{"base_weights":[-4.8695537E-1,-5.0187254E-1,6.833881E-1,-5.066444E-1,5.938586E-1,8.2304084E-1,-1.539644E-1,-5.0806326E-1,9.1709906E-1,8.8735646E-1,-1.5334694E-1,-1.8042712E-1,8.364604E-1,-5.09228E-1,-6.700144E-2,1.0988162E0,-1.4434004E-1,-1.301278E-1,2.7220657E-1,-1.4817263E-1,2.5972623E-1,8.500451E-1,2.3735467E-1,-5.1051736E-1,-2.3118679E-1,-4.7048375E-1,5.7913923E-1,3.5794073E-1,2.9124185E-1,2.5389466E-1,3.2139575E-1,-1.4754139E-1,3.102557E-1,-1.5356047E-1,-1.1242674E-1,-1.0728668E-1,5.320226E-1,-1.5418911E-1,-2.011579E-2,-1.5382493E-1,4.7478813E-1],"categories":[],"categories_nodes":[],"categories_segments":[],"categories_sizes":[],"default_left":[0,0,0,0,0,0,0,0,0,0,0,0,0,0,0,0,0,0,0,0,0,0,0,0,0,0,0,0,0,0,0,0,0,0,0,0,0,0,0,0,0],"id":35,"left_children":[1,3,5,7,9,11,-1,13,15,17,-1,19,21,23,25,27,-1,-1,-1,-1,-1,29,31,33,35,37,39,-1,-1,-1,-1,-1,-1,-1,-1,-1,-1,-1,-1,-1,-1],"loss_changes":[1.9893652E3,5.8851953E2,2.4010687E2,2.2672852E2,1.5880714E2,1.7452148E1,0E0,5.745117E1,2.8951996E1,1.0596191E1,0E0,6.2579026E0,1.0117981E1,3.989258E1,7.740854E1,4.0672302E-2,0E0,0E0,0E0,0E0,0E0,1.1639404E-1,1.764971E1,2.018164E1,1.3166286E2,3.170124E0,1.2592259E2,0E0,0E0,0E0,0E0,0E0,0E0,0E0,0E0,0E0,0E0,0E0,0E0,0E0,0E0],"parents":[2147483647,0,0,1,1,2,2,3,3,4,4,5,5,7,7,8,8,9,9,11,11,12,12,13,13,14,14,15,15,21,21,22,22,23,23,24,24,25,25,26,26],"right_children":[2,4,6,8,10,12,-1,14,16,18,-1,20,22,24,26,28,-1,-1,-1,-1,-1,30,32,34,36,38,40,-1,-1,-1,-1,-1,-1,-1,-1,-1,-1,-1,-1,-1,-1],"split_conditions":[6.568163E6,5E7,2.0492819E-1,3.56E2,6E0,1.19E7,-1.539644E-1,3.8372825E6,8.07E2,2.48E2,-1.5334694E-1,9.238986E7,8.056798E6,1.55E2,1.93E2,3.818936E6,-1.4434004E-1,-1.301278E-1,2.7220657E-1,-1.4817263E-1,2.5972623E-1,7.01592E6,1.88E2,3E0,5.63595E5,2.896E4,1.64E7,3.5794073E-1,2.9124185E-1,2.5389466E-1,3.2139575E-1,-1.4754139E-1,3.102557E-1,-1.5356047E-1,-1.1242674E-1,-1.0728668E-1,5.320226E-1,-1.5418911E-1,-2.011579E-2,